// #### Generated By: http://www.cufonfonts.com ####
Cufon.registerFont({"w":340,"face":{"font-family":"Futura Hand","font-weight":400,"font-stretch":"normal","units-per-em":"1000","panose-1":"0 0 0 0 0 0 0 0 0 0","ascent":"750","descent":"-250","bbox":"-3 -878.408 640.395 241.362","underline-thickness":"50","underline-position":"-50","unicode-range":"U+0020-U+20AC"},"glyphs":{" ":{"w":282},"\u00a0":{"w":282},"A":{"d":"148,-665v-2,-10,23,-19,21,-29r75,0v-1,77,31,120,30,197v20,16,9,59,31,72v-1,50,13,76,24,111v0,128,51,203,71,311v-44,-1,-77,2,-105,-10r-30,-131r-128,0v-21,29,-8,92,-20,131v-45,-1,-72,11,-116,10v21,-116,45,-227,71,-335xm380,-23v1,-70,-43,-92,-42,-162v-32,-36,-9,-121,-43,-159v-11,-126,-53,-224,-73,-341r-33,0v-1,13,-25,9,-31,20v-10,55,-21,110,-34,163r-74,316v-11,53,-21,108,-29,163r86,0v10,-40,-1,-101,21,-130v55,8,93,-9,146,-9v11,41,21,94,31,139r75,0xm137,-223v27,19,85,8,128,9v-28,22,-95,0,-137,9v0,-131,41,-219,61,-330v53,83,38,229,85,321r-9,0v-32,-82,-51,-183,-66,-283v-30,82,-41,183,-62,274","w":422},"B":{"d":"14,-492v14,-48,9,-118,10,-183v99,-12,187,-1,237,45v40,81,64,278,-56,286v27,32,65,52,87,89r0,127v-21,43,-40,67,-71,99v-12,0,-16,0,-16,13v-16,1,-40,-3,-43,9r-106,0v-5,0,-8,-2,-8,-5v15,-11,57,-1,86,-4v10,-14,27,-12,49,-13v43,-10,62,-51,88,-79r0,-147v-14,-48,-82,-42,-88,-99v121,4,111,-176,67,-254v-30,-54,-120,-57,-205,-58v-23,37,-10,115,-7,165v-39,132,9,320,-4,482v-1,5,-2,7,-4,7v-8,-5,-6,-44,-6,-62v0,-127,1,-282,-10,-418xm90,-598v120,-35,136,133,82,207r-10,0v-2,-32,32,-30,33,-57v2,-70,-1,-138,-72,-137v-33,42,13,122,0,182v3,13,24,11,39,12v-1,14,-10,23,-28,20v-45,-7,-9,-103,-44,-121r0,-106xm172,-86v-29,-11,-40,18,-71,12r0,-239v45,-3,75,4,91,33v30,56,15,158,-20,194xm111,-301v0,72,-9,147,12,204v92,2,102,-153,38,-193v-14,-9,-30,-13,-50,-11","w":307},"C":{"d":"301,-21v-29,19,-81,17,-129,18r-58,-27v-109,-109,-129,-401,-59,-571v26,-9,22,-43,59,-41v-71,51,-81,165,-90,277v20,157,29,327,179,354v41,-10,107,-1,90,-67v-17,-22,-71,1,-90,-23v-41,-19,-58,-60,-81,-98v-9,-144,-26,-327,59,-402v31,-11,76,-31,112,-10v20,-75,-64,-99,-118,-65v-20,11,-36,27,-61,34v26,-54,129,-68,196,-40v-1,33,-17,55,-9,90v-12,-21,-54,-8,-81,-9v-126,44,-98,270,-75,411v7,40,38,62,67,81v30,1,70,27,81,-10v18,18,0,68,8,98","w":319},"D":{"d":"28,-670v23,42,-5,115,10,164v0,19,-10,26,-10,47r0,259v0,64,16,137,0,193v-3,7,-4,9,-6,6v-5,-11,-5,-32,-5,-49v-9,-173,3,-351,11,-521v2,-39,-31,-84,-11,-118v153,-22,253,27,311,118v0,148,60,342,-20,452v35,-128,27,-311,0,-441v-40,-89,-150,-140,-280,-110xm238,-560v0,9,-1,22,10,21v3,177,74,453,-138,459r0,-541v63,0,91,35,128,61xm115,-597v1,171,19,344,0,509v183,-12,129,-267,123,-440v-12,0,-9,-12,-10,-23v-34,-20,-57,-49,-113,-46xm248,-60v5,-29,41,-29,47,-59r13,0v-13,31,-31,45,-60,59xm248,-60v-26,40,-94,30,-138,53r-64,0v-7,0,-10,-1,-10,-5v6,-11,37,-4,53,-6v56,-11,103,-32,159,-42","w":364},"E":{"d":"13,6v-8,-176,8,-346,7,-521v0,-56,-2,-111,-7,-166v85,1,154,-21,239,-10r0,90v-39,10,-91,9,-140,9v-19,57,-9,150,0,210v38,9,99,-10,130,9v-4,27,14,71,-23,62v-46,-11,-76,18,-116,8r0,219r159,0r0,70v-69,20,-167,11,-249,20xm93,-382r2,-113v0,-39,-2,-76,-13,-106v58,9,91,-20,150,-10v-11,-29,10,-42,10,-70v-77,0,-141,21,-219,10v19,216,1,435,0,657r178,1v37,2,66,-8,51,-51v-37,-29,-101,-1,-150,-2v-15,0,-24,-5,-29,-18v39,-25,1,-91,20,-138v14,-35,-20,-42,-11,-81v32,-19,80,-23,130,-16v17,-2,25,-11,20,-34v-12,-49,-107,0,-139,-29","w":270},"F":{"d":"10,-280v18,-123,0,-274,19,-400v76,-8,166,-30,244,-10r0,78v-47,17,-98,-8,-147,10v1,72,-2,130,10,185v28,20,89,0,127,10v-30,20,10,77,-9,98r-118,0r0,292v-22,20,-71,9,-107,9v-21,-71,0,-198,-19,-272xm244,-349v-29,-10,12,-20,0,-39v-42,-1,-92,2,-118,-10v-7,-71,-20,-157,0,-224r137,0v-1,-25,2,-55,-9,-68v-67,12,-148,8,-215,20v-19,226,-19,427,0,653r68,0v51,-80,-1,-205,10,-312v38,-12,111,22,127,-20","w":289},"G":{"d":"119,-497v-1,137,-26,301,27,399v22,1,40,18,63,8v-10,27,-51,1,-71,0v-64,-94,-27,-279,-27,-416v9,-13,29,-21,27,-46v34,-6,62,-18,100,-8v7,18,29,35,27,63v16,-8,33,-19,54,-19v-1,-115,-202,-153,-254,-54r-10,0v19,-80,148,-84,215,-40v31,20,63,50,67,94v-18,19,-55,18,-72,37v-27,-9,-9,-64,-37,-73r-54,0v-29,8,-35,37,-55,55xm182,1v-234,0,-173,-375,-135,-571r8,0v-5,30,-10,62,-15,98v-24,168,-40,408,98,455v48,17,88,-8,127,-19v-17,28,-42,37,-83,37xm328,-344v19,38,0,108,9,154v-18,58,-15,136,-72,154v53,-60,80,-198,45,-298v-17,37,-117,-28,-109,36v-7,32,31,18,53,18v8,-1,11,2,11,9v8,71,17,174,-56,181v50,-26,58,-100,46,-172v-13,-26,-56,9,-73,-9v10,-27,-1,-42,0,-73r146,0","w":355},"H":{"d":"99,-12v0,0,-80,9,-99,-11v3,-57,4,-113,4,-167r-4,-502v26,-10,75,11,99,-10v-9,91,1,177,11,259v31,11,82,-9,120,0r0,-249v29,-10,67,11,100,0v8,175,-8,344,-8,518v0,55,3,109,8,162r-100,0v-11,-106,0,-211,0,-321v-26,-20,-82,-1,-120,-9v-42,79,-19,231,-11,330xm259,-682v-30,59,-19,177,-9,250v-60,0,-108,20,-170,9v30,-82,-10,-169,0,-259r-60,0v-20,63,-21,190,0,259v9,29,-21,32,-10,61v2,23,21,34,10,60r0,249v0,30,39,22,60,30r-3,-174v0,-59,2,-116,13,-165v35,27,114,3,160,9v-7,106,-21,227,0,330r69,0v-30,-172,12,-355,0,-539v-1,-28,-20,-39,-9,-70v-12,-22,29,-50,-11,-50r-40,0","w":358},"I":{"d":"110,-337v20,89,0,219,10,313v-31,10,-60,20,-101,20v3,-61,4,-120,3,-177r-13,-519v41,-1,75,11,111,0v-1,30,-31,35,-20,71v30,12,-12,35,0,60v11,71,9,150,10,232xm110,-236v-21,-85,0,-210,-20,-293r0,-151r-71,0v2,57,-7,121,13,162v-8,118,-3,258,-3,383v0,25,21,43,10,70v-1,22,-7,72,20,41v59,22,32,-49,41,-91v20,-25,9,-81,10,-121","w":137},"J":{"d":"135,-2v-51,0,-87,1,-128,-9r0,-89v24,-20,55,12,88,0v-15,36,-97,-11,-79,59v-9,27,19,21,40,19v26,21,86,12,100,-12v13,-14,22,-32,37,-46v3,-47,5,-93,5,-140r0,-287v0,-49,2,-100,5,-151r-59,0v-40,160,41,373,-9,529r-10,0v21,-181,-2,-363,-10,-540v19,-29,68,20,88,-9v19,39,10,76,10,127r0,451v-21,39,-38,78,-78,98xm95,-100v-2,-10,21,-19,20,-29r10,0v0,19,-10,29,-30,29","w":237},"K":{"d":"232,-40v29,0,40,19,69,19v29,-21,-19,-38,-10,-69v19,22,40,38,39,79v-42,9,-69,-9,-108,-10v-28,-100,-78,-185,-107,-284v-22,83,1,199,-10,294r-98,0r0,-676v26,8,49,0,79,0v7,37,-45,9,-69,19v2,54,3,108,3,164r-2,330v1,54,3,104,8,153r60,0v28,-90,-30,-219,19,-304v40,29,40,98,69,137v19,50,48,89,58,148xm251,-167v-28,-60,-59,-118,-77,-187v30,-120,87,-214,127,-324v-96,-21,-78,86,-127,127v-12,33,-22,61,-40,90v-11,34,-15,77,-48,87v0,-54,0,-107,1,-160v1,-53,3,-104,8,-153v29,86,-9,186,0,284v51,-89,88,-194,137,-284r79,0v19,32,-19,47,-20,78v-19,20,-27,51,-40,79v-26,56,-45,109,-67,167v19,69,59,116,67,196xm251,-167v31,8,31,47,40,77v-30,-9,-29,-49,-40,-77","w":343},"L":{"d":"262,-96v-21,12,-9,53,-9,80r-239,0r0,-686r89,0v22,177,10,400,11,596v40,11,107,-1,148,10xm24,-692v19,220,-20,452,10,666v57,-15,137,21,190,-2v15,-6,21,-22,18,-47v-23,-33,-108,10,-139,-21r-12,-443v-1,-50,0,-101,2,-153r-69,0","w":276},"M":{"d":"95,-26v-36,-11,-51,20,-87,9v-1,-239,38,-439,49,-667v22,-19,47,12,77,0v40,127,57,279,87,416v47,-131,68,-286,106,-425v22,8,33,0,58,0r43,405v7,86,2,170,26,241v3,9,2,16,-1,21r-87,0v-31,-93,-8,-257,-29,-368v-22,90,-38,197,-57,290v-6,30,-13,56,-20,78v-15,1,-37,-2,-39,9v-49,-30,-42,-115,-58,-183v-14,-60,-28,-128,-39,-194v-4,61,-18,124,-25,184v-7,59,-14,124,-4,184xm318,-616v1,36,-21,52,-10,87v-19,10,-10,48,-29,58v-11,98,-28,172,-58,251v-40,-144,-48,-319,-97,-454r-48,0v-1,12,-10,14,-10,29v0,64,-10,127,-16,193v-6,66,-17,130,-22,194v-6,66,5,138,-14,190v-12,33,21,34,52,32v29,-133,10,-310,49,-435v9,83,35,148,48,232v6,40,19,66,19,116v19,28,-1,98,58,87v39,-48,28,-146,58,-203v1,-49,-1,-87,20,-116v10,-15,-11,-51,9,-58v0,-18,-10,-58,20,-48v0,73,12,131,19,193v5,42,-10,70,-10,106v20,36,-12,123,49,126v0,-18,38,1,35,-23v-3,-24,-16,-49,-16,-74v0,-69,-19,-123,-19,-183r0,-136v-11,-40,-24,-89,-19,-134v-5,-13,-18,-21,-10,-40v2,-27,6,-60,-29,-48v-29,0,-20,38,-29,58","w":477},"N":{"d":"9,-705v19,20,69,12,91,0v18,68,51,129,61,202v-42,-44,-32,-143,-81,-181r-50,0v-5,101,-9,209,-10,322v-1,113,-1,228,-1,345v21,-1,27,-21,51,-10v20,-160,-11,-335,10,-496v40,-11,0,57,30,71v-1,31,21,40,20,71v31,30,21,99,51,131v20,41,20,102,51,132v19,42,11,112,80,101v23,-25,10,-91,0,-122v-3,-43,-4,-86,-4,-129r4,-416r-60,0v-10,168,21,335,20,505v-41,-32,-30,-120,-71,-152v0,-71,-31,-110,-40,-172v40,63,49,160,80,233v21,-136,-10,-284,-9,-425v41,-1,70,1,101,-10v-20,223,-23,498,10,708v-33,-1,-56,-21,-91,-10r-80,-219v-28,-74,-51,-149,-72,-226v-22,107,-10,245,-10,364v0,27,-10,71,20,71v-17,22,-71,-1,-101,10r5,-522v0,-57,-2,-115,-5,-176xm262,-250v0,-5,-2,-8,-5,-8v-3,0,-5,3,-5,8v0,5,2,8,5,8v3,0,5,-3,5,-8","w":349},"O":{"d":"95,-639v32,-52,184,-58,204,9v-39,-22,-94,-58,-149,-24v-15,9,-31,15,-55,15xm27,-503v10,-52,30,-100,58,-136r10,0v-18,47,-54,93,-59,146v-6,67,1,137,-9,195v18,64,19,142,38,205v-49,-39,-29,-146,-58,-205v9,-62,21,-130,20,-205xm349,-484v-10,-47,-30,-98,-50,-136r0,-10v39,20,38,78,59,117r-9,409v-41,48,-87,100,-167,108v-59,-8,-97,-50,-117,-97v41,19,48,76,108,77v86,1,128,-40,156,-97v20,-110,0,-263,20,-371xm115,-532v15,-1,4,-35,29,-29v-17,149,-62,378,38,468v148,-56,68,-301,68,-468v-24,-21,-64,-37,-97,-11v15,-56,102,-17,117,11v-9,126,10,216,10,340v-19,53,-16,128,-78,137v-66,10,-68,-53,-87,-97r-5,-261v0,-28,2,-58,5,-90xm144,-561v1,-11,-1,-11,9,-11v-1,11,1,11,-9,11","w":374},"P":{"d":"21,4v-12,-231,1,-468,0,-696v107,-11,219,-6,281,42v70,95,22,285,-53,332v-49,-1,-71,32,-123,22r0,300r-105,0xm115,-308v176,15,228,-156,187,-322v-53,-51,-157,-51,-260,-51v4,33,-8,45,-10,73v32,137,-22,299,10,436r0,93v-1,31,-18,86,31,73v37,12,34,-20,32,-52v22,-13,-1,-60,10,-84v0,-61,-11,-110,0,-166xm126,-618r61,0v19,17,20,49,42,62v10,97,-8,176,-103,176r0,-238xm146,-608v-21,54,-10,137,-10,207v94,12,103,-141,50,-191v-11,-11,-25,-16,-40,-16","w":355},"Q":{"d":"266,-671v-38,-19,-106,-9,-147,0v24,-29,110,-20,147,-9r0,9xm11,-552v11,-12,21,-34,20,-60v28,-20,39,-59,88,-59v-47,39,-88,76,-99,149v3,47,3,94,2,144v-1,155,11,296,116,348v25,-11,30,6,51,10v45,8,57,-20,97,-20v-1,19,12,21,11,40v-29,-40,-87,2,-139,-10v-1,-13,-25,-9,-39,-10r-80,-88v-40,-119,-27,-289,-28,-444xm266,-671v14,1,20,2,20,20v-9,0,-21,-10,-20,-20xm345,-197v0,-118,-20,-225,-9,-345v-11,-41,-33,-74,-50,-109v100,72,40,302,79,434v-21,38,-20,97,-48,128r28,59v-30,-2,-28,-38,-39,-59v10,-39,30,-68,39,-108xm198,-99v39,-34,-46,-58,-20,-98v11,1,10,-11,20,-10v-29,48,30,61,30,108v-17,19,-60,10,-79,0v-69,-84,-40,-259,-59,-394v9,-48,40,-102,79,-119v25,-11,36,9,59,11v49,104,29,278,38,423v-38,11,-30,-31,-68,-29v19,-46,37,16,59,20v9,-118,-11,-219,-11,-335v-10,-34,-19,-76,-57,-79v-49,-4,-51,47,-79,68v-1,15,2,39,-11,40v20,50,3,126,11,187v12,88,4,194,88,207xm306,30v1,-11,-10,-19,-9,-30v25,0,19,30,48,10v18,-13,-2,-21,0,-40v9,11,32,19,31,40v-31,0,-34,31,-70,20","w":407},"R":{"d":"24,-9v-21,-202,19,-457,-11,-660v74,-29,187,-9,233,29r0,10v-62,-22,-123,-47,-213,-39v-19,32,-1,70,0,107v2,43,3,88,3,135r-2,278v1,45,3,89,8,130v25,-8,69,-8,49,-49r2,-214v-2,-22,-13,-63,18,-57v-1,18,10,20,10,38v-11,-4,-22,-11,-20,11v-12,98,0,182,10,271v-30,11,-46,9,-87,10xm246,-630v11,-1,19,11,30,10v38,76,9,200,-20,261v-19,11,-39,20,-59,29v9,44,39,65,40,117v-30,-30,-39,-85,-58,-126v21,-10,57,-8,67,-29v30,-61,49,-206,0,-262xm101,-378v-18,-65,-10,-145,-10,-223v45,-10,65,18,97,29v41,81,14,202,-87,194xm111,-397v89,14,101,-101,68,-165v-19,-11,-50,-18,-68,-29v-20,50,-10,140,0,194xm324,0v-33,-1,-62,-19,-97,-9r-106,-292v30,30,39,85,58,126v22,48,28,98,48,146v36,-9,43,21,78,10v0,-18,-11,-21,-10,-39v19,10,29,29,29,58xm237,-213v32,41,39,99,58,155v-30,-41,-40,-101,-58,-155"},"S":{"d":"265,-295v-1,29,19,60,29,78v1,104,-37,160,-96,202v-71,20,-127,-3,-174,-28r0,-107v35,10,47,42,96,29v31,-8,38,-29,59,-49v0,-163,-135,-191,-174,-316v0,-106,37,-180,115,-203v56,-16,89,19,135,29r0,86v-34,1,-17,-48,-19,-76v-28,-11,-68,-19,-96,-30v-87,21,-144,89,-116,203v31,126,178,152,164,327v-37,35,-83,61,-144,29v-1,26,2,46,-10,58v31,31,81,37,145,38v66,-27,98,-83,105,-163v4,-39,-30,-47,-29,-87v-67,-78,-165,-125,-164,-270v13,-13,30,-20,29,-48v45,-20,94,2,125,19r0,20v-32,-14,-54,-39,-105,-30v-21,21,-28,38,-39,68v28,104,84,172,164,221","w":307},"T":{"d":"207,-584v19,182,-19,380,10,560v-13,30,-69,-1,-99,18v-2,-44,-2,-90,-2,-138r1,-296v-1,-50,-3,-97,-8,-144v-17,-20,-69,1,-99,-9v0,-35,-8,-55,0,-88v90,29,214,-20,305,9v9,36,-21,43,-10,79v-40,-11,-61,8,-98,9xm197,-593v24,-19,90,8,98,-29v0,-21,-1,-29,10,-40v-28,-11,-70,-11,-98,0r-148,0v-34,-2,-53,13,-38,49v22,20,83,-9,107,20v-11,180,0,384,0,569r69,0r0,-569","w":331},"U":{"d":"325,-703v-12,167,-9,365,-10,550v-11,40,-20,87,-39,117r-10,0v19,-38,21,-89,39,-128r0,-519r-58,0v-21,157,10,323,0,489v-21,48,-39,99,-108,99v-106,-126,-32,-393,-50,-588v-17,0,-21,11,-39,10v-38,-9,-9,43,-19,68r0,245v-10,41,11,102,0,147v1,60,-1,98,19,138v33,30,78,74,148,59v20,-4,43,-11,68,-20v-28,49,-124,41,-169,14r-56,-34v-68,-167,-1,-425,-30,-627v34,-1,62,-21,98,-10v1,195,-50,432,30,579v94,10,87,-94,97,-167v19,-141,-9,-270,-9,-412v38,11,60,-11,98,-10","w":337},"V":{"d":"29,-525v12,-60,-30,-110,-10,-161v32,-1,55,-21,90,-10v10,75,21,151,33,228v12,77,22,158,27,243v52,-135,40,-334,91,-471v21,21,74,9,100,0v-21,102,-60,189,-60,311v-40,114,-65,252,-90,381r-71,0v-30,-58,-39,-126,-40,-211v-31,-95,-41,-212,-70,-310xm169,-24v49,1,42,-55,41,-100v61,-165,81,-375,130,-552r-60,0v-39,60,-39,163,-60,241r0,80v-30,44,-7,137,-61,160v-2,-175,-42,-331,-60,-491v-28,-1,-42,21,-70,10v10,219,80,373,90,592v21,10,16,85,50,60","w":380},"W":{"d":"159,-249v39,-136,40,-308,80,-443r78,0v10,175,50,317,69,483v40,-138,44,-330,69,-483v41,1,68,-11,109,-10r-76,348r-35,173v0,0,-20,110,-27,160r-80,0v-9,-151,-49,-273,-68,-414v-30,138,-30,305,-70,433v-9,-29,-40,19,-49,-10v-26,11,-19,-18,-19,-39v0,-20,-19,-26,-10,-50v-10,-25,-11,-61,-29,-79v-8,-187,-95,-316,-89,-512r89,0v10,73,21,146,33,218v12,72,20,146,25,225xm170,-189v-41,-148,-59,-326,-79,-494v-28,-1,-41,20,-70,11v10,179,80,302,89,483v20,19,20,58,30,88v19,25,-9,90,49,80v31,-61,39,-137,40,-228v12,-19,9,-48,19,-69v-9,-45,17,-64,10,-108v-6,-35,15,-48,9,-85v2,-11,7,-18,21,-14v-11,59,21,99,9,158v20,49,21,118,40,167v21,55,0,139,49,168v49,0,39,-61,40,-108v41,-110,49,-254,89,-366r0,-68v19,-29,9,-82,30,-109r-80,0r-27,240v-4,40,2,89,-16,115v-18,46,1,127,-36,158r-49,-265v2,-50,-22,-89,-20,-139v-20,-34,9,-109,-48,-109v-47,0,-21,74,-40,100v1,47,-22,81,-9,127v-40,67,-23,187,-50,267","w":586},"X":{"d":"364,-10v-38,9,-63,-10,-100,-10v-19,-71,-52,-129,-70,-201v40,50,50,130,80,190v27,-10,45,9,69,11r-130,-331v20,-60,40,-118,61,-173v21,-55,44,-111,69,-166r-59,0v-41,72,-59,138,-80,230v-30,0,-19,-40,-30,-60v-22,-3,-10,-41,-30,-50v-10,-40,-30,-80,-40,-120v-30,1,-60,-1,-80,10v39,101,91,199,120,310v-20,90,-71,149,-80,249v-20,21,-20,60,-40,80v4,22,43,-2,60,10v39,-17,28,-86,60,-109v11,-51,9,-90,30,-131v10,10,20,31,20,50v-16,-18,-20,-9,-22,9v-1,5,-4,9,-9,12v11,27,-9,42,-9,69v-21,30,-29,72,-40,111v-39,-11,-74,10,-110,0v50,-109,70,-243,130,-341v-31,-125,-92,-221,-130,-339r120,0v0,90,50,130,70,200v18,-72,51,-130,70,-200r89,0v-28,129,-90,222,-119,349","w":370},"]":{"d":"113,-641v-33,0,-71,0,-95,7v-10,-29,7,-41,6,-66r162,0r-4,338v0,58,-1,117,0,175v1,58,5,114,10,169v-58,-8,-121,21,-174,0v7,-15,6,-37,6,-59v28,16,58,-9,89,-8v-2,-51,-3,-99,-3,-146xm44,-686v-16,6,-20,43,6,40v23,3,50,-6,70,-3v2,48,2,96,2,145r-1,290v1,47,3,93,6,137v-26,16,-93,-11,-96,36v19,53,95,0,147,14v-3,-56,-5,-112,-6,-167r0,-499v-36,12,-93,-7,-128,7","w":207},"Y":{"d":"244,-310v0,110,-11,206,0,311r-94,0r0,-291v-31,-155,-114,-258,-145,-414r104,0v19,103,73,168,82,280v33,-87,40,-204,84,-280r103,0r-63,201v-21,66,-45,130,-71,193xm119,-632v-34,-4,2,-86,-55,-59v-12,6,-20,15,-38,8v31,143,104,240,135,384v-12,95,19,189,0,279r72,0v-22,-77,-10,-186,-10,-279v53,-124,92,-271,145,-395v-39,1,-68,-1,-93,11v-32,93,-41,208,-84,290v-20,-48,-28,-112,-51,-155v-1,-34,-22,-47,-21,-84","w":389},"Z":{"d":"40,-623v12,-32,-21,-59,0,-81v101,11,200,-2,312,0v-15,53,-30,105,-48,154r-163,440v53,30,137,0,201,0v12,25,-21,54,0,71v-6,38,-46,-11,-60,20v-37,1,-67,-2,-91,9r-181,0v31,-101,65,-200,102,-298v37,-98,74,-201,109,-306v-58,-11,-117,2,-181,-9xm50,-664v0,74,163,-11,191,50r-109,294v-37,99,-71,200,-102,301v83,-1,156,-20,242,-11v6,-20,70,9,50,-40v-2,-40,-60,-10,-90,-21r-111,0r113,-295v37,-98,73,-198,98,-309v-25,21,-57,-1,-91,0v-51,19,-125,8,-181,13v-7,2,-10,8,-10,18","w":361},"[":{"d":"31,-705v56,0,111,6,164,0v-3,28,15,74,-30,57v-21,1,-37,12,-67,9r-10,276v-1,99,3,203,18,287v19,24,62,-15,81,7r0,52v-44,24,-96,-8,-149,0v-38,-204,10,-454,-14,-667v-1,-13,6,-12,7,-21xm143,-653v21,1,46,4,37,-23v6,-29,-39,-8,-59,-15v-34,8,-49,-15,-83,-7v-1,9,-8,9,-7,22r16,230v-8,134,-30,303,7,422r67,0v16,-8,61,15,59,-15v-3,-42,-65,-10,-89,-22v-15,-188,-14,-395,0,-585v21,8,35,-8,52,-7","w":210},"\\":{"d":"346,-17v14,-30,-28,-47,-21,-80v20,18,32,55,37,88v-51,8,-65,-21,-73,-58v-23,-22,-36,-51,-44,-87v-62,-116,-96,-251,-160,-364v-21,-67,-67,-109,-80,-183r58,0r67,151v22,49,41,99,56,155v59,87,95,196,139,298v-37,-37,-50,-100,-72,-152v-62,-87,-86,-212,-139,-306v-7,-31,-21,-49,-29,-80v-21,-16,-17,-60,-59,-51v-10,34,32,49,30,88v39,43,58,108,80,164r109,272v42,42,37,125,101,145","w":383},"a":{"d":"149,-391v-45,-9,-60,16,-92,25v7,-26,43,-33,67,-42v43,16,97,3,142,17v1,127,-11,260,8,376r-84,0v0,-6,0,-35,-7,-34v7,-19,20,-17,23,2v1,5,1,10,1,14v21,-7,26,8,43,9v17,-108,-1,-244,7,-359v-16,9,-58,-17,-50,17v-26,-2,-28,-27,-58,-25xm23,-324v19,-8,17,-25,26,-42r8,0v-49,93,-34,264,25,333v-31,-7,-33,-46,-50,-67v-15,-60,-18,-127,-6,-190v2,-9,-1,-21,-3,-34xm108,-316v17,1,23,-19,41,-17v69,29,84,197,25,251v-106,6,-77,-146,-66,-234xm166,-316v-12,0,-10,-9,-25,-8r-33,33v10,75,-29,190,58,200v20,-10,16,-35,33,-49v1,-74,-15,-122,-33,-176xm82,-33v8,0,18,0,17,9v36,0,54,-19,84,-25v-10,25,-81,50,-101,16","w":289},"^":{"d":"304,-697v-10,37,20,39,21,69v-27,-6,-30,-35,-40,-58v-26,8,-55,10,-89,9v-59,40,-69,128,-118,177v20,-72,61,-129,99,-186v44,-1,80,-20,127,-11xm325,-628v21,11,28,45,38,68v-21,-11,-29,-42,-38,-68xm245,-598v-28,-11,-9,29,-38,29v1,-22,12,-41,29,-49v16,9,28,27,29,49v-13,-1,-21,-13,-20,-29xm207,-569v-1,20,1,41,-20,40v0,-19,10,-31,20,-40xm265,-569v29,20,48,45,60,79v-31,-21,-49,-38,-60,-79xm363,-560v10,20,30,30,30,60v-9,-21,-31,-28,-30,-60xm30,-422v0,15,-1,21,-10,30v111,21,109,-88,167,-137v-11,61,-52,91,-69,147v-38,-13,-120,33,-98,-40r10,0xm59,-471v1,-15,0,-30,19,-29v0,17,-6,28,-19,29xm393,-500v40,29,57,79,78,128v-32,-1,-54,-21,-88,-10v-19,-38,-49,-61,-58,-108v49,23,34,112,117,98v-1,-52,-42,-62,-49,-108xm30,-422v-2,-25,18,-27,19,-49r10,0v0,22,-12,41,-29,49","w":504},"_":{"d":"34,-18v-22,-13,0,-65,-22,-75v0,-10,21,-31,22,-10r441,0v33,8,59,-13,92,-8v19,2,21,48,9,59v-20,29,-75,23,-122,23r-183,0v-27,-10,-41,9,-65,11v-25,11,-33,-10,-54,-11v-43,-2,-74,12,-118,11xm34,-50v122,21,279,-1,409,11v20,-28,89,7,115,-20v4,-5,5,-12,3,-23r-259,-12v-92,-1,-185,1,-268,12r0,32","w":601},"`":{"w":833},"b":{"d":"25,1v-19,-210,-11,-456,-11,-684v20,-9,61,11,75,-8v7,0,7,0,7,8r0,290v16,19,18,-23,39,-23r81,0v0,7,11,6,18,6v17,17,18,49,37,65v-9,130,24,292,-65,346v-62,-8,-124,-25,-181,0xm25,-673r8,491r0,166v48,10,58,-13,74,-38v9,41,60,38,109,38v72,-72,46,-256,27,-366v-24,-22,-88,-43,-117,-8v-9,12,-19,24,-37,27v-10,-105,0,-201,0,-310r-64,0xm96,-227v11,-26,0,-72,19,-90v-8,-19,20,-10,20,-28r44,0v22,56,45,164,23,237v-7,24,-21,39,-42,46v-70,-7,-45,-107,-64,-165xm107,-218v28,40,-3,135,53,146v66,-46,36,-198,8,-263r-26,0v2,17,-27,8,-18,26v-16,20,-9,63,-17,91","w":289},"d":{"d":"268,-41v0,49,-45,37,-84,36r0,-9r9,0v7,-16,29,-1,43,-8v7,-5,5,-24,16,-9r-10,-453v-1,-51,0,-104,2,-157r-43,0v-26,85,-16,194,-8,292v-36,-20,-59,-53,-121,-44v31,-35,79,12,112,18v-17,-77,-9,-176,-9,-266v20,-8,63,-19,87,-10v-10,161,9,326,0,491v12,30,6,82,6,119xm72,-393v1,10,-9,18,-17,18v0,-11,2,-19,17,-18xm81,-14v0,-9,-10,-8,-18,-8v-76,-71,-51,-256,-17,-353r9,0v-27,105,-68,320,52,353v35,10,45,-12,61,-26v4,-4,9,-4,16,0r0,34v-9,-17,-26,-17,-35,0r-68,0xm158,-73v-107,-10,-67,-196,-43,-268r26,0v35,-1,33,36,52,52v0,81,7,174,-35,216xm123,-332v-28,65,-60,235,35,249v27,-69,59,-231,-35,-249","w":289},"c":{"d":"125,-86v23,1,53,-2,62,10r0,60r-8,0v0,-17,1,-35,-10,-43v-26,-9,-61,-27,-79,-44v-28,-63,-26,-187,19,-228v20,-10,62,0,78,-19v0,-15,-9,-19,-8,-35v-17,-26,-67,-9,-98,-8v17,-34,83,-20,115,-9v-8,24,8,52,0,79v-112,-45,-138,104,-100,197v7,18,17,31,29,40xm81,-393v-68,62,-62,221,-34,325v34,27,64,63,132,52v-57,35,-113,-12,-142,-43v-11,-70,-34,-141,-17,-217v11,-51,15,-104,61,-117","w":216},"g":{"d":"71,0v1,-9,-10,-9,-18,-9v-26,-24,-34,-58,-43,-96v10,-109,-32,-272,61,-307v43,-16,70,10,87,35v7,-35,56,-27,97,-27v-8,85,8,192,-9,272v16,80,9,193,-17,255r-10,0v43,-145,11,-344,27,-517v-29,2,-73,-15,-58,36v0,6,-1,11,-3,15v-34,-16,-46,-56,-88,-61v-43,-5,-44,37,-70,53v0,121,-45,305,61,342v44,15,70,-10,79,-44v7,45,28,103,9,150v-40,18,-106,4,-88,-53r-61,0v-14,102,125,139,192,79v-11,60,-107,36,-158,26v-8,-19,-16,-25,-34,-35v10,-32,-26,-55,-9,-78r79,0v0,16,-1,44,8,51r53,0v19,-19,0,-69,9,-96v-11,-24,-16,17,-35,9r-61,0xm176,-280v0,66,8,138,-9,192r-9,0v2,-21,17,-37,9,-61v-28,-41,21,-151,-35,-175v-46,26,-34,114,-35,183v9,19,7,44,17,62v21,8,27,-7,44,-9v-21,44,-68,3,-70,-26v11,-75,-31,-196,44,-219v36,-10,26,36,44,53","w":270},"e":{"d":"19,-307v18,100,-19,256,61,294r98,0v44,-16,73,-49,62,-115v-68,-24,-45,47,-88,58v-12,3,-28,4,-45,4v-16,-37,-34,-91,-27,-143v40,20,119,18,160,0v10,-94,-23,-150,-79,-186v-55,1,-87,-1,-115,27v8,-45,72,-35,123,-36v60,34,109,126,71,214v-55,-8,-98,6,-150,7v17,36,-4,126,64,104v17,-11,11,-44,24,-58v28,-1,64,-9,80,9v12,96,-62,147,-162,128v-28,-5,-50,-19,-68,-39v-24,-85,-14,-192,-18,-295v13,-7,14,-36,36,-34v-7,24,-20,37,-27,61xm178,-245v-34,-1,-68,19,-98,9v0,-51,0,-100,37,-115v51,9,71,44,61,106xm99,-245v25,9,37,-8,62,-8v-1,-36,0,-63,-19,-81v-54,-12,-65,51,-43,89","w":273},"f":{"d":"9,-378v-1,-23,27,-17,42,-25v4,-84,-3,-178,34,-231v34,-8,75,-24,112,-8r0,85v-54,-34,-74,24,-71,80v0,25,6,55,11,74v4,17,37,0,52,9r0,60v-15,16,-31,0,-52,0r0,136v-16,52,0,140,-8,196r-68,0r0,-316v-3,-30,-40,-2,-52,-16r0,-44xm129,-394v-18,-47,-19,-143,8,-180v14,-10,47,11,52,-9v-19,-3,1,-36,-9,-51v-139,-28,-118,123,-111,248v-13,9,-46,-10,-52,8v27,-4,-10,45,18,34v16,1,35,-1,34,18v26,98,-18,217,8,316v2,-19,32,0,44,-8r3,-237v0,-25,-1,-52,-3,-79v17,-19,75,6,59,-35v7,-25,-23,-13,-42,-15v-6,0,-9,-4,-9,-10","w":213},"m":{"d":"138,-335v-67,-3,-51,74,-51,134r0,185r-67,0v-16,-121,-1,-259,-9,-388v26,11,71,1,85,26v1,8,-19,17,-17,25v-13,5,-10,-8,-9,-17v1,-9,5,-21,-8,-16v-16,0,-34,1,-42,-8r10,176v1,62,-2,123,-10,177v10,9,28,18,50,17v17,-30,0,-82,0,-118v0,-83,-12,-190,59,-211v54,4,35,85,51,126v1,71,-9,154,17,203v63,18,35,-62,34,-101v-2,-75,1,-141,16,-202v27,-1,36,-26,68,-18v42,86,-18,224,16,321v18,-1,23,-17,43,-9v26,-47,-9,-111,1,-171v10,-62,22,-143,-10,-190v-47,-17,-109,-2,-118,41v-24,-9,-25,-41,-59,-41v-37,-10,-65,6,-92,16v22,-50,115,-33,143,0v29,-26,87,-50,135,-26v43,97,-1,269,24,388v-29,0,-66,8,-83,-8v3,-75,-6,-158,5,-224v6,-35,2,-75,-22,-87v-73,10,-47,114,-53,190v-3,46,7,102,-6,138v-29,8,-41,-8,-67,-9r0,-144v-27,-45,17,-152,-34,-175","w":410},"h":{"d":"89,-669v-11,94,17,166,8,261v34,4,115,-32,126,18v-23,-23,-90,-31,-111,4v-7,11,-15,23,-33,23v18,-94,-9,-195,0,-297r-54,0v-19,139,-19,320,0,459r0,109v7,31,-21,95,37,80v20,-23,8,-82,8,-125r0,-154v26,-19,30,-63,81,-54v44,33,27,123,45,181r0,89v11,18,-20,72,18,63v43,12,19,-37,27,-63r0,-261v0,-25,-18,-29,-18,-54v57,19,8,130,36,181v6,71,-21,128,1,182v1,7,1,16,-1,25v-20,9,-49,2,-72,9v-18,-104,9,-247,-36,-333v-41,-26,-54,29,-72,53v-8,95,9,178,10,271v-30,-11,-46,8,-73,9r-8,-325r-1,-351r82,0","w":276},"i":{"d":"77,-560v2,17,-17,13,-25,20v-8,4,-18,6,-27,6v8,-17,25,-26,52,-26xm25,-534v-2,21,-18,37,5,50v26,14,86,12,74,-28v-4,-17,-20,-26,-27,-39v31,-2,25,31,43,43v4,53,-72,59,-101,30v-17,-18,-13,-38,6,-56xm25,-6v19,-115,8,-263,0,-381v17,-18,50,-7,78,-8v-8,135,9,254,9,389v-29,-8,-61,8,-87,0xm77,-14v36,-2,8,-53,18,-79r0,-294r-44,0v-23,64,17,156,0,234v-6,28,-8,42,-8,78v-1,32,-8,79,34,61","w":137},"j":{"d":"20,-534v9,0,20,-9,19,-19v26,-8,43,8,66,10r0,9v-32,0,-70,-18,-76,19v12,28,16,47,56,47v25,12,20,-17,38,-19v9,-25,-16,-26,-18,-47v53,-4,27,60,9,76v-66,8,-106,-8,-94,-76xm47,164r-8,-537r84,0v-29,198,1,402,0,612v-23,12,-43,-27,-57,0v-25,-6,-19,-47,-19,-75xm57,154v9,20,-19,75,19,66r29,0v19,-197,-39,-387,9,-574v-1,-11,1,-10,-9,-10v-9,11,-39,10,-58,10v0,40,1,78,3,115r13,213v2,35,3,70,3,105v-10,18,-9,48,-9,75","w":155},"k":{"d":"26,-9v-16,-6,1,-47,-16,-50v7,-190,26,-403,8,-595v26,-8,57,8,85,0v-15,113,-10,269,0,382r86,-135r84,0v-8,36,-42,48,-50,84r-10,0v0,-37,28,-44,34,-76v-70,-20,-75,46,-105,85v-17,22,-12,64,-47,68v-16,-118,-1,-264,-9,-391v-5,-16,-28,9,-42,0r-18,602v10,19,50,-1,69,10v0,-64,8,-136,-9,-187v31,-2,27,29,35,50v-10,-3,-18,-11,-18,9r0,136v-31,0,-56,-1,-77,8xm213,-323v-8,36,-24,58,-42,85v44,68,76,145,119,213v-108,40,-142,-59,-169,-137v46,42,49,157,152,127v-44,-61,-70,-138,-118,-195v25,-25,24,-77,58,-93","w":313},"l":{"d":"87,-630v-24,212,26,413,9,630r-76,0v-10,-64,5,-146,11,-206v-21,-92,-4,-211,-17,-321v-4,-30,-2,-65,-2,-103v22,-1,48,1,59,-8v9,-1,7,9,16,8xm37,-126v-3,43,-37,114,25,118v49,-8,17,-70,17,-110r0,-159v0,-23,-17,-36,-8,-59r0,-226v-9,-17,16,-66,-17,-59r-25,0v-19,40,2,114,2,173r-1,194","w":118},"n":{"d":"88,-378v33,-9,71,-41,110,-17r0,9v-56,-17,-81,19,-119,34v-1,-12,2,-34,-8,-34v-16,0,-35,-1,-43,8v-24,111,8,235,0,356v6,18,32,-11,51,0v-9,-92,1,-185,0,-279v25,-8,36,-51,69,-26r0,9v-33,-7,-49,13,-60,34r0,280r-68,0r-11,-292v-1,-32,0,-65,2,-99v33,6,84,-16,77,17xm241,-22v-17,-123,21,-280,-43,-364v11,0,17,1,25,8v35,95,25,238,26,366v-29,-10,-48,7,-76,8v-25,-89,16,-232,-25,-314v25,0,16,35,25,51v1,85,-4,171,8,245r60,0","w":270},"o":{"d":"213,-376v-36,-8,-61,-28,-107,-27v-36,9,-61,36,-80,62v1,99,-2,197,18,277v-44,-69,-45,-214,-18,-303v27,-45,143,-62,187,-18r0,9xm213,-376v11,1,19,12,18,26v-11,-1,-19,-12,-18,-26xm106,-323v5,-42,51,-16,63,0v0,72,38,170,-3,225v-19,26,-56,15,-66,-18v-17,-58,-11,-143,-3,-207r9,0v-18,71,-20,196,27,233v56,-2,27,-84,36,-134v-11,-29,-8,-67,-18,-99v-8,-9,-37,-9,-45,0xm231,-350v36,65,20,206,0,277r-9,0v18,-79,27,-190,9,-277xm88,-28v22,9,78,19,97,-2v12,-14,17,-36,37,-43v-2,39,-33,51,-53,72v-35,-1,-73,1,-81,-27xm44,-64r26,27v-17,0,-26,-9,-26,-27xm70,-37v9,0,18,-1,18,9v-9,0,-18,1,-18,-9","w":264},"p":{"d":"14,-399v25,8,78,-18,69,24v28,-1,31,-33,59,-33v25,0,34,16,60,16r0,10v-53,-17,-103,-9,-111,42v-25,1,-17,-30,-17,-52v-24,0,-35,18,-60,10v27,151,18,339,18,514v19,-1,30,-17,51,-9v0,-69,1,-125,-9,-185v9,9,28,15,27,34v-18,39,-11,119,0,160v-34,-8,-53,16,-87,8v27,-171,-7,-360,0,-539xm133,-20v45,-3,93,-18,93,-59v0,-106,9,-227,-24,-303v42,49,33,151,49,227v1,40,-15,63,-16,101v-28,24,-101,84,-134,26v17,-1,15,9,32,8xm66,-222v-4,-43,17,-76,35,-101r41,0v24,54,40,160,14,226v-5,13,-13,22,-23,27v-61,-11,-61,-88,-67,-152xm159,-232v-15,-22,-10,-64,-26,-84r-25,0v-8,18,-5,36,-25,42v5,70,-14,164,42,186v51,-9,24,-92,34,-144","w":267},"q":{"d":"16,-305v19,-54,47,-98,114,-105v19,-1,26,18,36,26v-19,1,-25,-10,-36,-17v-46,8,-70,38,-96,70v0,0,-34,262,44,317v43,11,67,-10,94,-24v7,-4,13,-5,20,-3v16,49,1,125,9,184v19,2,31,17,53,9v6,-131,-2,-283,-2,-418v0,-48,0,-90,2,-127v17,176,8,378,17,563v-15,-17,-51,-9,-79,-9v8,-67,-9,-119,-9,-185v-16,-13,-26,28,-53,18v-21,17,-42,-1,-69,0v-62,-53,-44,-189,-45,-299xm166,-384v10,11,36,4,26,-17v15,1,48,-3,50,5v-9,4,-27,3,-41,3r0,45v-27,0,-35,-9,-35,-36xm140,-340v70,11,60,105,61,185v0,42,-25,59,-35,90v-2,1,-5,0,-9,-2v35,-58,53,-221,-9,-264v-62,26,-52,141,-44,219v11,22,17,52,53,45v-43,31,-60,-26,-70,-62v0,-86,-10,-183,53,-211","w":285},"r":{"d":"176,-328v-154,-1,-75,214,-99,328r-61,0v8,-140,-9,-267,-9,-407v32,7,97,-26,89,26v20,-9,38,-28,53,-44v26,16,17,65,27,97xm77,-17v0,0,-55,-314,80,-320v-1,-24,11,-68,-17,-70v-19,18,-35,44,-53,62r0,-54v-18,11,-44,10,-71,10v-9,132,26,253,8,381v20,-1,31,-17,53,-9","w":188},"s":{"d":"184,-329v-31,-7,-52,-20,-85,-9v6,-31,57,-19,76,-9v8,-35,-10,-49,-33,-59v-75,8,-139,35,-120,128v17,80,122,80,111,188v-16,18,-52,16,-85,17r0,-9v33,-1,69,1,77,-25v-18,-87,-111,-101,-120,-196v10,-45,15,-66,43,-94v34,-7,57,-28,102,-17v6,15,29,10,42,17v-8,18,-18,42,-8,68xm36,-46v-1,36,42,24,71,24v34,-18,60,-41,85,-68v11,-121,-90,-135,-119,-222v0,-9,9,-17,26,-26v-21,35,7,68,31,82v6,5,10,12,12,20v31,16,35,55,59,78r0,76v-29,49,-110,103,-179,60v9,-22,-18,-76,26,-68r0,8v-20,-1,-15,22,-12,36","w":219},"t":{"d":"56,-387v8,-38,-8,-63,-8,-100v31,9,42,-18,75,-9v17,24,7,74,8,109v-31,-13,-9,-54,-8,-83v-5,-17,-43,0,-59,-9r0,100v-11,9,-36,-9,-41,8v-9,31,11,36,41,34v-16,95,-16,229,0,324v20,9,35,-16,51,0v17,-89,-1,-203,8,-299v-11,-31,28,-10,33,-34v6,-27,-11,-33,-25,-41v25,-13,35,10,35,30v0,19,-13,45,-35,36r0,308v-16,17,-67,17,-83,0r0,-308v5,-13,-8,-10,-17,-8v-9,2,-22,5,-17,-8v2,-25,-12,-59,28,-51v6,1,10,1,14,1","w":176},"u":{"d":"113,-3v-138,-27,-96,-237,-102,-394v27,-1,47,-17,77,-8v25,89,-9,224,16,317v-43,-74,-7,-198,-16,-300r-61,0v-15,126,-35,325,70,368v197,32,144,-200,145,-377v-19,1,-30,17,-52,9v-16,11,-9,55,0,68v-24,53,2,155,-18,218v-9,29,-30,39,-68,22r0,-8v25,9,46,4,61,-9r9,-235v2,-25,4,-50,8,-73r69,0v-1,125,37,286,-26,369v-22,29,-70,23,-112,33","w":276},"v":{"d":"278,-399v-54,116,-61,283,-115,399r-54,0v-26,-142,-71,-265,-106,-399r71,0r62,248v34,-70,36,-170,62,-248r80,0xm12,-381v44,88,52,213,97,301v0,34,-9,80,36,71v35,-7,18,-63,44,-80v0,-41,8,-77,18,-106v9,-75,36,-125,53,-195v-74,-20,-57,52,-77,100v-2,43,-17,72,-20,113v-18,15,9,78,-36,71v6,-107,-54,-169,-53,-275v-19,-1,-51,-27,-62,0","w":295},"w":{"d":"280,-180v18,-71,35,-151,44,-231r89,0v-27,142,-80,257,-98,408r-62,0v-28,-62,-34,-143,-44,-222v-27,59,-34,139,-44,213v-81,21,-66,-63,-88,-120v-12,-30,-19,-62,-19,-102v-27,-55,-44,-104,-53,-177r80,0v0,91,35,149,44,231v27,-66,35,-156,53,-231r62,0r12,122v5,40,10,78,24,109xm280,-127v-26,-80,-44,-168,-44,-275r-45,0r-53,257v-26,-25,-19,-81,-35,-115v-8,-46,-28,-78,-27,-133r-53,0v2,88,38,134,57,213r22,90v5,33,4,75,45,69v9,-47,29,-91,27,-151v17,-7,9,-37,17,-53v19,-6,-11,-61,27,-53r0,80v18,22,9,67,18,97v18,19,-2,77,35,80r27,0r106,-381r-71,0v-20,93,-24,193,-53,275","w":434},"x":{"d":"292,-415v-36,43,-51,107,-79,159r-9,0v19,-54,35,-96,62,-142v-2,-17,-33,-1,-44,-8v-26,36,-54,69,-62,123v-25,-7,-34,-33,-35,-62v-16,-16,-36,-31,-36,-61r-70,0v18,74,63,125,88,194v-51,-50,-69,-130,-106,-194v19,-19,60,-17,97,-18v0,53,44,62,44,115v37,-19,45,-66,62,-106r88,0xm178,-230v17,0,8,-27,26,-26v-2,19,-17,31,-9,53v-12,-1,-17,-12,-17,-27xm151,-141v-27,35,-35,89,-62,123v-33,0,-54,17,-88,9v20,-82,70,-138,106,-203v10,0,9,-1,9,9v-35,59,-81,107,-97,185v21,-1,37,-17,61,-9v27,-43,36,-106,71,-141v18,55,44,86,62,141r62,0v0,-24,-18,-28,-18,-53v15,18,40,38,35,71v-17,-18,-58,-9,-88,-9v-17,-42,-45,-72,-53,-123xm195,-203v27,34,43,80,62,123v-26,-36,-54,-69,-62,-123","w":313},"y":{"d":"197,-204v-1,-68,42,-113,38,-180v17,-17,68,-21,95,-10v-77,190,-104,429,-190,610v-21,6,-41,-6,-60,-7v-4,0,-7,2,-7,7v-17,-74,29,-134,38,-201r9,0v-9,68,-29,122,-47,181r58,0v85,-167,105,-394,180,-571v-2,-19,-35,0,-48,-9v-30,52,-28,136,-66,180xm168,-156v13,-11,9,-31,19,-48r10,0v-1,41,-20,62,-19,106v-38,-29,-29,-105,-58,-143v-8,-71,1,-164,-95,-143r88,307v6,30,13,61,7,92r-113,-409r95,0v29,74,29,173,66,238","w":349},"z":{"d":"143,-331v-26,-19,-85,1,-120,-9r0,-74r240,0r-71,159v-23,54,-45,108,-58,172v30,19,92,0,129,10r0,64v-77,10,-170,8,-258,9v44,-111,102,-211,138,-331xm33,-350v17,11,28,-27,36,0v26,10,66,-7,92,0v-28,131,-92,229,-138,341v81,8,150,-9,231,-9v9,-68,-68,-37,-122,-41v-8,-1,-14,-6,-17,-14v37,-120,84,-222,129,-332r-211,0r0,55","w":279},"{":{"d":"22,-317v-26,-16,5,-38,-6,-65v8,-21,40,-21,37,-51v-6,-71,0,-137,0,-211v22,-37,67,-60,131,-51r0,66v-30,-8,-44,0,-59,14v-16,59,-6,140,-7,212v0,21,-7,36,-22,44v2,23,22,25,22,51r0,175v7,36,38,44,66,59r0,72v-40,0,-63,-14,-95,-22v-8,-13,-14,-30,-29,-36v-29,-81,40,-208,-38,-257xm24,-374v-1,14,0,37,-8,44v80,29,36,170,52,262v22,27,58,65,108,51v1,-30,4,-58,-25,-61v-72,-28,-31,-144,-40,-230v-6,-20,-28,-26,-30,-51v65,-47,1,-183,37,-263v10,-22,52,-9,58,-37v-5,-60,-90,-13,-108,7v0,8,0,15,-8,15r0,219v-5,22,-34,20,-36,44","w":200},"|":{"d":"126,8v-24,-15,-63,-2,-91,-8v8,-236,-24,-472,0,-702r74,0v0,121,1,242,2,362v1,120,6,236,15,348xm109,-9v-12,-164,-6,-338,-9,-511v-1,-58,-3,-116,-7,-174r-50,0r0,232v-17,48,0,106,0,156r0,231v9,19,-16,66,17,66r49,0","w":152},"}":{"d":"73,-623v0,-23,-32,-14,-53,-15r0,-66v52,6,86,21,119,45v29,66,-1,187,23,265v-42,-36,-7,-133,-24,-204r-6,-47v-23,-29,-51,-44,-104,-44v-16,42,20,45,52,51v17,67,2,166,12,240v7,18,20,29,25,49r-8,0v-59,-52,-15,-187,-36,-274xm154,-298v15,-22,44,-32,36,-74v1,-16,-35,1,-28,-22v13,-1,11,8,21,0v23,1,14,37,15,59v2,29,-34,20,-36,45v-5,100,9,218,-45,272v-29,9,-58,8,-89,15v-15,-14,-8,-48,-8,-74v29,9,36,-7,53,-15v1,-87,-8,-180,21,-243v-14,74,2,175,-14,251v-4,22,-51,0,-52,30r0,36v31,1,50,-8,81,-7v52,-55,45,-167,45,-273xm109,-349v0,7,-8,14,-15,14v0,-10,2,-14,15,-14","w":228},"!":{"d":"30,-682v17,-20,57,-11,89,-11v5,75,9,158,14,249v5,91,7,184,7,279v-35,13,-67,-30,-90,0v-30,-150,-20,-341,-20,-517xm50,-184v31,-12,57,19,79,0r-9,-370v-2,-41,-5,-83,-10,-128r-60,0v-30,158,10,328,0,498xm30,-55v-4,-56,66,-71,100,-37v12,12,19,27,19,47v-1,31,-29,38,-50,50v-39,1,-60,-31,-69,-60xm60,-94v-37,43,18,114,66,67v4,-3,9,-6,14,-9v-9,-39,-26,-70,-80,-58","w":185},"\"":{"d":"136,-720r-62,224v-20,-1,-32,-18,-54,-8v18,-81,53,-144,72,-224v18,1,24,18,44,8xm128,-710v-28,1,-35,-2,-36,26v-20,59,-36,118,-64,170v71,0,53,-91,72,-142v20,-10,16,-36,28,-54xm198,-496r-80,-26r80,-198r46,0v5,85,-30,153,-46,224xm136,-522v24,-11,28,19,54,8v18,-63,36,-123,44,-196r-26,0v-20,65,-63,112,-72,188","w":282},"#":{"d":"336,-401v-19,9,-24,7,-55,8v-16,18,-8,58,-23,78v-16,-24,8,-59,8,-86v9,-9,35,-7,54,-8r0,-39v-6,-16,-33,-14,-54,-15v7,-47,24,-93,23,-148v-54,-12,-48,37,-54,78v-9,22,-7,55,-16,78v-30,8,-37,-8,-54,-16v16,-39,7,-101,23,-140v-62,-25,-42,45,-55,86r0,70r-54,0v3,16,-9,53,13,41v7,-3,18,-6,26,-2v10,38,-9,60,-8,93v-9,9,-35,7,-54,8v0,15,0,32,-8,39v4,16,39,-1,54,8v-3,23,-7,49,-10,78v-3,29,-5,58,-5,85r31,0v15,-43,14,-108,23,-156v18,-16,38,10,63,0v-9,46,-7,103,-24,141v1,8,21,6,31,7v15,-45,32,-89,32,-148v26,9,37,-7,62,-7v-15,-12,4,-51,-37,-37v-8,2,-11,-2,-10,-10v23,9,38,-15,55,0v-17,16,10,30,0,54v-16,8,-39,8,-63,8v9,54,-38,93,-15,140v-16,18,-39,6,-63,16v0,-59,17,-96,16,-156v-59,-17,-32,62,-55,94r0,62r-62,0v7,-51,18,-98,16,-156v-1,-16,-33,1,-47,-8v0,-23,0,-47,8,-62v48,9,62,-25,62,-70v0,-17,-29,1,-39,-8v8,-26,-7,-38,-8,-62v19,-15,53,7,63,-16v0,-27,0,-52,1,-73v1,-21,3,-44,6,-67v25,10,46,-16,63,0v-8,47,-16,93,-16,148v43,17,31,-32,47,-54v-8,-37,16,-55,8,-94v26,8,38,-7,62,-8v9,62,-9,99,-16,148v3,17,33,-1,47,8v0,32,0,46,8,70xm219,-401v1,32,-16,46,-15,78r-55,0v9,-25,8,-57,16,-86v17,15,37,-7,54,8xm165,-331v40,9,33,-32,39,-62r-32,0v0,24,-16,36,-7,62","w":383},"$":{"d":"173,-683v-31,88,109,59,100,142r-16,0v-1,-60,-55,-66,-101,-82v-6,-15,11,-64,-24,-49v-8,12,6,35,0,49v-84,4,-135,81,-112,169v7,25,30,37,37,64v-68,-23,-58,-163,-17,-209v25,-18,58,-23,84,-41v-8,-18,-9,-32,0,-50v21,-8,30,6,49,7xm182,-565v26,0,21,48,55,29v5,-3,11,-5,20,-5v-8,17,-25,26,-51,26v-7,-17,-15,-36,-33,-41v-82,-22,-102,62,-75,125v-39,-23,-25,-110,9,-125v15,-18,47,-9,75,-9xm98,-431v18,18,53,24,67,49v-28,-10,-64,-14,-67,-49xm57,-390v47,48,107,80,133,149v-34,-23,-51,-68,-86,-92v-20,-14,-40,-30,-47,-57xm132,-57v0,16,-9,50,16,42v25,1,17,-29,17,-51v84,-7,92,-91,108,-166v-33,-57,-65,-106,-108,-150v66,23,85,92,116,150v-8,85,-24,166,-108,175r0,51v-28,-2,-55,22,-50,-24v1,-6,1,-12,1,-19v-43,-25,-109,-31,-110,-99v27,2,46,-26,67,-8v15,13,28,27,51,32v42,-18,68,-51,58,-117v40,60,-20,152,-88,117v-24,-12,-56,-40,-79,-9v22,41,69,53,109,76","w":322},"%":{"d":"172,-159v30,-98,79,-186,128,-265v29,-98,90,-166,119,-264v-79,-1,-59,98,-100,136v-8,70,-55,100,-78,157v-20,51,-51,99,-78,149v-27,50,-53,101,-78,155r-10,0v39,-121,114,-208,157,-323v22,-59,68,-89,78,-157v47,-37,22,-141,118,-128v17,54,-32,88,-49,128v-21,48,-38,99,-69,138v-29,72,-65,135,-97,203v-11,22,-21,46,-30,71r-11,0xm163,-660v-29,-10,-66,-27,-99,-9v10,-38,85,-21,99,0r0,9xm55,-660v0,-10,-1,-9,9,-9v0,10,1,9,-9,9xm212,-444v-31,41,-70,79,-148,69v-58,-48,-68,-218,-19,-285r10,0v-31,76,-47,249,39,276v112,-4,110,-125,98,-236v-8,-12,-31,-18,-29,-40v58,30,48,130,49,216xm106,-635v22,2,37,30,47,45v0,63,1,133,-40,157v-55,-19,-51,-135,-28,-187r9,0v-9,46,-19,134,10,166v62,-6,21,-100,30,-147v4,-19,-22,-18,-40,-19v3,-10,7,-15,12,-15xm457,-61v-33,53,-145,61,-176,0v11,-80,-21,-150,0,-225v26,-48,142,-50,167,0v30,61,8,146,9,225xm291,-70v24,48,132,48,157,0v-10,-71,8,-139,-10,-206v-30,-10,-39,-40,-79,-40v-37,-1,-46,26,-68,40r0,206xm370,-91v37,-35,29,-129,9,-176v40,-9,0,56,29,69v0,46,11,108,-29,118v-62,-2,-29,-98,-49,-147v20,-12,10,-59,49,-49r0,9v-48,24,-33,138,-9,176xm75,-91v11,24,-10,30,-11,51v79,9,57,-94,108,-119v-11,52,-47,87,-59,138r-68,0v0,-35,12,-50,30,-70","w":471},"&":{"d":"322,-626v-1,85,1,160,-32,214r-11,0v12,-65,53,-130,26,-208v-13,-21,-41,-32,-58,-49v-98,-11,-162,10,-193,64v-12,90,21,141,43,205v-40,-43,-64,-82,-64,-162v0,-100,88,-139,204,-129xm162,-422v11,-26,-10,-32,-12,-54v12,1,12,-2,12,10v39,18,61,-36,61,-78v0,-24,-10,-45,-30,-50v-55,0,-43,67,-43,118v-40,-27,-13,-108,12,-129r52,0v52,61,2,163,-52,183xm301,-197v-29,-51,-75,-83,-87,-150r65,-65v-2,36,-34,44,-53,65v29,49,51,107,96,140v0,11,-11,9,-21,10xm0,-240v21,-55,54,-95,97,-129r0,-31v10,0,21,11,21,21v-50,62,-119,106,-108,224v31,84,84,151,204,141v26,-13,60,-20,76,-43v11,33,74,63,107,31v-32,-19,-40,-60,-55,-96v9,-43,84,-65,55,-118v-35,-32,-46,26,-75,33v10,-32,31,-54,64,-65v11,21,32,32,43,53v-25,35,-44,66,-75,97v9,43,57,67,53,118v-44,1,-99,8,-117,-22v-96,34,-257,22,-270,-78v-2,-14,-6,-24,-20,-28r0,-108xm214,-165v-42,-16,-28,-118,-96,-85v1,-14,13,-13,11,-34v54,13,74,63,85,119xm257,-122v-21,32,-75,32,-128,32v-33,-25,-43,-115,-21,-160r10,0v-21,43,-11,128,21,149v42,0,87,1,98,-31v-14,-1,-24,-14,-23,-33v26,2,23,35,43,43","w":437},"'":{"d":"113,-720v-8,71,-42,121,-34,205v-31,8,-31,-24,-65,-16v15,-74,40,-127,65,-189r34,0xm30,-540v18,-1,15,10,33,9v8,-33,16,-75,16,-116v9,-12,25,-38,23,-59v-1,-6,-6,-8,-15,-6v-8,32,-32,50,-32,90v-8,26,-28,50,-25,82","w":137},"(":{"d":"151,-9v-29,-8,-49,9,-74,8v-49,-122,-101,-278,-58,-448r58,-229r0,-21v19,15,53,9,74,21v-38,93,-59,201,-67,317v-9,140,43,235,67,352xm136,-678v-19,-1,-34,2,-44,-6v-32,71,-41,167,-65,249r0,191v5,43,22,78,21,126v23,28,14,87,44,109v4,-20,56,13,48,-27v-7,-36,-24,-61,-28,-103v-3,-31,-24,-51,-28,-82v-23,-170,16,-323,52,-457","w":207},")":{"d":"132,-162v9,57,-33,91,-22,145v-14,30,-47,-11,-72,-8v16,-21,37,9,58,8v14,-118,51,-217,59,-342r-37,-258v-5,-27,-11,-55,-29,-69v-9,7,-14,6,-30,6v-6,26,10,63,22,81v1,36,0,73,15,95r5,130r-5,132v-16,28,-14,72,-29,101v5,35,-12,64,-18,97v-2,3,-6,5,-11,5v23,-66,27,-145,51,-210v-1,-160,7,-328,-51,-431v14,-14,52,-5,65,-21v7,0,7,0,7,7v23,95,41,202,51,305v8,86,-10,161,-29,227","w":167},"*":{"d":"245,-540v1,14,13,13,11,34v-14,-2,-18,-21,-32,-23v15,-48,104,-24,112,-79v-48,-21,-84,33,-135,34v12,-38,10,-95,11,-147v-77,-10,-37,93,-34,147v-39,-23,-99,-21,-135,-46r0,34v23,35,123,-12,124,57v-13,-1,-11,13,-23,12v0,-57,-78,-35,-124,-46v-10,-29,10,-43,12,-68v47,1,76,22,112,34v22,-35,2,-83,0,-124v13,-12,52,-10,80,-11r0,135v46,0,76,-52,123,-34r0,57v-39,8,-56,33,-102,34xm144,-517v1,43,-46,35,-45,78v57,15,52,-78,102,-90v10,37,31,78,62,93v9,4,18,3,27,-3v13,-42,-44,-23,-34,-67v20,22,55,28,57,67v-10,0,-24,12,-23,23v-57,-13,-77,-33,-89,-90v-36,25,-49,71,-80,101v-23,-1,-21,-33,-44,-34v12,-38,35,-56,67,-78","w":364},"+":{"d":"136,-453v19,-20,71,-19,90,0r0,110v47,0,106,-11,139,9v-10,21,-8,51,-20,70r-119,0v-21,29,-19,70,-20,119v-27,0,-42,-20,-70,-9v19,-20,11,-66,11,-101v-35,-7,-91,11,-130,0v-10,-23,3,-61,11,-79r99,0v20,-25,0,-82,9,-119xm156,-453v-9,46,-8,71,0,119v-26,26,-102,-12,-128,21v-4,6,-3,16,0,29v26,40,101,-10,139,20v-18,22,-31,113,23,98v8,-11,-1,-36,7,-49v19,-18,-12,-34,0,-58v52,-13,156,33,148,-50v-36,-12,-99,11,-128,-11v0,-41,9,-94,-11,-119r-50,0","w":386},",":{"d":"131,-66v-30,67,-37,154,-74,214r-47,0v11,-83,56,-133,47,-232v25,-19,54,10,74,18xm112,-66v-20,0,-26,1,-37,-9r0,28v-18,24,-8,72,-28,93v13,30,-15,53,-17,80v0,6,6,10,17,13v26,-64,56,-126,65,-205","w":146},"-":{"d":"41,-239v-34,-9,2,-78,-16,-109v79,3,170,15,248,0v-1,39,2,90,-15,109v-76,17,-153,-48,-217,0xm41,-286v9,34,77,-2,108,16v28,-12,75,12,103,-2v8,-4,10,-14,6,-29v-38,-33,-128,2,-186,-16v-21,1,-32,4,-31,31","w":310},".":{"d":"74,-94v-35,-20,-43,25,-34,58v11,41,52,9,77,5v-8,45,-93,27,-104,0v-15,-37,9,-58,23,-81v60,-10,115,23,93,81r-12,0v8,-42,-13,-58,-43,-63","w":161},"\/":{"d":"280,-498v23,-70,55,-132,83,-197v-44,-8,-60,14,-68,46v-32,57,-45,132,-76,191v-37,128,-114,216,-158,337r-8,0v9,-59,45,-91,61,-143v38,-29,38,-98,75,-128v30,-114,77,-210,121,-310v30,-6,43,-16,68,0r-91,204r-7,0xm280,-498v0,26,-17,30,-23,52r-7,0v6,-20,14,-44,30,-52xm16,-8v19,-6,46,8,53,-15v21,-67,59,-111,75,-181v38,-77,60,-172,106,-242v-52,160,-122,293,-181,446r-61,0v-2,-45,21,-96,45,-121v-6,40,-33,69,-37,113","w":392},"0":{"d":"34,-626v35,-35,87,-84,157,-62r42,15r0,8v-31,0,-41,-19,-71,-19v-57,0,-81,41,-118,69v-21,182,-31,421,29,565v-87,-94,-51,-310,-60,-476v11,-31,22,-58,21,-100xm272,-79v19,-182,59,-454,-39,-576r0,-10v123,111,61,374,58,576v-31,40,-57,68,-108,89v-53,-2,-110,4,-110,-50v23,14,32,40,70,40v68,0,90,-41,129,-69xm191,-594r-48,0v4,-27,30,-14,48,-11r0,11xm94,-160v1,-52,-16,-88,-11,-138v7,-82,10,-170,19,-257v23,-2,8,-49,41,-39v-11,15,-12,41,-31,49v0,146,-40,335,21,446v105,20,58,-122,89,-199r0,-207v1,-41,-22,-58,-31,-89v51,28,31,128,50,188v2,59,-11,97,-11,158v0,84,-8,163,-87,169v-46,3,-31,-56,-49,-81"},"1":{"d":"69,-605v-2,-22,-44,1,-61,-10r0,-82r164,0v-3,61,-4,121,-3,180r11,522v-21,-19,-61,0,-90,0v0,-102,-2,-205,-6,-309v-4,-104,-7,-205,-15,-301xm162,-687v-51,-1,-86,9,-134,10v-15,5,-18,56,6,51v22,3,58,-8,56,21v-13,201,10,389,10,590r72,0v-5,-118,-10,-234,-13,-348v-3,-114,-2,-222,3,-324","w":203},"2":{"d":"31,-476v21,-2,35,-18,60,-10v19,-38,8,-107,41,-131v30,-11,70,-11,100,0v58,159,-49,277,-92,394r-8,0v29,-123,117,-193,111,-345v-2,-44,-62,-63,-99,-38v-35,23,-38,94,-23,141r-100,0v10,-46,-11,-78,-11,-122v0,-102,181,-140,274,-81r0,10v-92,-53,-227,-27,-254,62v-10,33,-12,72,1,120xm284,-658v29,10,29,51,49,71v11,73,-19,122,-30,182v-12,64,-49,107,-81,152v-2,-42,32,-71,51,-92v10,-56,41,-93,41,-150r0,-111v-9,-19,-31,-23,-30,-52xm252,-22v8,-29,83,7,62,-41v6,-41,-53,-6,-82,-19v-25,-11,-75,11,-92,-11v22,-60,51,-110,82,-160v-8,69,-41,113,-71,160v66,12,106,-20,171,-9v1,31,10,71,-8,90v-104,-10,-190,11,-293,11v-21,-27,10,-60,30,-71v2,21,-22,29,-20,50r221,0xm51,-72v18,-54,54,-93,70,-151r11,0v-23,53,-38,120,-81,151","w":346},"3":{"d":"210,-367v33,-19,67,-33,77,-77v23,-101,-10,-218,-88,-242v-49,-15,-86,9,-125,19v28,-45,112,-38,165,-19v59,43,65,153,56,253v-25,11,-18,55,-49,61v-10,7,-20,12,-36,5xm74,-667v-11,22,-20,27,-40,39r0,117r67,0v20,-14,-6,-56,21,-69r0,69v-30,9,-59,19,-98,19v-1,-62,-18,-170,50,-175xm15,-172v19,21,18,59,19,98v11,8,19,19,29,29v-58,-10,-38,-97,-58,-146r88,0v0,49,18,68,48,88v88,-11,77,-176,29,-224r-69,0r0,-77v108,24,104,-136,58,-194v-25,-12,-19,15,-37,18v-2,-40,53,-32,62,-6v22,35,15,99,15,153v-11,0,-9,8,-10,18v-30,19,-91,13,-78,69v5,20,48,-1,69,9v60,51,66,245,-39,244v-19,-10,-28,-21,-48,-29v-11,-19,0,-58,-30,-59v-11,9,-45,-10,-48,9xm63,-45v39,20,88,18,147,19v18,-26,35,-58,58,-77v8,-61,8,-115,8,-184v-7,-31,-54,-34,-70,-56v-5,-6,-3,-14,4,-24v18,31,69,30,77,69v11,55,-2,102,0,165v-10,51,-44,81,-69,117v-56,-1,-136,20,-155,-29","w":310},"4":{"d":"5,-202v-1,-185,98,-268,141,-409r8,0v-27,148,-140,214,-128,399r188,0v-19,58,11,126,0,190r49,0v40,-51,-46,-180,42,-190v2,-31,-16,-38,-31,-50r-11,-417v-64,-12,-79,28,-99,68r-10,0v1,-64,55,-78,109,-89v31,20,-7,80,21,110r0,310v-1,17,24,9,31,18v-10,28,8,43,8,71r-49,0v11,48,9,121,10,180v-16,8,-42,-2,-62,1v-5,1,-8,4,-8,9v-19,-58,-18,-127,-19,-201v-62,-11,-131,10,-190,0xm195,-541v-11,98,19,172,11,271v-48,0,-83,19,-131,8v9,-95,59,-146,79,-229r10,0v-18,78,-57,136,-78,211v25,30,70,-13,109,0v-11,-70,-9,-139,-10,-219v-9,-20,-10,8,-21,8v1,-29,-1,-51,31,-50","w":346},"5":{"d":"54,-122v22,7,39,34,70,30v112,-13,124,-235,21,-272v-22,-8,-48,-10,-80,-1r40,-334v66,12,164,-11,221,11r0,71r-129,0v-41,30,-32,109,-51,161v30,30,91,30,131,51v68,76,59,276,0,353v-54,38,-175,70,-243,19v-11,-42,20,-50,20,-89xm317,-628v1,-42,-14,-72,-61,-60r-140,0v-5,56,-12,109,-18,160v-6,51,-14,102,-23,153v82,-10,128,24,151,81v-1,80,1,161,-51,190v-23,39,-114,-17,-132,41v1,53,78,30,113,51v31,-22,79,-29,110,-51v60,-71,59,-263,0,-334v-40,-19,-93,-28,-142,-39v22,-63,12,-156,61,-192r132,0"},"6":{"d":"101,-36v-72,-2,-67,-80,-86,-136r0,-193r115,-319v43,12,63,-18,107,-8v-38,90,-85,172,-115,270v39,-9,77,-9,104,10r0,10v-35,-19,-97,-11,-125,8v30,-106,68,-192,117,-279r-68,0v-78,145,-163,351,-106,569v9,36,41,40,57,68xm247,-83v30,-91,37,-254,-21,-319v14,0,22,1,31,8v19,85,38,243,-10,311xm169,-94v-100,0,-75,-122,-86,-211v16,-31,47,-50,96,-39v40,54,49,211,-10,250xm150,-334v-92,7,-48,156,-22,210v6,12,18,18,33,20v51,-38,63,-209,-11,-230xm247,-83v0,9,0,19,-10,18v1,-10,-1,-18,10,-18xm101,-36v59,23,106,-1,136,-29v-1,52,-105,66,-136,29","w":292},"7":{"d":"7,-605v18,-27,0,-59,0,-92r315,0v-62,235,-172,426,-213,682v-37,-11,-53,20,-92,10v-8,-54,14,-106,31,-154r101,-290v16,-50,31,-100,40,-156v-47,-20,-131,-10,-182,0xm27,-625r193,0v-40,61,-40,155,-71,227v-30,73,-47,158,-81,229v-12,23,-21,44,-20,82v-7,16,-19,40,-14,63v50,29,75,-47,80,-101v2,-17,8,-31,16,-44v8,-68,40,-117,59,-172r123,-346r-285,0r0,62"},"8":{"d":"84,-667v20,-49,123,-31,171,-19v61,66,70,267,-21,304v19,30,52,42,71,71v20,105,22,259,-50,306v-44,12,-105,9,-163,10v-113,-45,-110,-312,-19,-377v-62,-38,-60,-166,-42,-253r11,0v-11,92,-20,210,50,243v-7,41,-41,53,-61,81v-18,110,-20,266,71,296v81,1,152,-1,178,-57v27,-57,28,-152,17,-228v-6,-41,-52,-50,-71,-82v9,-41,51,-51,61,-92v0,-23,-1,-45,-1,-66v-2,-62,-9,-115,-41,-147v-47,-18,-124,-9,-161,10xm84,-667v-11,22,-20,31,-42,42v1,-31,10,-42,42,-42xm134,-625v21,3,61,-5,60,19v-21,1,-18,-9,-39,-8v-42,39,-32,161,8,192v64,-13,41,-128,31,-184v51,36,40,195,-31,195v-41,0,-28,-61,-50,-82v-11,-54,9,-92,21,-132xm184,-321v63,36,50,192,10,244r-71,0v-25,-74,-56,-251,61,-244xm155,-87v83,0,74,-169,27,-211v-11,-11,-23,-15,-38,-13v-22,33,-22,86,-31,132v21,25,-2,92,42,92","w":331},"9":{"d":"254,-674v-60,-28,-167,-18,-206,21v21,-62,151,-61,206,-29r0,8xm254,-674v30,0,28,33,40,52v-19,-6,-30,-39,-40,-52xm294,-622v51,29,9,113,21,175v-10,179,-92,283,-124,439v-30,10,-82,-10,-112,10v29,-103,73,-186,112,-277v-54,11,-91,-9,-133,-19v-51,-76,-71,-263,-21,-359r11,0v-51,93,-29,271,21,348v21,11,50,11,82,11v11,23,38,-8,53,-10v5,-1,8,2,8,10r-60,137v-20,46,-37,92,-52,138v40,-1,85,4,85,-41v0,-40,23,-53,36,-83v43,-96,64,-215,83,-336r0,-122v-11,0,-9,-11,-10,-21xm130,-582v0,78,-28,181,31,217v97,-16,56,-180,30,-246v48,43,65,188,17,244v-44,52,-98,-12,-98,-75v0,-51,9,-100,9,-150v29,-4,41,-62,72,-30r0,11v-36,-11,-40,17,-61,29"},":":{"d":"101,-395v-50,11,-78,-13,-97,-43v-1,-43,33,-65,75,-65v23,21,42,70,22,108xm79,-481v-22,0,-42,0,-53,11v-12,43,9,64,64,64v12,-36,-3,-45,-11,-75xm36,-106v28,1,63,-2,76,12r0,10v-29,-9,-47,-9,-76,0v-12,49,20,67,65,55v30,2,24,-43,11,-55r22,0v35,60,-50,94,-101,62v-24,-15,-21,-56,-1,-71v2,-3,4,-8,4,-13","w":155},";":{"d":"99,-440v-7,-22,-22,-40,-54,-31v9,-23,37,0,54,0v1,17,25,40,-2,53v-14,7,-41,17,-52,1v31,-1,47,1,54,-23xm38,-463v0,14,0,39,7,46v-27,3,-24,-30,-15,-46r8,0v0,-8,0,-8,7,-8v0,8,0,8,-7,8xm7,-8v17,-63,22,-130,38,-193v30,-1,44,7,63,15v-32,54,-30,139,-70,185v-16,0,-14,-8,-31,-7xm92,-186v-14,0,-32,0,-38,-7r-40,176v40,0,39,-44,47,-76v23,-21,16,-64,31,-93","w":134},"<":{"d":"115,-260v11,33,54,32,81,49r0,10v-39,-18,-91,-22,-101,-69v128,-28,209,-99,327,-138r0,-60v-33,-15,-53,31,-89,31v21,-31,70,-50,110,-61r0,90v-111,48,-199,118,-328,148xm87,-319v-13,30,-69,17,-70,59r0,31v42,50,129,57,179,98v67,29,139,52,188,99r-378,-179v-9,-16,12,-52,-9,-59v32,-50,107,-62,159,-90v55,-30,115,-57,177,-77v-36,47,-116,47,-157,89v-40,-1,-49,29,-89,29xm196,-201v19,-2,29,22,48,20r0,10v-22,0,-41,-13,-48,-30xm244,-171v38,30,100,32,130,70v-47,-20,-106,-28,-130,-70xm432,-12v12,-58,-37,-60,-58,-89v28,2,33,29,69,20v-13,25,19,61,0,78v-10,-1,-21,1,-21,-9r10,0xm422,-12v-18,1,-20,-10,-38,-10r0,-10v18,1,39,-1,38,20","w":456},"=":{"d":"402,-381v-13,9,-11,48,-12,69v-120,-12,-266,12,-378,-12v-11,-32,23,-34,12,-68v116,10,272,-23,378,11xm379,-347v12,-42,-32,-35,-69,-34v-31,24,-104,-3,-149,11v-41,13,-133,-38,-126,35v63,24,164,-1,241,11v21,-24,60,-2,92,-5v8,-1,11,-7,11,-18xm35,-186v11,-31,-8,-54,-11,-81v63,0,128,0,193,-1v65,-1,127,-5,185,-10v-1,34,1,70,-12,92r-178,8xm230,-186v33,-23,112,2,149,-23v-10,-22,10,-34,7,-54v-2,-3,-8,-4,-19,-4v0,13,-11,11,-23,12r-160,0v-46,12,-146,-35,-137,34v-13,33,30,23,57,23r92,0v10,0,36,0,34,12","w":416},">":{"d":"18,-503v10,1,20,-1,20,9v140,49,250,130,382,186v18,8,35,18,45,33v22,73,-43,79,-79,110v-49,10,-89,30,-119,60v-50,9,-79,40,-130,49v-40,20,-70,49,-119,60v1,-41,-3,-85,10,-109v119,-40,218,-100,348,-129v-18,-28,-66,-27,-89,-50v-34,-11,-51,-31,-90,-40v-50,-39,-123,-58,-179,-90v11,-35,-29,-61,0,-89xm28,-483v-11,26,8,46,10,69v96,31,175,84,268,120v14,32,81,10,80,60r-170,73v-58,24,-118,46,-178,66v12,33,-30,66,0,89v59,-52,140,-78,219,-110v30,-30,70,-38,109,-59v28,-29,91,-21,90,-79v-11,-41,-69,-39,-90,-70v-123,-41,-215,-118,-338,-159","w":489},"?":{"d":"177,-163v-38,-12,-61,21,-89,0r0,-202v30,-11,70,-8,89,-29v10,-58,33,-186,-30,-202v-39,-10,-29,47,-29,81v-33,-11,-71,10,-101,0v-10,-75,18,-120,51,-160v49,-20,161,-30,160,40v-32,-53,-138,-46,-173,1v-20,27,-32,64,-18,109r51,0v31,-13,7,-90,49,-90v94,0,59,153,50,231v-22,11,-42,31,-79,29v11,64,-10,110,-10,172v0,23,42,-2,59,10v21,-29,-1,-92,10,-131v30,-11,61,-20,81,-41v10,-107,12,-209,-20,-290v50,60,40,202,30,300v-22,12,-35,32,-71,31v0,51,-21,88,-10,141xm208,-74v8,56,-54,79,-104,58v-28,-12,-42,-79,4,-78v-17,18,-12,70,14,76v40,9,70,-14,65,-56v-3,-30,-50,-19,-79,-20v29,-20,59,-20,89,0v0,10,0,20,11,20","w":279},"@":{"d":"484,-637v-115,-71,-354,-51,-407,61r-10,0v43,-126,298,-141,417,-72r0,11xm484,-637v18,0,29,6,30,20v-17,1,-29,-7,-30,-20xm179,-565v100,-103,351,-42,377,80v12,57,20,108,20,173v-23,47,-39,128,-112,102v-40,-96,19,-190,10,-295v32,97,-33,178,-10,285v70,10,78,-56,101,-101v-10,-52,-7,-103,-20,-153v-32,-121,-245,-163,-366,-91xm514,-617v43,11,61,28,71,72v-31,-21,-48,-42,-71,-72xm6,-433v10,-51,31,-103,51,-143r10,0v-61,95,-59,288,-10,396v-50,-50,-50,-154,-51,-253xm179,-565v-11,21,-21,29,-41,40v0,-31,10,-39,41,-40xm413,-169v206,71,258,-220,172,-376v128,120,19,505,-172,376xm138,-525v-50,92,-40,264,11,345v-72,-62,-82,-273,-11,-345xm250,-169v-61,-10,-61,-81,-81,-132r9,-61v10,-59,24,-113,62,-143v43,-11,119,-39,153,0v23,-1,68,-32,81,0v-34,-11,-52,8,-61,31v-19,-42,-86,-31,-143,-31v-102,40,-110,277,-20,336xm382,-433v43,76,9,194,-50,223v-27,13,-46,-8,-71,-10v-32,-100,0,-265,121,-213xm290,-220v93,-1,102,-118,83,-204v-89,-36,-125,75,-105,164v5,16,12,30,22,40xm413,-169v-14,-1,-12,-13,-31,-11v-2,-20,19,-22,26,-8v3,5,5,11,5,19xm332,-57v-10,-11,-31,-10,-51,-10v-10,-21,-51,-10,-51,-42v60,15,113,56,192,37v44,-11,77,-29,123,-37v-10,36,19,32,20,62v-102,54,-295,57,-399,1v-53,-28,-98,-68,-109,-134v28,8,23,44,41,62v31,31,71,49,101,81v51,0,82,20,133,20r81,0v39,-21,121,2,132,-50v-36,-51,-91,21,-143,10r-70,0xm149,-180v12,1,21,15,20,31v-14,-1,-20,-13,-20,-31xm250,-169v21,-2,30,22,51,20v22,-11,55,-22,81,-31v-15,39,-111,63,-132,11xm169,-149v28,10,48,17,61,40v-31,1,-50,-21,-61,-40","w":653},"\u0131":{"d":"77,-560v2,17,-17,13,-25,20v-8,4,-18,6,-27,6v8,-17,25,-26,52,-26xm25,-534v-2,21,-18,37,5,50v26,14,86,12,74,-28v-4,-17,-20,-26,-27,-39v31,-2,25,31,43,43v4,53,-72,59,-101,30v-17,-18,-13,-38,6,-56xm25,-6v19,-115,8,-263,0,-381v17,-18,50,-7,78,-8v-8,135,9,254,9,389v-29,-8,-61,8,-87,0xm77,-14v36,-2,8,-53,18,-79r0,-294r-44,0v-23,64,17,156,0,234v-6,28,-8,42,-8,78v-1,32,-8,79,34,61","w":137},"~":{"w":833},"\u20ac":{"d":"302,-696v-20,19,-9,67,-9,100v-90,19,-170,48,-179,148v32,39,113,-39,138,19v8,40,-51,13,-79,21v-41,12,-111,20,-159,10v10,-190,97,-288,288,-298xm282,-608v-11,-20,12,-65,-10,-79v-152,21,-240,112,-249,279v81,-1,161,1,220,-21v-35,-30,-101,22,-139,-9v-11,-120,94,-137,178,-170xm14,-219v9,-33,-9,-71,0,-100v30,1,46,21,79,10v46,-1,136,-40,150,19v-12,42,-86,20,-129,31v19,95,66,169,188,158v1,34,10,80,-9,100v-121,-19,-189,-91,-260,-160v-1,-30,0,-47,-19,-58xm233,-309v-73,1,-135,19,-210,10v-8,65,19,99,31,149v72,51,124,121,239,130r0,-70v-127,10,-178,-65,-189,-179v46,11,84,-9,129,-10r0,-30","w":328},"\u00c7":{"d":"294,-677v20,22,9,72,10,109v-31,-1,-42,-32,-78,-20v-134,44,-135,307,-79,441v27,36,84,59,147,49r0,88v-170,36,-260,-71,-274,-215v-12,-123,-14,-251,33,-337v44,-81,119,-169,241,-115xm287,-660v-37,-56,-129,-11,-169,13v-39,59,-81,117,-88,205v-14,188,9,354,127,422v50,14,152,31,127,-58v-25,-13,-57,4,-87,-11v-33,-16,-50,-38,-70,-69v-40,-150,-37,-394,89,-440v29,-10,59,0,78,10v5,-30,4,-55,-7,-72xm127,166v10,-50,30,-76,40,-126v47,-11,57,26,88,39v-41,27,-51,115,-128,87xm177,49v-1,42,-49,76,-20,117v29,0,30,-29,40,-48v19,-11,28,-20,39,-39v-24,-7,-28,-30,-59,-30","w":319},"\u00d6":{"d":"67,-816v17,-48,89,-31,81,24v-2,19,-15,28,-22,43v-49,5,-74,-24,-59,-67xm106,-758v10,2,19,-21,29,-20v1,-37,-16,-46,-38,-57v-40,6,-36,81,9,77xm309,-769v-29,20,-59,20,-88,0v-17,-58,44,-93,79,-53v10,12,14,29,9,53xm232,-778v31,20,36,20,67,0v9,-36,-39,-62,-64,-36v-7,8,-8,19,-3,36xm164,-8v-4,-10,-24,-9,-38,-9v-135,-88,-115,-376,-87,-568v30,-38,57,-79,107,-97v20,-1,45,1,47,-18v18,28,60,28,87,47v77,124,67,377,38,548v-37,48,-78,89,-154,97xm146,-672v-10,-2,-19,20,-29,19v-39,10,-49,47,-68,77v-5,31,-9,64,-13,100v-19,178,-20,401,119,448v129,12,172,-83,172,-192v0,-41,-1,-81,-1,-120v-2,-115,-10,-222,-46,-303v-45,-10,-77,-39,-134,-29xm183,-114v49,-8,37,-78,58,-115v0,-58,0,-113,-1,-166v-1,-53,-3,-103,-8,-152v-12,-9,-9,-36,-29,-38v8,-17,13,-14,19,0v5,10,7,29,19,29v9,54,0,119,20,163v-22,90,11,236,-58,288v-71,12,-77,-49,-97,-95r0,-279v20,-50,1,-145,87,-126v1,11,-19,11,-29,11v-29,-1,-18,38,-38,47v-2,129,-39,290,12,391v10,19,26,33,45,42","w":374},"\u00dc":{"d":"81,-873v43,-25,80,43,45,75v-48,17,-62,-39,-45,-75xm111,-805v8,0,15,-16,23,-15v9,-35,-28,-62,-53,-38v0,29,1,53,30,53xm247,-873v-9,19,14,15,15,30v-7,32,-21,37,-60,38v-9,-10,-29,-43,-8,-53v-7,-30,33,-8,53,-15xm194,-858v-7,30,8,45,46,45v32,-33,-16,-74,-46,-45xm325,-703v-12,167,-9,365,-10,550v-11,40,-20,87,-39,117r-10,0v19,-38,21,-89,39,-128r0,-519r-58,0v-21,157,10,323,0,489v-21,48,-39,99,-108,99v-106,-126,-32,-393,-50,-588v-17,0,-21,11,-39,10v-38,-9,-9,43,-19,68r0,245v-10,41,11,102,0,147v1,60,-1,98,19,138v33,30,78,74,148,59v20,-4,43,-11,68,-20v-28,49,-124,41,-169,14r-56,-34v-68,-167,-1,-425,-30,-627v34,-1,62,-21,98,-10v1,195,-50,432,30,579v94,10,87,-94,97,-167v19,-141,-9,-270,-9,-412v38,11,60,-11,98,-10","w":337},"\u00e7":{"d":"195,-315v4,-58,-50,-82,-97,-57v-78,74,-114,363,57,354v14,-13,33,-19,32,-47v-8,-16,-39,-9,-56,-17v-33,-51,-52,-189,5,-228v11,-7,25,-9,42,-5v-112,2,-72,178,-32,233v20,8,31,-6,49,-7r0,64v-30,8,-58,24,-97,16v-111,-52,-82,-292,-16,-370v30,-16,82,-9,113,0r0,64xm114,14v25,0,32,17,57,17v0,32,-32,32,-32,65v-32,0,-24,40,-57,40v-15,-48,16,-87,32,-122xm98,128v15,-33,49,-55,65,-89v-20,0,-34,-10,-49,-16v2,38,-56,76,-16,105","w":216},"\u00f6":{"d":"45,-673v43,-25,80,43,45,75v-48,17,-62,-39,-45,-75xm75,-605v8,0,15,-16,23,-15v9,-35,-28,-62,-53,-38v0,29,1,53,30,53xm211,-673v-9,19,14,15,15,30v-7,32,-21,37,-60,38v-9,-10,-29,-43,-8,-53v-7,-30,33,-8,53,-15xm158,-658v-7,30,8,45,46,45v32,-33,-16,-74,-46,-45xm213,-376v-36,-8,-61,-28,-107,-27v-36,9,-61,36,-80,62v1,99,-2,197,18,277v-44,-69,-45,-214,-18,-303v27,-45,143,-62,187,-18r0,9xm213,-376v11,1,19,12,18,26v-11,-1,-19,-12,-18,-26xm106,-323v5,-42,51,-16,63,0v0,72,38,170,-3,225v-19,26,-56,15,-66,-18v-17,-58,-11,-143,-3,-207r9,0v-18,71,-20,196,27,233v56,-2,27,-84,36,-134v-11,-29,-8,-67,-18,-99v-8,-9,-37,-9,-45,0xm231,-350v36,65,20,206,0,277r-9,0v18,-79,27,-190,9,-277xm88,-28v22,9,78,19,97,-2v12,-14,17,-36,37,-43v-2,39,-33,51,-53,72v-35,-1,-73,1,-81,-27xm44,-64r26,27v-17,0,-26,-9,-26,-27xm70,-37v9,0,18,-1,18,9v-9,0,-18,1,-18,-9","w":264},"\u00fc":{"d":"51,-673v43,-25,80,43,45,75v-48,17,-62,-39,-45,-75xm81,-605v8,0,15,-16,23,-15v9,-35,-28,-62,-53,-38v0,29,1,53,30,53xm217,-673v-9,19,14,15,15,30v-7,32,-21,37,-60,38v-9,-10,-29,-43,-8,-53v-7,-30,33,-8,53,-15xm164,-658v-7,30,8,45,46,45v32,-33,-16,-74,-46,-45xm113,-3v-138,-27,-96,-237,-102,-394v27,-1,47,-17,77,-8v25,89,-9,224,16,317v-43,-74,-7,-198,-16,-300r-61,0v-15,126,-35,325,70,368v197,32,144,-200,145,-377v-19,1,-30,17,-52,9v-16,11,-9,55,0,68v-24,53,2,155,-18,218v-9,29,-30,39,-68,22r0,-8v25,9,46,4,61,-9r9,-235v2,-25,4,-50,8,-73r69,0v-1,125,37,286,-26,369v-22,29,-70,23,-112,33","w":276}}});
