// #### Generated By: http://www.cufonfonts.com ####
/*!
 * The following copyright notice may not be removed under any circumstances.
 * 
 * Copyright:
 * ©G.M.
 * 
 * Trademark:
 * GM / Walkway
 */
Cufon.registerFont({"w":525,"face":{"font-family":"Walkway Black","font-weight":400,"font-stretch":"normal","units-per-em":"1000","panose-1":"0 0 4 0 0 0 0 0 0 0","ascent":"800","descent":"-200","x-height":"11","bbox":"-186 -814 1011 179.012","underline-thickness":"30","underline-position":"-118","unicode-range":"U+0020-U+0131"},"glyphs":{" ":{"w":354},"!":{"d":"50,-155r0,-523r96,0r0,523r-96,0xm145,-103v0,52,4,103,-48,103v-26,0,-49,-19,-48,-45r0,-58v-1,-26,21,-44,48,-44v26,0,48,18,48,44","w":194},"\"":{"d":"203,-547v-59,0,-48,-43,-48,-92v0,-22,16,-33,48,-33v59,0,47,42,48,91v0,23,-16,34,-48,34xm87,-547v-58,0,-46,-43,-47,-92v0,-22,16,-33,47,-33v60,0,49,41,49,91v0,23,-16,34,-49,34","w":292},"#":{"d":"479,-325r-91,0r-6,21r88,0r-21,80r-90,0r-19,63r-99,0r19,-63r-42,0r-19,63r-99,0r19,-63r-87,0r21,-80r90,0r6,-21r-91,0r27,-80r88,0r19,-63r99,0r-19,63r42,0r18,-63r98,0r-18,63r88,0xm248,-325r-6,21r42,0r6,-21r-42,0","w":531},"$":{"d":"631,-180v0,103,-95,170,-193,189r0,61r-96,0r0,-49r-51,-2r0,51r-96,0r0,-64v-146,-42,-207,-120,-197,-276r97,0v-6,98,20,155,100,183r0,-241v-116,-30,-174,-89,-174,-176v0,-96,58,-157,174,-184r0,-65r96,0r0,54r51,1r0,-55r96,0r0,68v117,30,177,112,179,245r-94,0v-5,-80,-34,-131,-85,-152r0,222v118,29,193,67,193,190xm342,-610v-16,-1,-36,-2,-51,0r0,210r51,10r0,-220xm195,-595v-52,17,-78,48,-78,91v0,37,26,65,78,82r0,-173xm535,-183v0,-74,-34,-67,-97,-94r0,195v65,-19,97,-53,97,-101xm342,-299r-51,-9r0,239r51,1r0,-231","w":642},"%":{"d":"732,-172v1,119,-57,191,-172,191v-115,0,-172,-72,-171,-191v0,-130,57,-195,172,-195v114,0,171,65,171,195xm177,2r-118,0r532,-680r117,0xm363,-465v0,117,-59,190,-173,190v-113,0,-170,-73,-170,-190v0,-129,57,-194,171,-194v115,0,172,65,172,194xm560,-279v-49,0,-74,36,-74,107v0,69,25,104,75,104v49,0,74,-35,74,-104v0,-71,-25,-107,-75,-107xm190,-572v-49,0,-73,36,-73,107v0,69,25,103,74,103v50,0,75,-34,75,-103v0,-71,-25,-107,-76,-107","w":750},"&":{"d":"261,-71v130,-2,206,-88,203,-234r96,0r0,324r-96,0r0,-76v-126,132,-455,79,-455,-110v0,-81,60,-152,180,-214v-60,-39,-90,-89,-90,-149v0,-93,92,-148,190,-148v103,0,193,53,192,149v0,69,-68,137,-204,204v-61,31,-102,54,-122,71v-33,28,-50,57,-50,87v1,62,86,97,156,96xm385,-530v-1,-83,-189,-82,-190,0v0,42,30,76,90,103v67,-37,100,-71,100,-103","w":603},"'":{"d":"87,-547v-58,0,-46,-43,-47,-92v0,-22,16,-33,47,-33v60,0,49,41,49,91v0,23,-16,34,-49,34","w":175},"(":{"d":"130,-283v0,202,60,312,155,451r-111,0v-187,-266,-187,-637,0,-902r111,0v-95,140,-155,248,-155,451","w":233},")":{"d":"103,-283v0,-203,-64,-311,-161,-451r112,0v193,259,193,643,0,902r-112,0v98,-140,161,-247,161,-451","w":233},"*":{"d":"209,-618v48,-24,88,-21,100,23v0,16,-12,29,-36,38v25,11,37,23,37,38v-9,43,-59,47,-101,23v5,35,-18,53,-48,53v-38,0,-51,-17,-48,-53v-41,21,-101,23,-101,-22v0,-15,12,-28,36,-39v-57,-16,-38,-76,11,-76v24,0,17,3,54,15v-3,-36,9,-54,48,-54v30,0,53,19,48,54","w":340},"+":{"d":"328,-210r0,143r-96,0r0,-143r-191,0r0,-82r191,0r0,-141r96,0r0,141r192,0r0,82r-192,0","w":560},",":{"d":"107,-60v12,-43,112,-28,92,21r-42,103v-10,40,-116,35,-92,-22","w":262},"-":{"d":"14,-254r0,-20r332,0r0,20r-332,0","w":350},"\u2010":{"d":"14,-254r0,-20r332,0r0,20r-332,0","w":350},".":{"d":"105,2v-47,0,-48,-18,-48,-58v0,-19,16,-29,48,-29v47,0,48,18,48,58v0,19,-16,29,-48,29","w":209},"\/":{"d":"46,0r-105,0r372,-694r105,0","w":350},"0":{"d":"573,-252v1,159,-114,264,-280,264v-165,0,-283,-105,-282,-264r0,-154v-1,-159,118,-265,282,-265v166,0,281,106,280,265r0,154xm292,-75v113,0,185,-68,185,-177r0,-154v1,-109,-73,-178,-185,-178v-113,0,-185,69,-185,178r0,154v0,107,74,177,185,177","w":584},"1":{"d":"252,0r0,-513r-104,77r-151,0r279,-210r72,0r0,646r-96,0","w":413},"2":{"d":"297,-657v135,-2,250,55,249,178v0,62,-58,125,-177,183v-115,56,-210,117,-244,209r452,0r0,87r-557,0v0,-238,192,-315,357,-403v49,-27,74,-53,74,-79v0,-59,-49,-88,-148,-88v-128,0,-173,50,-174,182r-96,0v-2,-187,90,-266,264,-269","w":584},"3":{"d":"579,-191v0,132,-137,203,-282,202v-181,-2,-311,-86,-293,-275r96,0r0,56v1,91,91,132,193,132v95,0,191,-35,191,-115v0,-73,-57,-110,-172,-110r-83,0r0,-88r84,0v105,0,157,-31,157,-92v0,-66,-84,-90,-164,-89v-133,1,-184,42,-186,172r-96,0v-2,-185,100,-258,279,-259v139,-2,264,53,263,176v0,60,-25,105,-74,135v58,34,87,86,87,155","w":584},"4":{"d":"457,-201r0,201r-96,0r0,-201r-390,0r247,-446r106,0r-199,359r236,0r0,-361r96,4r0,357r129,0r0,87r-129,0","w":584},"5":{"d":"572,-225v0,149,-126,238,-284,236v-182,-3,-288,-76,-286,-265r96,0v-1,139,63,176,191,178v107,2,187,-47,187,-148v0,-101,-88,-150,-195,-149v-75,0,-133,29,-174,88r-85,0r17,-361r503,0r0,87r-409,0r-7,136v44,-25,97,-37,159,-37v157,-2,287,87,287,235","w":584},"6":{"d":"26,-436v-2,-139,123,-219,269,-217v162,2,269,83,265,255r-95,0v2,-122,-61,-170,-171,-171v-113,-1,-184,56,-171,179v44,-28,100,-42,168,-42v146,0,265,81,265,220v0,138,-122,218,-267,218v-152,0,-265,-81,-264,-236xm461,-212v0,-90,-75,-136,-171,-136v-96,0,-170,45,-170,136v0,89,75,134,170,134v96,0,171,-44,171,-134","w":584},"7":{"d":"235,0r-105,0r306,-559r-407,0r0,-87r559,0","w":584},"8":{"d":"597,-195v1,143,-135,206,-296,206v-160,0,-297,-62,-296,-208v0,-72,34,-125,103,-160v-45,-30,-68,-69,-68,-117v-1,-128,118,-183,261,-183v141,0,263,56,262,183v0,48,-24,87,-71,117v70,35,105,89,105,162xm302,-394v70,0,165,-23,165,-81v0,-63,-55,-95,-166,-95v-110,0,-165,32,-165,97v0,55,97,79,166,79xm302,-307v-134,0,-201,37,-201,111v0,80,67,120,200,120v133,0,200,-40,200,-120v0,-74,-66,-111,-199,-111","w":601},"9":{"d":"295,-662v151,0,264,85,264,237r0,223v2,138,-124,219,-270,217v-164,-2,-268,-82,-264,-254r95,0v-2,125,58,168,170,170v95,2,170,-46,171,-135r0,-61v-44,28,-100,42,-168,42v-145,2,-264,-80,-264,-219v0,-139,121,-220,266,-220xm465,-442v0,-90,-75,-136,-171,-136v-97,0,-170,44,-170,136v0,91,74,135,170,135v96,0,171,-45,171,-135","w":584},":":{"d":"171,-366v0,25,-22,44,-48,44v-26,0,-49,-18,-48,-44r0,-55v-1,-26,22,-44,48,-44v51,0,49,50,48,99xm171,-42v0,26,-21,44,-48,44v-26,0,-49,-18,-48,-44r0,-55v-1,-26,22,-44,48,-44v51,0,49,50,48,99","w":244},";":{"d":"191,-364v0,26,-21,44,-48,44v-26,0,-49,-18,-48,-44r0,-57v-1,-26,22,-44,48,-44v26,0,48,19,48,44r0,57xm101,-101v11,-48,100,-38,94,10v-6,54,-32,98,-44,149v-11,49,-101,39,-95,-10v6,-54,33,-98,45,-149","w":251},"<":{"d":"11,-208r0,-65r505,-175r0,89r-345,119r345,119r0,89","w":535},"=":{"d":"13,-245r0,-68r605,0r0,68r-605,0xm13,-167r0,-68r605,0r0,68r-605,0","w":630},">":{"d":"11,-32r0,-89r344,-119r-344,-119r0,-89r505,175r0,65","w":535},"?":{"d":"265,-694v125,-2,243,62,243,177v0,62,-39,119,-113,177v-81,64,-98,86,-91,185r-97,0v-7,-118,23,-166,112,-240v56,-47,93,-52,93,-122v0,-65,-71,-91,-148,-90v-124,3,-158,54,-174,176r-91,-47v20,-145,110,-214,266,-216xm303,-45v1,26,-23,45,-49,45v-51,0,-47,-52,-47,-103v0,-26,21,-45,47,-45v26,0,49,17,49,45r0,58"},"@":{"d":"817,-394v0,123,-94,265,-223,265v-32,0,-53,-12,-63,-37v-90,70,-269,68,-336,-24v-65,-90,-37,-231,31,-306v75,-82,254,-108,348,-37r6,-42r85,0r-2,22r-6,-7v7,73,-12,160,-37,357v-9,7,-9,7,-14,8v-1,5,-5,7,-12,4v-4,-2,-12,-11,-25,-27v101,8,149,-109,151,-178v4,-131,-138,-212,-280,-212v-172,0,-317,97,-319,268v-2,161,151,268,318,264v119,-2,234,-53,283,-136r109,0v-54,90,-95,137,-187,179v-273,126,-622,-30,-622,-312v0,-209,197,-350,414,-350v197,0,381,115,381,301xm550,-381v0,-76,-48,-109,-129,-109v-102,0,-173,79,-173,179v0,75,40,113,121,111v102,-2,181,-74,181,-181","w":840},"A":{"d":"584,0r-97,-200r-334,0r-99,200r-108,0r340,-678r75,0r328,678r-105,0xm323,-537r-126,250r248,0","w":636},"B":{"d":"643,-198v1,135,-133,198,-284,198r-347,0r0,-678r360,0v134,-2,250,64,249,188v0,54,-26,98,-79,132v67,32,101,85,101,160xm525,-494v0,-72,-75,-97,-155,-97r-262,0r0,195r261,0v80,0,156,-26,156,-98xm548,-197v0,-86,-86,-111,-181,-111r-259,0r0,221r263,0v91,1,177,-32,177,-110","w":642},"C":{"d":"14,-334v0,-219,164,-351,388,-351v137,0,244,50,319,149r-81,49v-56,-75,-116,-110,-238,-111v-171,-3,-292,96,-292,260v0,162,113,261,281,258v120,-2,181,-40,241,-112r82,49v-83,100,-190,150,-322,150v-219,0,-378,-128,-378,-341","w":719},"D":{"d":"675,-338v0,220,-166,338,-398,338r-257,0r0,-678r295,0v225,-2,360,120,360,340xm579,-338v0,-172,-90,-253,-265,-253r-198,0r0,504r164,0v182,1,298,-77,299,-251","w":680},"E":{"d":"20,0r0,-678r561,0r0,87r-466,0r0,195r413,0r0,87r-413,0r0,222r471,0r0,87r-566,0","w":564},"F":{"d":"115,-591r0,195r368,0r0,87r-368,0r0,309r-95,0r0,-678r525,0r0,87r-430,0","w":505},"G":{"d":"93,-338v0,172,119,258,298,258v130,0,257,-66,258,-186r-290,0r0,-88r382,0v45,236,-133,360,-350,361v-230,2,-395,-122,-395,-344v0,-218,164,-351,388,-348v208,3,317,81,358,267r-98,0v-31,-126,-105,-179,-259,-180v-175,-2,-292,92,-292,260","w":758},"H":{"d":"565,0r0,-309r-449,0r0,309r-96,0r0,-678r96,0r0,282r449,0r0,-282r96,0r0,678r-96,0","w":680},"I":{"d":"20,0r0,-678r96,0r0,678r-96,0","w":134},"J":{"d":"462,-205v0,143,-92,213,-239,212v-148,0,-230,-69,-245,-207r97,0v11,90,45,120,144,120v110,0,147,-25,147,-130r0,-468r96,0r0,473","w":486},"K":{"d":"607,0r-371,-328r-120,86r0,242r-96,0r0,-678r96,0r0,327r469,-327r158,0r-429,297r430,381r-137,0","w":670},"L":{"d":"20,0r0,-678r96,0r0,591r428,0r0,87r-524,0","w":505},"M":{"d":"703,0r0,-478r-259,478r-69,0r-259,-478r0,478r-96,0r0,-678r94,0r295,545r296,-545r94,0r0,678r-96,0","w":819},"N":{"d":"574,0r-458,-526r0,526r-96,0r0,-678r86,0r231,266r228,257r0,-523r96,0r0,678r-87,0","w":680},"O":{"d":"762,-338v0,217,-159,345,-383,345v-226,0,-382,-126,-382,-345v0,-217,156,-337,382,-337v226,0,383,120,383,337xm666,-338v0,-168,-113,-250,-287,-250v-174,0,-285,83,-285,250v0,165,113,258,285,258v174,0,287,-91,287,-258","w":757},"P":{"d":"627,-475v0,132,-133,198,-281,198r-230,0r0,277r-96,0r0,-678r337,0v180,0,270,68,270,203xm116,-364v162,-8,414,43,414,-110v0,-78,-56,-117,-167,-117r-247,0r0,227","w":621},"Q":{"d":"762,-336v0,153,-83,266,-199,313r146,1r0,88v-114,0,-217,11,-273,-56v-257,26,-439,-107,-439,-346v0,-218,156,-339,382,-339v225,0,383,119,383,339xm666,-336v0,-167,-113,-251,-287,-251v-173,0,-285,85,-285,251v0,63,15,116,46,158v36,-49,89,-74,158,-74v98,0,188,68,188,162v120,-35,180,-117,180,-246xm393,-75v17,-102,-155,-119,-183,-42v49,30,109,43,183,42","w":757},"R":{"d":"542,-331v52,33,78,82,78,148r0,183r-96,0r0,-180v0,-69,-55,-104,-164,-104r-244,0r0,284r-96,0r0,-678r349,0v174,0,261,63,261,188v0,71,-29,124,-88,159xm116,-372v165,-8,418,43,418,-115v0,-69,-54,-104,-163,-104r-255,0r0,219","w":642},"S":{"d":"631,-183v0,130,-154,190,-301,190v-199,0,-351,-74,-332,-278r97,0v-11,141,60,187,236,191v99,2,204,-25,204,-105v0,-64,-33,-72,-91,-89v-47,-14,-290,-56,-320,-79v-69,-33,-103,-82,-103,-148v0,-123,97,-184,290,-184v201,0,303,82,306,247r-94,0v-10,-138,-69,-160,-212,-160v-129,0,-194,32,-194,97v0,31,15,54,46,69v25,12,70,23,133,34v124,21,207,43,250,67v57,32,85,81,85,148","w":642},"T":{"d":"321,-591r0,591r-96,0r0,-591r-260,0r0,-87r615,0r0,87r-259,0","w":545},"U":{"d":"644,-259v-2,187,-113,266,-312,266v-208,0,-312,-89,-312,-268r0,-417r96,0r0,417v2,132,75,182,216,181v138,-1,216,-46,216,-178r0,-420r96,0r0,419","w":664},"V":{"d":"354,0r-71,0r-328,-678r103,0r260,537r253,-537r103,0","w":628},"W":{"d":"704,0r-73,0r-144,-309r-140,309r-73,0r-315,-678r103,0r248,534r124,-277r-118,-257r103,0r248,534r241,-534r103,0","w":970},"X":{"d":"560,0r-256,-280r-259,280r-125,0r320,-348r-305,-330r127,0r242,263r244,-263r126,0r-306,330r316,348r-124,0","w":604},"Y":{"d":"362,-320r0,320r-96,0r0,-320r-351,-358r127,0r271,275r272,-275r126,0","w":626},"Z":{"d":"-1,0r0,-72r480,-519r-450,0r0,-87r591,0r0,71r-480,520r488,0r0,87r-629,0","w":626},"[":{"d":"64,168r0,-902r193,0r0,89r-97,0r0,724r97,0r0,89r-193,0","w":233},"\\":{"d":"306,0r-375,-694r105,0r375,694r-105,0","w":350},"]":{"d":"168,168r-192,0r0,-89r97,0r0,-724r-97,0r0,-89r194,0","w":233},"^":{"d":"192,-511r-45,-48r-45,48r-113,0r127,-135r60,0r134,135r-118,0","w":298},"_":{"d":"-38,119r0,-48r601,0r0,48r-601,0"},"`":{"d":"123,-539v-28,-15,-62,-36,-104,-63v-32,-21,-43,-46,-6,-63v21,-9,41,-8,61,4v22,13,57,32,99,61v33,23,44,46,7,64v-17,8,-37,8,-57,-3","w":193},"a":{"d":"-9,-243v0,-156,114,-257,273,-257v71,0,130,18,177,54r0,-52r96,0r0,499r-96,0r0,-46v-47,37,-107,56,-181,56v-156,0,-269,-101,-269,-254xm441,-243v0,-110,-68,-172,-182,-172v-104,0,-172,69,-172,172v0,104,68,169,172,169v105,0,183,-69,182,-169","w":564},"b":{"d":"564,-251v0,160,-110,261,-272,261v-68,0,-126,-20,-175,-59r0,50r-96,0r0,-679r96,0r0,216v47,-37,105,-56,176,-56v163,0,271,105,271,267xm469,-252v0,-109,-64,-180,-172,-179v-120,0,-180,60,-180,181v-1,103,75,173,181,173v106,0,171,-69,171,-175","w":564},"c":{"d":"533,-175v-31,124,-116,184,-259,186v-160,3,-279,-94,-279,-247v0,-162,120,-268,290,-264v131,3,211,58,242,172r-88,40v-26,-87,-56,-124,-156,-127v-117,-2,-191,68,-191,179v0,105,73,164,181,162v100,-2,149,-36,168,-137"},"d":{"d":"-9,-252v0,-160,111,-266,273,-266v71,0,130,19,177,56r0,-216r96,0r0,679r-96,0r0,-48v-47,39,-107,58,-181,58v-158,0,-269,-107,-269,-263xm441,-252v0,-112,-66,-179,-182,-179v-106,0,-172,76,-172,179v0,106,66,176,172,176v106,0,183,-74,182,-176","w":564},"e":{"d":"265,-500v175,2,296,102,276,293r-455,1v11,88,70,132,176,132v87,0,145,-36,175,-109r99,0v-47,136,-119,191,-276,194v-167,3,-272,-92,-272,-254v-1,-152,117,-259,277,-257xm437,-291v-15,-76,-79,-124,-172,-124v-94,0,-158,49,-176,124r348,0"},"f":{"d":"364,-580v-126,4,-201,11,-203,121r111,0r0,88r-111,0r0,372r-96,0r0,-372r-73,0r0,-88r73,0v-3,-143,96,-205,299,-207r0,86","w":267},"g":{"d":"527,-32v-1,146,-104,212,-261,211v-151,-2,-238,-59,-246,-208r95,0v11,91,49,120,152,121v108,0,165,-32,164,-134v-49,35,-107,53,-174,53v-159,0,-265,-103,-265,-254v0,-154,112,-257,272,-257v65,0,121,18,167,53r0,-42r96,0r0,457xm431,-241v0,-97,-69,-172,-169,-172v-103,0,-174,71,-173,170v0,101,62,167,166,167v106,0,176,-63,176,-165","w":545},"h":{"d":"274,-518v126,-1,229,65,229,184r0,334r-96,0r0,-325v0,-71,-44,-106,-132,-106v-96,0,-158,57,-158,149r0,282r-96,0r0,-678r96,0r0,204v42,-29,94,-44,157,-44"},"i":{"d":"117,-571v-31,40,-76,42,-96,-6r0,-74v24,-48,63,-46,96,-5r0,85xm21,0r0,-508r96,0r0,508r-96,0","w":136},"j":{"d":"117,-569v-31,40,-76,42,-96,-6r0,-76v24,-48,63,-46,96,-5r0,87xm-186,91v128,-3,204,-17,204,-128r0,-467r96,0r0,468v0,143,-100,215,-300,215r0,-88","w":136},"k":{"d":"281,-300r305,300r-131,0r-252,-248r-86,57r0,191r-96,0r0,-678r96,0r0,379r313,-210r168,4","w":532},"l":{"d":"21,0r0,-678r96,0r0,678r-96,0","w":136},"m":{"d":"590,-500v126,-1,206,57,206,178r0,322r-96,0r0,-313v-1,-74,-33,-102,-108,-102v-79,-1,-135,40,-135,114r0,301r-96,0r0,-313v-1,-74,-35,-102,-111,-102v-82,-1,-134,60,-133,143r0,272r-96,0r0,-490r96,0r0,30v83,-59,241,-54,301,23v39,-42,96,-63,172,-63","w":817},"n":{"d":"117,-457v127,-88,386,-41,386,135r0,322r-96,0r0,-313v0,-68,-44,-102,-132,-102v-94,0,-158,54,-158,143r0,272r-96,0r0,-490r96,0r0,33"},"o":{"d":"555,-244v0,155,-121,255,-283,255v-163,0,-281,-100,-281,-255v0,-155,121,-256,283,-256v163,0,281,101,281,256xm459,-244v0,-107,-73,-171,-186,-171v-112,0,-185,65,-185,171v0,105,75,170,185,170v110,0,186,-65,186,-170","w":545},"p":{"d":"564,-238v0,162,-108,268,-271,266v-70,0,-129,-19,-176,-57r0,197r-96,0r0,-657r96,0r0,45v47,-37,106,-56,175,-56v163,0,272,103,272,262xm469,-237v0,-104,-64,-176,-171,-176v-108,0,-182,69,-181,174v0,119,60,179,180,179v107,0,172,-69,172,-177","w":564},"q":{"d":"-9,-238v0,-153,114,-262,271,-262v71,0,131,19,178,56r0,-45r96,0r0,657r-96,0r0,-193v-45,35,-106,53,-182,53v-155,0,-267,-113,-267,-266xm441,-237v1,-106,-74,-176,-184,-176v-105,0,-169,70,-169,176v0,102,64,177,170,177v122,0,183,-59,183,-177","w":564},"r":{"d":"330,-415v-154,-2,-213,73,-213,214r0,201r-96,0r0,-490r96,0r0,45v47,-37,118,-55,213,-55r0,85","w":318},"s":{"d":"473,-138v0,103,-105,151,-224,151v-163,0,-245,-75,-245,-226r98,0v1,107,39,139,148,139v83,0,125,-21,125,-64v0,-51,-121,-62,-182,-70v-112,-15,-168,-63,-168,-141v0,-98,103,-152,207,-152v158,0,237,69,238,206r-99,0v-2,-94,-37,-118,-134,-119v-55,-1,-114,19,-114,65v0,25,26,41,79,50r105,18v111,17,166,65,166,143","w":486},"t":{"d":"179,-391r0,391r-94,0r-2,-391r-100,0r0,-87r100,0r0,-136r96,0r0,136r101,0r0,87r-101,0","w":263},"u":{"d":"250,11v-132,2,-229,-64,-229,-188r0,-311r96,0r0,310v0,69,44,104,133,104v105,0,157,-50,157,-151r0,-263r96,0r0,490r-96,0r0,-34v-43,29,-95,43,-157,43"},"v":{"d":"282,0r-73,0r-260,-488r110,0r185,357r172,-357r105,0","w":471},"w":{"d":"575,0r-76,0r-108,-214r-100,214r-75,0r-247,-488r108,0r175,354r85,-188r-85,-166r109,0r174,354r161,-354r105,0","w":771},"x":{"d":"420,0r-187,-188r-186,188r-128,0r251,-252r-230,-236r128,0r165,173r169,-173r126,0r-231,236r251,252r-128,0","w":467},"y":{"d":"503,-31v0,147,-107,211,-262,210v-149,-2,-238,-59,-245,-208r95,0v11,91,49,120,152,121v103,0,157,-36,163,-107v-43,29,-95,44,-156,44v-132,2,-229,-68,-229,-195r0,-322r96,0r0,321v0,72,44,108,133,108v105,0,157,-52,157,-157r0,-272r96,0r0,457"},"z":{"d":"-10,0r0,-68r332,-335r-302,0r0,-85r446,0r0,67r-332,336r349,0r0,85r-493,0","w":473},"{":{"d":"224,21v3,38,-6,58,20,58r48,0r0,89v-103,10,-164,-28,-164,-123r0,-211v-4,-78,-7,-50,-76,-86r0,-63v69,-34,76,-8,76,-85r0,-211v-1,-93,60,-135,164,-123r0,89r-48,0v-26,4,-17,20,-20,57v-6,107,21,255,-38,305v59,46,32,200,38,304","w":350},"|":{"d":"69,32r0,-738r96,0r0,738r-96,0","w":233},"}":{"d":"292,-252v-70,35,-76,7,-76,86r0,211v1,93,-61,134,-164,123r0,-89r47,0v26,-4,18,-20,21,-58v5,-104,-20,-256,37,-304v-58,-51,-31,-200,-37,-305v-2,-37,5,-57,-21,-57r-47,0r0,-89v103,-11,164,30,164,123r0,211v3,78,6,50,76,85r0,63","w":350},"~":{"d":"537,-456v-18,78,-73,99,-157,105v-27,2,-185,-39,-212,-39v-34,1,-39,10,-48,40r-108,0v18,-77,74,-99,158,-105v26,-2,183,41,210,40v25,0,41,-14,49,-41r108,0","w":548},"\u00c7":{"d":"14,-327v0,-222,161,-358,388,-358v137,0,244,51,319,152r-81,50v-57,-77,-114,-111,-238,-113v-172,-2,-292,98,-292,265v0,164,113,265,281,263v121,-2,181,-39,241,-114r81,50v-81,102,-188,153,-321,153v-220,0,-378,-133,-378,-348xm374,174v-28,0,-77,-10,-147,-29r49,-81v45,14,77,21,95,21v29,0,43,-4,43,-11v-33,-2,-53,-1,-98,21v-2,-59,5,-109,10,-160r94,0r-2,51v65,7,97,37,97,92v0,64,-47,96,-141,96","w":719},"\u00d6":{"d":"484,-771v4,50,3,98,-47,98v-48,0,-48,-46,-48,-96v0,-28,22,-45,48,-45v29,0,44,14,47,43xm369,-771v5,50,1,98,-48,98v-48,0,-47,-46,-47,-96v0,-26,21,-45,47,-45v29,0,45,14,48,43xm762,-345v0,221,-157,352,-383,352v-228,0,-382,-130,-382,-352v0,-219,155,-342,382,-342v225,0,383,121,383,342xm666,-345v0,-168,-113,-254,-287,-254v-174,0,-285,86,-285,254v-1,168,112,264,285,264v176,0,287,-94,287,-264","w":757},"\u00dc":{"d":"438,-769v0,50,1,96,-48,96v-48,0,-48,-46,-48,-96v0,-28,22,-45,48,-45v26,0,48,19,48,45xm323,-769v0,51,-1,96,-49,96v-48,0,-47,-46,-47,-96v0,-26,21,-45,47,-45v26,0,49,17,49,45xm644,-263v-2,189,-112,270,-312,270v-208,0,-312,-91,-312,-272r0,-425r96,0r0,424v2,134,74,185,216,185v141,0,216,-49,216,-181r0,-428r96,0r0,427","w":664},"\u00e7":{"d":"533,-164v-30,128,-114,189,-259,192v-162,3,-279,-99,-279,-255v0,-166,118,-276,290,-273v133,3,210,61,242,177r-88,42v-26,-88,-53,-130,-156,-132v-119,-2,-191,71,-191,186v0,106,70,171,181,168v102,-3,148,-39,168,-142xm319,77v-31,-3,-52,-2,-98,20v-2,-59,6,-107,12,-157r93,0r-2,49v64,7,96,38,96,91v0,63,-47,94,-141,94v-27,0,-76,-9,-145,-27r45,-81v47,14,80,21,97,21v29,0,43,-3,43,-10"},"\u00f6":{"d":"379,-580v0,50,-2,95,-48,95v-47,0,-48,-45,-48,-95v0,-26,22,-44,48,-44v26,0,48,18,48,44xm264,-580v0,51,-1,95,-49,95v-46,0,-47,-46,-47,-95v0,-26,21,-44,47,-44v26,0,49,19,49,44xm555,-251v0,158,-119,262,-283,262v-164,0,-281,-104,-281,-262v0,-158,119,-263,283,-263v164,0,281,106,281,263xm459,-251v0,-109,-72,-176,-186,-176v-113,0,-185,68,-185,176v0,107,74,175,185,175v111,0,186,-68,186,-175","w":545},"\u00fc":{"d":"369,-580v0,51,-1,95,-49,95v-46,0,-47,-46,-47,-95v0,-26,21,-44,47,-44v26,0,49,19,49,44xm253,-580v0,50,-2,95,-48,95v-47,0,-48,-45,-48,-95v0,-26,22,-44,48,-44v26,0,48,18,48,44xm250,11v-132,1,-229,-67,-229,-193r0,-321r96,0r0,320v0,71,44,107,133,107v105,0,157,-52,157,-156r0,-271r96,0r0,504r-96,0r0,-34v-43,29,-95,44,-157,44"},"\u0131":{"d":"21,0r0,-488r96,0r0,488r-96,0","w":136},"\u00a0":{"w":354}}});
/*!
 * The following copyright notice may not be removed under any circumstances.
 * 
 * Copyright:
 * ©G.M.
 * 
 * Trademark:
 * GM / Walkway
 */
Cufon.registerFont({"w":525,"face":{"font-family":"Walkway Bold","font-weight":400,"font-stretch":"normal","units-per-em":"1000","panose-1":"0 0 4 0 0 0 0 0 0 0","ascent":"800","descent":"-200","x-height":"11","bbox":"-163 -814 976 179","underline-thickness":"30","underline-position":"-118","unicode-range":"U+0020-U+0131"},"glyphs":{" ":{"w":354},"!":{"d":"72,-166r0,-512r51,0r0,512r-51,0xm97,0v-40,2,-26,-53,-26,-87v0,-16,9,-24,26,-24v39,-2,25,52,25,86v0,17,-8,25,-25,25","w":194},"\"":{"d":"203,-547v-46,0,-26,-66,-26,-104v0,-14,9,-21,26,-21v45,0,25,65,25,103v0,15,-8,22,-25,22xm87,-547v-44,0,-25,-66,-25,-104v0,-14,8,-21,25,-21v46,-1,26,65,26,103v0,15,-9,22,-26,22","w":292},"#":{"d":"461,-350r-90,0r-18,71r89,0r-11,45r-89,0r-19,73r-52,0r19,-73r-89,0r-19,73r-52,0r19,-73r-89,0r11,-45r89,0r19,-71r-91,0r14,-45r88,0r19,-73r52,0r-19,73r89,0r18,-73r52,0r-18,73r89,0xm231,-350r-19,71r89,0r18,-71r-88,0","w":531},"$":{"d":"608,-171v3,102,-95,166,-193,181r0,60r-51,0r0,-53v-33,2,-66,1,-96,-3r0,56r-51,0r0,-63v-139,-35,-202,-109,-196,-250r51,0v-5,112,41,173,145,201r0,-303v-116,-29,-174,-85,-174,-168v0,-95,58,-153,174,-176r0,-64r51,0r0,58v30,-1,67,-1,96,1r0,-59r51,0r0,66v118,27,178,100,179,219r-50,0v-6,-92,-49,-149,-129,-170r0,284v121,30,190,59,193,183xm364,-646v-29,-4,-66,-4,-96,-1r0,263r96,18r0,-280xm217,-639v-82,19,-123,61,-123,126v0,56,41,95,123,117r0,-243xm415,-38v74,-15,141,-57,142,-136v0,-34,-7,-58,-21,-73v-20,-21,-60,-40,-121,-57r0,266xm364,-315r-96,-19r0,301v29,3,65,4,96,2r0,-284","w":642},"%":{"d":"166,1r-62,0r498,-679r61,0xm560,19v-99,0,-149,-60,-149,-180v0,-123,50,-185,150,-185v99,0,148,62,148,185v0,120,-50,180,-149,180xm190,-294v-99,0,-148,-60,-148,-180v0,-123,50,-184,149,-184v99,0,149,61,149,184v0,120,-50,180,-150,180xm560,-299v-65,0,-97,46,-97,138v0,89,33,133,98,133v64,0,96,-44,96,-133v0,-92,-32,-138,-97,-138xm190,-611v-64,0,-96,46,-96,137v0,89,32,133,97,133v65,0,97,-44,97,-133v0,-91,-33,-137,-98,-137","w":750},"&":{"d":"261,-31v135,0,226,-105,225,-249r51,0r0,299r-51,0r0,-118v-57,77,-130,115,-219,115v-117,0,-241,-65,-236,-173v5,-115,100,-172,205,-225v-77,-41,-115,-95,-115,-162v0,-83,80,-134,168,-134v94,0,170,47,169,136v0,64,-64,130,-191,197v-63,33,-106,59,-127,78v-39,35,-58,71,-58,110v0,78,94,126,179,126xm407,-543v1,-55,-55,-88,-116,-88v-61,0,-120,31,-119,88v0,57,38,102,114,135v81,-45,121,-90,121,-135","w":603},"'":{"d":"87,-547v-44,0,-25,-66,-25,-104v0,-14,8,-21,25,-21v46,-1,26,65,26,103v0,15,-9,22,-26,22","w":175},"(":{"d":"186,168v-173,-256,-173,-647,0,-902r57,0v-181,263,-181,639,0,902r-57,0","w":233},")":{"d":"42,168r-57,0v187,-263,187,-639,0,-902r57,0v179,250,179,652,0,902","w":233},"*":{"d":"49,-584v-26,-8,-14,-43,10,-41v32,3,50,21,76,31v3,-32,-13,-78,26,-78v38,0,22,46,25,78v25,-10,46,-26,75,-31v24,-5,35,31,11,42r-57,25v23,15,66,18,72,47v4,20,-23,26,-40,19r-61,-29v-3,32,13,78,-25,78v-39,0,-23,-46,-26,-78v-25,10,-45,28,-75,32v-29,4,-33,-31,-10,-42r57,-27","w":340},"+":{"d":"305,-228r0,161r-51,0r0,-161r-191,0r0,-46r191,0r0,-159r51,0r0,159r192,0r0,46r-192,0","w":560},",":{"d":"135,74v-3,24,-59,21,-51,-4r45,-140v3,-27,52,-18,50,5","w":262},"-":{"d":"36,-254r0,-20r287,0r0,20r-287,0","w":350},"\u2010":{"d":"36,-254r0,-20r287,0r0,20r-287,0","w":350},".":{"d":"105,2v-37,0,-26,-37,-26,-67v0,-13,9,-20,26,-20v36,0,25,37,25,67v0,13,-8,20,-25,20","w":209},"\/":{"d":"32,0r-54,0r349,-694r54,0","w":350},"0":{"d":"550,-247v1,155,-99,259,-257,259v-155,0,-260,-104,-260,-259r0,-164v-2,-155,105,-260,260,-260v158,0,257,106,257,260r0,164xm292,-35v127,0,208,-85,207,-212r0,-164v2,-127,-82,-213,-207,-213v-127,0,-208,86,-208,213r0,164v-2,126,82,212,208,212","w":584},"1":{"d":"274,0r0,-573r-134,106r-78,0r222,-179r41,0r0,646r-51,0","w":413},"2":{"d":"297,-657v127,-1,226,51,226,167v0,57,-54,119,-165,176v-125,64,-249,156,-260,267r456,0r0,47r-511,0v1,-125,69,-228,205,-308r140,-80v57,-33,85,-67,85,-104v0,-83,-77,-119,-170,-118v-135,1,-197,60,-197,195r-51,0v-2,-161,87,-241,242,-242","w":584},"3":{"d":"556,-182v0,126,-123,194,-259,193v-164,-1,-281,-80,-271,-248r51,0v-14,140,85,200,216,201v109,2,213,-49,213,-146v0,-114,-110,-151,-255,-141r0,-47r62,0v119,0,179,-41,179,-122v0,-83,-92,-119,-186,-118v-138,1,-208,51,-209,184r-51,0v-1,-160,96,-230,257,-231v130,-1,240,49,240,165v0,71,-35,119,-104,144v78,27,117,83,117,166","w":584},"4":{"d":"434,-215r0,215r-51,0r0,-215r-374,0r223,-432r54,0r-199,385r296,0r0,-386r51,3r0,383r129,0r0,47r-129,0","w":584},"5":{"d":"549,-219v0,145,-111,231,-261,230v-164,-1,-265,-74,-264,-237r51,0v-1,134,80,189,214,190v121,1,209,-63,209,-182v0,-117,-95,-182,-217,-182v-83,0,-145,32,-186,95r-50,0r16,-341r458,0r0,47r-408,0r-9,216v45,-43,106,-64,183,-64v149,0,264,85,264,228","w":584},"6":{"d":"48,-443v-2,-133,109,-210,247,-210v143,0,245,80,242,227r-50,0v3,-119,-79,-183,-193,-183v-111,-1,-193,60,-193,168r-1,96v43,-48,107,-72,191,-72v138,0,242,80,242,213v0,132,-107,210,-244,210v-143,0,-241,-82,-241,-229r0,-220xm483,-204v0,-108,-83,-169,-193,-169v-112,0,-193,62,-193,169v0,107,85,167,193,167v109,0,193,-60,193,-167","w":584},"7":{"d":"221,0r-54,0r306,-599r-422,0r0,-47r500,0","w":584},"8":{"d":"574,-186v1,138,-122,197,-273,197v-152,0,-274,-61,-274,-199v0,-85,45,-141,135,-168v-67,-27,-100,-70,-100,-129v0,-121,106,-172,239,-172v133,0,239,52,239,172v0,59,-34,102,-102,129v91,27,136,84,136,170xm302,-376v86,0,187,-35,187,-110v0,-83,-63,-124,-188,-124v-125,0,-188,42,-188,126v0,73,105,108,189,108xm301,-36v122,0,221,-43,222,-151v0,-95,-74,-142,-221,-142v-149,0,-224,47,-224,142v0,108,101,151,223,151","w":601},"9":{"d":"295,-662v142,0,241,84,241,229r0,239v2,132,-110,209,-247,209v-144,0,-245,-79,-242,-225r50,0v-3,121,78,181,193,182v110,1,192,-63,193,-168r1,-115v-43,47,-107,71,-191,71v-137,0,-242,-78,-242,-210v0,-132,107,-212,244,-212xm487,-450v0,-108,-83,-169,-193,-169v-112,0,-193,62,-193,169v0,107,85,167,193,167v109,0,193,-60,193,-167","w":584},":":{"d":"123,-355v-40,2,-26,-51,-26,-85v0,-17,9,-25,26,-25v37,-2,25,53,25,86v0,16,-8,24,-25,24xm123,2v-40,2,-26,-52,-26,-86v0,-16,9,-24,26,-24v37,-2,25,52,25,85v0,17,-8,25,-25,25","w":244},";":{"d":"143,-354v-40,2,-26,-52,-26,-86v0,-17,9,-25,26,-25v39,-2,25,52,25,86v0,17,-8,25,-25,25xm129,72v-3,28,-59,23,-51,-4r45,-156v4,-15,14,-21,30,-17v16,4,22,15,18,30","w":251},"<":{"d":"33,-220r0,-41r460,-177r0,49r-386,149r386,149r0,49","w":535},"=":{"d":"35,-271r0,-42r560,0r0,42r-560,0xm35,-167r0,-42r560,0r0,42r-560,0","w":630},">":{"d":"33,-42r0,-49r386,-149r-386,-149r0,-49r460,177r0,41","w":535},"?":{"d":"265,-694v115,-1,220,58,220,166v0,59,-36,113,-102,169v-81,68,-108,100,-102,193r-52,0v-5,-98,26,-146,103,-214v62,-54,98,-66,102,-148v4,-81,-79,-121,-170,-119v-126,1,-179,57,-193,174r-47,-26v16,-127,102,-194,241,-195xm254,0v-39,2,-25,-53,-25,-87v0,-16,8,-24,25,-24v40,-2,26,52,26,86v0,17,-9,25,-26,25"},"@":{"d":"794,-398v-2,116,-79,260,-200,260v-35,0,-49,-22,-44,-65v-73,95,-265,111,-337,9v-60,-86,-31,-223,30,-296v76,-90,288,-110,346,-2r11,-75r48,0r-51,379v88,-10,144,-135,145,-212v3,-150,-145,-249,-302,-249v-189,0,-342,125,-342,309v0,181,157,307,341,305v123,-2,250,-62,295,-145r59,0v-56,112,-197,187,-349,191v-215,5,-400,-147,-400,-356v0,-205,181,-350,392,-350v189,0,361,116,358,297xm572,-383v0,-163,-217,-176,-295,-75v-32,42,-52,90,-52,149v0,88,54,143,144,141v117,-4,203,-91,203,-215","w":840},"A":{"d":"598,0r-97,-213r-362,0r-99,213r-58,0r318,-678r47,0r307,678r-56,0xm324,-604r-163,343r319,0","w":636},"B":{"d":"620,-189v1,130,-119,189,-261,189r-325,0r0,-678r338,0v125,-1,227,60,226,178v0,65,-37,113,-110,144v88,25,132,81,132,167xm547,-505v1,-86,-82,-126,-177,-126r-285,0r0,255r284,0v96,1,178,-41,178,-129xm570,-188v0,-100,-91,-141,-203,-141r-282,0r0,282r286,0v107,1,199,-45,199,-141","w":642},"C":{"d":"36,-334v0,-215,148,-351,366,-351v130,0,226,43,287,130r-43,27v-51,-73,-132,-110,-244,-110v-187,0,-315,115,-315,300v0,181,120,298,304,298v107,0,189,-37,246,-112r44,28v-67,87,-164,131,-289,131v-213,0,-356,-131,-356,-341","w":719},"D":{"d":"652,-338v0,219,-150,338,-375,338r-235,0r0,-678r273,0v218,-1,337,122,337,340xm601,-338v0,-192,-97,-293,-287,-293r-221,0r0,584r187,0v197,1,321,-97,321,-291","w":680},"E":{"d":"42,0r0,-678r516,0r0,47r-466,0r0,255r413,0r0,46r-413,0r0,283r471,0r0,47r-521,0","w":564},"F":{"d":"92,-631r0,255r368,0r0,46r-368,0r0,330r-50,0r0,-678r480,0r0,47r-430,0","w":505},"G":{"d":"721,-331v32,218,-129,336,-330,338v-224,2,-372,-125,-372,-344v0,-215,147,-350,365,-348v186,2,298,79,330,239r-52,0v-29,-128,-122,-192,-277,-192v-190,0,-315,112,-315,300v0,193,126,298,321,298v152,0,291,-88,281,-244r-291,0r0,-47r340,0","w":758},"H":{"d":"587,0r0,-330r-494,0r0,330r-51,0r0,-678r51,0r0,302r494,0r0,-302r51,0r0,678r-51,0","w":680},"I":{"d":"42,0r0,-678r51,0r0,678r-51,0","w":134},"J":{"d":"219,-40v124,0,169,-40,169,-162r0,-476r51,0r0,482v0,135,-72,203,-216,203v-135,0,-208,-58,-220,-175r52,0v7,85,62,128,164,128","w":486},"K":{"d":"616,0r-378,-357r-145,110r0,247r-51,0r0,-678r51,0r0,371r499,-371r81,0r-394,292r408,386r-71,0","w":670},"L":{"d":"42,0r0,-678r51,0r0,631r428,0r0,47r-479,0","w":505},"M":{"d":"725,0r0,-582r-295,582r-41,0r-296,-582r0,582r-51,0r0,-678r58,0r309,609r310,-609r57,0r0,678r-51,0","w":819},"N":{"d":"585,0r-492,-602r0,602r-51,0r0,-678r53,0r492,599r0,-599r51,0r0,678r-53,0","w":680},"O":{"d":"739,-339v0,214,-143,346,-360,346v-219,0,-359,-129,-359,-346v0,-215,142,-336,359,-336v217,0,360,121,360,336xm688,-339v0,-186,-120,-289,-309,-289v-189,0,-308,103,-308,289v0,185,121,299,308,299v190,0,309,-111,309,-299","w":757},"P":{"d":"604,-484v0,128,-120,188,-258,188r-253,0r0,296r-51,0r0,-678r315,0v165,0,247,65,247,194xm364,-343v99,1,189,-49,188,-141v0,-98,-63,-147,-189,-147r-270,0r0,288r271,0","w":621},"Q":{"d":"739,-338v-1,176,-95,293,-239,331v39,37,115,24,186,26r0,47v-107,1,-193,7,-242,-61v-253,30,-424,-105,-424,-343v0,-215,142,-337,359,-337v217,0,361,122,360,337xm688,-338v1,-186,-120,-290,-309,-290v-189,0,-309,104,-308,290v0,86,24,155,73,208v21,-54,82,-94,154,-95v86,-1,168,61,165,147v0,10,2,20,6,30v133,-30,219,-132,219,-290xm414,-79v7,-123,-216,-133,-230,-16v62,44,141,63,237,55v-5,-13,-7,-26,-7,-39","w":757},"R":{"d":"492,-331v70,27,105,80,105,159r0,172r-51,0r0,-170v0,-89,-62,-133,-186,-133r-267,0r0,303r-51,0r0,-678r327,0v159,0,238,59,238,178v0,83,-38,139,-115,169xm355,-352v112,1,200,-45,201,-145v0,-89,-62,-134,-185,-134r-278,0r0,279r262,0","w":642},"S":{"d":"608,-172v2,122,-139,180,-278,179v-183,-2,-319,-69,-309,-250r51,0v-6,143,78,200,259,203v114,2,226,-37,226,-135v0,-76,-38,-96,-107,-117v-44,-13,-288,-59,-316,-82v-61,-31,-91,-76,-91,-137v0,-116,89,-174,268,-174v187,0,281,73,283,218r-50,0v-9,-136,-84,-170,-233,-171v-145,0,-217,42,-217,127v0,98,86,111,198,132v121,23,202,44,243,69v49,29,73,75,73,138","w":642},"T":{"d":"298,-631r0,631r-51,0r0,-631r-259,0r0,-47r569,0r0,47r-259,0","w":545},"U":{"d":"621,-254v-1,184,-99,261,-289,261v-192,0,-290,-77,-290,-263r0,-422r51,0r0,422v0,144,80,216,239,216v159,0,238,-71,238,-213r0,-425r51,0r0,424","w":664},"V":{"d":"340,0r-43,0r-307,-678r54,0r275,606r266,-606r54,0","w":628},"W":{"d":"689,0r-43,0r-159,-364r-155,364r-43,0r-296,-678r54,0r264,604r148,-353r-109,-251r54,0r264,605r255,-605r53,0","w":970},"X":{"d":"570,0r-266,-311r-269,311r-65,0r300,-349r-285,-329r67,0r252,292r254,-292r66,0r-285,330r296,348r-65,0","w":604},"Y":{"d":"339,-328r0,328r-51,0r0,-328r-321,-350r66,0r280,304r281,-304r65,0","w":626},"Z":{"d":"22,0r0,-45r507,-586r-478,0r0,-47r546,0r0,44r-507,587r515,0r0,47r-583,0","w":626},"[":{"d":"86,168r0,-902r148,0r0,48r-97,0r0,806r97,0r0,48r-148,0","w":233},"\\":{"d":"320,0r-352,-694r54,0r352,694r-54,0","w":350},"]":{"d":"146,168r-147,0r0,-48r96,0r0,-806r-96,0r0,-48r148,0","w":233},"^":{"d":"203,-511r-56,-82r-56,82r-56,0r92,-135r38,0r98,135r-60,0","w":298},"_":{"d":"-15,119r0,-48r555,0r0,48r-555,0"},"`":{"d":"180,-550v0,19,-28,29,-45,14v-35,-31,-106,-77,-122,-117v2,-16,29,-27,47,-11r113,100v5,4,7,9,7,14","w":193},"a":{"d":"14,-243v0,-153,97,-257,250,-257v89,0,156,32,199,95r0,-93r51,0r0,499r-51,0r0,-88v-45,65,-112,98,-203,98v-149,0,-246,-105,-246,-254xm463,-243v0,-129,-75,-210,-204,-210v-119,0,-195,89,-195,210v0,122,74,207,195,207v121,0,204,-89,204,-207","w":564},"b":{"d":"541,-246v0,155,-96,257,-249,256v-86,0,-152,-33,-198,-98r0,88r-51,0r0,-678r51,0r0,265v43,-63,110,-95,199,-95v154,-2,248,106,248,262xm491,-247v0,-127,-70,-213,-194,-213v-133,0,-203,81,-203,216v0,121,83,207,204,207v121,0,193,-87,193,-210","w":564},"c":{"d":"506,-155v-24,105,-107,165,-232,166v-153,2,-256,-97,-256,-247v0,-158,104,-266,267,-264v114,2,192,56,216,152r-47,23v-23,-85,-80,-128,-171,-128v-133,0,-214,87,-214,217v0,123,79,202,204,200v102,-1,169,-47,185,-140"},"d":{"d":"14,-247v0,-153,97,-260,250,-260v89,0,156,32,199,95r0,-266r51,0r0,678r-51,0r0,-88v-45,66,-112,99,-203,99v-150,0,-246,-108,-246,-258xm463,-247v0,-131,-75,-213,-204,-213v-119,0,-195,92,-195,213v0,123,74,211,195,211v120,0,204,-92,204,-211","w":564},"e":{"d":"265,-500v161,1,266,100,253,273r-457,1v7,127,74,190,201,190v97,0,160,-40,191,-119r52,0v-33,111,-112,164,-245,166v-158,2,-249,-95,-249,-254v0,-151,103,-258,254,-257xm462,-273v-5,-109,-83,-180,-197,-180v-116,0,-193,72,-203,180r400,0"},"f":{"d":"341,-620v-149,3,-212,51,-203,175r111,0r0,48r-111,0r0,398r-51,0r0,-398r-72,0r0,-48r72,0v-9,-155,71,-218,254,-221r0,46","w":267},"g":{"d":"15,-248v0,-149,98,-252,249,-252v84,0,147,30,189,90r0,-79r51,0r0,466v0,135,-79,202,-238,202v-129,0,-217,-54,-222,-176r51,0v7,86,65,129,172,129v151,0,199,-74,186,-220v-45,59,-111,88,-196,88v-147,0,-242,-103,-242,-248xm453,-246v0,-114,-76,-207,-191,-207v-116,0,-196,87,-196,204v0,119,73,202,189,202v120,0,198,-81,198,-199","w":545},"h":{"d":"274,-508v117,0,206,63,206,175r0,333r-51,0r0,-324v1,-90,-63,-136,-154,-136v-110,0,-182,74,-181,182r0,278r-51,0r0,-678r51,0r0,249v39,-53,99,-79,180,-79"},"i":{"d":"94,-595v-17,23,-40,25,-51,-2r0,-70v13,-27,33,-25,51,-2r0,74xm43,0r0,-496r51,0r0,496r-51,0","w":136},"j":{"d":"94,-594v-17,22,-40,24,-51,-2r0,-71v13,-27,33,-25,51,-2r0,75xm-163,179r0,-47v135,0,203,-53,203,-158r0,-469r51,0r0,470v0,136,-85,204,-254,204","w":136},"k":{"d":"464,0r-258,-272r-112,79r0,193r-51,0r0,-678r51,0r0,426r343,-245r90,2r-280,194r286,301r-69,0","w":532},"l":{"d":"43,0r0,-678r51,0r0,678r-51,0","w":136},"m":{"d":"250,-453v-96,0,-156,80,-156,179r0,274r-51,0r0,-489r51,0r0,64v64,-100,275,-104,323,11v33,-57,91,-86,173,-86v122,0,183,57,183,172r0,328r-51,0r0,-319v0,-89,-43,-134,-130,-134v-93,0,-159,57,-158,147r0,306r-51,0r0,-319v0,-89,-44,-134,-133,-134","w":817},"n":{"d":"274,-500v117,0,206,61,206,172r0,328r-51,0r0,-319v1,-88,-62,-134,-154,-134v-109,0,-182,72,-181,179r0,274r-51,0r0,-489r51,0r0,67v39,-52,99,-78,180,-78"},"o":{"d":"532,-244v0,154,-106,255,-260,255v-154,0,-258,-104,-258,-255v0,-154,106,-256,260,-256v154,0,258,102,258,256xm481,-244v0,-125,-80,-209,-208,-209v-127,0,-208,83,-208,209v0,125,83,208,208,208v125,0,208,-83,208,-208","w":545},"p":{"d":"541,-243v0,156,-91,261,-248,261v-89,0,-155,-32,-199,-96r0,246r-51,0r0,-657r51,0r0,85v44,-64,110,-96,198,-96v154,0,249,103,249,257xm491,-242v0,-121,-74,-211,-193,-211v-123,0,-204,86,-204,209v0,135,70,215,203,215v122,0,194,-89,194,-213","w":564},"q":{"d":"14,-243v0,-146,98,-257,248,-257v90,0,157,32,200,96r0,-85r51,0r0,657r-51,0r0,-242v-41,61,-109,92,-204,92v-145,0,-244,-113,-244,-261xm463,-242v0,-123,-81,-211,-206,-211v-119,0,-192,89,-192,211v0,121,74,213,193,213v132,0,205,-80,205,-213","w":564},"r":{"d":"307,-453v-149,-2,-213,107,-213,257r0,196r-51,0r0,-489r51,0r0,83v40,-59,116,-95,213,-94r0,47","w":318},"s":{"d":"450,-129v1,99,-92,142,-201,142v-149,0,-223,-67,-223,-200r53,0v1,110,57,150,171,151v77,1,147,-27,147,-93v0,-40,-33,-68,-100,-83v-5,-1,-38,-7,-100,-16v-100,-15,-150,-59,-150,-130v0,-91,88,-143,185,-143v143,0,215,59,215,178r-54,0v-1,-97,-53,-128,-156,-129v-70,-1,-137,32,-137,94v0,40,33,66,98,77v17,3,53,10,106,19v97,17,146,61,146,133","w":486},"t":{"d":"156,-420r0,420r-49,0r-2,-420r-99,0r0,-47r99,0r0,-147r51,0r0,147r101,0r0,47r-101,0","w":263},"u":{"d":"250,-36v117,1,180,-70,179,-188r0,-264r51,0r0,489r-51,0r0,-68v-39,52,-99,78,-179,78v-123,0,-208,-64,-207,-182r0,-317r51,0r0,316v0,91,52,136,156,136"},"v":{"d":"268,0r-46,0r-236,-488r59,0r199,423r186,-423r56,0","w":471},"w":{"d":"560,0r-47,0r-123,-267r-114,267r-46,0r-225,-488r58,0r189,421r110,-263r-74,-158r59,0r188,421r176,-421r55,0","w":771},"x":{"d":"430,0r-197,-216r-196,216r-66,0r230,-253r-209,-235r66,0r175,200r179,-200r64,0r-209,235r229,253r-66,0","w":467},"y":{"d":"250,-29v118,1,180,-72,179,-191r0,-268r51,0r0,465v0,135,-80,202,-239,202v-128,0,-216,-54,-221,-176r51,0v7,86,65,129,172,129v139,-1,196,-62,186,-193v-39,53,-99,79,-179,79v-123,1,-208,-65,-207,-184r0,-322r51,0r0,321v0,92,52,138,156,138"},"z":{"d":"13,0r0,-42r360,-399r-331,0r0,-47r401,0r0,41r-360,400r377,0r0,47r-447,0","w":473},"{":{"d":"201,36v0,66,7,88,68,84r0,48v-80,6,-119,-25,-119,-107r0,-221v-4,-82,-10,-75,-76,-106r0,-35v17,-7,38,-18,61,-32v10,-12,15,-36,15,-73r0,-221v0,-82,39,-113,119,-107r0,48v-59,-4,-68,18,-68,83v0,116,32,285,-56,320v90,34,56,203,56,319","w":350},"|":{"d":"91,32r0,-738r51,0r0,738r-51,0","w":233},"}":{"d":"193,-406v3,83,15,77,76,105r0,35v-17,7,-38,18,-61,33v-10,12,-15,36,-15,73r0,221v0,82,-39,113,-119,107r0,-48v60,4,68,-18,68,-84r0,-198v3,-71,9,-98,56,-121v-89,-35,-56,-204,-56,-320v0,-65,-8,-87,-68,-83r0,-48v80,-6,119,25,119,107r0,221","w":350},"~":{"d":"509,-456v-9,65,-60,104,-129,105v-27,7,-186,-58,-212,-58v-36,0,-58,20,-66,59r-62,0v9,-65,60,-103,130,-104v26,-7,185,59,210,59v37,0,60,-20,67,-61r62,0","w":548},"\u00c7":{"d":"36,-331v0,-216,147,-354,366,-354v130,0,226,44,287,131r-43,27v-51,-73,-132,-110,-244,-110v-187,0,-315,117,-315,302v0,182,120,300,304,300v107,0,189,-37,246,-112r43,27v-67,89,-163,133,-288,133v-214,0,-356,-133,-356,-344xm436,92v0,-26,-72,-32,-98,-14v-1,-40,5,-74,8,-110r51,0r-2,52v65,0,97,25,97,76v-1,91,-136,91,-231,57r25,-44v36,11,64,17,85,17v43,0,65,-11,65,-34","w":719},"\u00d6":{"d":"437,-711v-37,0,-26,-46,-26,-79v0,-16,9,-24,26,-24v34,0,23,46,25,77v0,17,-8,26,-25,26xm321,-711v-36,2,-25,-47,-25,-79v0,-16,8,-24,25,-24v36,0,24,45,26,77v0,17,-9,26,-26,26xm739,-341v0,215,-142,348,-360,348v-219,0,-359,-131,-359,-348v0,-216,141,-339,359,-339v218,0,360,123,360,339xm688,-341v0,-188,-119,-291,-309,-291v-189,0,-308,104,-308,291v0,186,120,300,308,300v190,0,309,-112,309,-300","w":757},"\u00dc":{"d":"390,-711v-37,0,-26,-46,-26,-79v0,-16,9,-24,26,-24v37,0,25,45,25,77v0,17,-8,26,-25,26xm274,-711v-36,2,-25,-47,-25,-79v0,-16,8,-24,25,-24v38,0,26,45,26,77v0,17,-9,26,-26,26xm621,-255v-1,184,-100,262,-289,262v-193,0,-290,-77,-290,-264r0,-426r51,0r0,425v0,145,80,217,239,217v159,0,238,-71,238,-213r0,-429r51,0r0,428","w":664},"\u00e7":{"d":"506,-150v-24,106,-107,167,-232,168v-153,2,-256,-99,-256,-250v0,-160,103,-271,267,-268v114,1,192,57,215,154r-46,24v-23,-87,-80,-131,-171,-131v-132,-1,-214,88,-214,221v0,124,78,205,204,203v102,-1,169,-49,185,-142xm342,93v0,-26,-73,-32,-99,-14v-1,-41,6,-73,10,-109r50,0r-2,52v64,0,96,25,96,74v0,52,-39,78,-118,78v-25,0,-63,-7,-112,-21r23,-44v37,12,66,18,86,18v44,0,66,-11,66,-34"},"\u00f6":{"d":"331,-522v-38,0,-26,-46,-26,-78v0,-16,9,-24,26,-24v37,0,25,45,25,77v0,17,-8,25,-25,25xm215,-522v-36,2,-25,-46,-25,-78v0,-16,8,-24,25,-24v38,0,26,45,26,77v0,17,-9,25,-26,25xm532,-247v0,154,-105,258,-260,258v-153,0,-258,-104,-258,-258v0,-154,106,-259,260,-259v154,0,258,105,258,259xm481,-247v0,-126,-80,-212,-208,-212v-127,0,-208,86,-208,212v0,126,82,211,208,211v126,0,208,-85,208,-211","w":545},"\u00fc":{"d":"320,-522v-36,2,-25,-46,-25,-78v0,-16,8,-24,25,-24v38,0,26,45,26,77v0,17,-9,25,-26,25xm205,-522v-38,0,-26,-46,-26,-78v0,-16,9,-24,26,-24v37,0,25,45,25,77v0,17,-8,25,-25,25xm250,-36v118,1,180,-72,179,-191r0,-267r51,0r0,495r-51,0r0,-69v-39,53,-99,79,-179,79v-123,1,-208,-65,-207,-184r0,-321r51,0r0,320v0,92,52,138,156,138"},"\u0131":{"d":"43,0r0,-488r51,0r0,488r-51,0","w":136},"\u00a0":{"w":354}}});
/*!
 * The following copyright notice may not be removed under any circumstances.
 * 
 * Copyright:
 * ©G.M.
 * 
 * Trademark:
 * GM / Walkway
 */
Cufon.registerFont({"w":525,"face":{"font-family":"Walkway Oblique Black","font-weight":400,"font-style":"oblique","font-stretch":"normal","units-per-em":"1000","panose-1":"0 0 4 0 0 0 0 0 0 0","ascent":"800","descent":"-200","x-height":"11","bbox":"-224 -814 1155 179","underline-thickness":"30","underline-position":"-118","unicode-range":"U+0020-U+0131"},"glyphs":{" ":{"w":354},"!":{"d":"82,-155r112,-523r96,0r-112,523r-96,0xm154,-45v0,50,-97,65,-97,10v0,-51,10,-112,71,-112v61,0,26,61,26,102","w":194},"\"":{"d":"319,-547v-65,0,-35,-53,-29,-92v4,-22,23,-33,56,-33v65,0,34,53,28,91v-4,23,-23,34,-55,34xm203,-547v-64,0,-34,-54,-28,-92v4,-22,23,-33,55,-33v66,0,35,52,29,91v-4,23,-23,34,-56,34","w":292},"#":{"d":"548,-325r-91,0r-10,21r88,0r-39,80r-89,0r-33,63r-98,0r32,-63r-42,0r-33,63r-98,0r32,-63r-88,0r39,-80r90,0r10,-21r-91,0r44,-80r88,0r33,-63r98,0r-32,63r42,0r31,-63r98,0r-31,63r88,0xm317,-325r-11,21r42,0r11,-21r-42,0","w":531},"$":{"d":"516,-370v106,25,177,70,153,190v-19,99,-125,168,-233,189r-13,61r-96,0r10,-49r-51,-2r-10,51r-96,0r13,-64v-140,-36,-178,-138,-137,-276r96,0v-24,77,-21,159,61,183r51,-241v-107,-33,-157,-79,-136,-176v20,-96,91,-157,213,-184r14,-65r96,0r-12,54r51,1r12,-55r96,0r-15,68v116,29,156,120,127,245r-94,0v12,-70,-1,-130,-53,-152xm471,-610v-16,-1,-35,-2,-51,0r-45,210r49,10xm321,-595v-93,20,-148,137,-37,173xm570,-237v-11,-14,-35,-27,-74,-40r-41,195v69,-19,108,-53,118,-101v6,-27,5,-44,-3,-54xm405,-299r-49,-9r-51,239r51,1","w":642},"%":{"d":"775,-236v0,153,-87,255,-219,255v-92,0,-138,-43,-138,-129v0,-154,88,-257,221,-257v91,0,136,44,136,131xm177,2r-118,0r676,-680r117,0xm469,-528v0,151,-87,253,-221,253v-91,0,-137,-43,-137,-129v0,-153,89,-255,220,-255v92,0,138,44,138,131xm576,-68v61,0,101,-74,101,-152v0,-39,-19,-59,-58,-59v-61,0,-103,74,-103,153v0,39,20,58,60,58xm268,-362v62,0,102,-72,102,-150v0,-40,-19,-60,-58,-60v-61,0,-100,73,-102,153v0,38,19,57,58,57","w":750},"&":{"d":"276,-71v136,-1,229,-98,252,-234r96,0r-69,324r-96,0r17,-76v-65,49,-136,73,-212,73v-120,1,-246,-59,-220,-183v17,-81,93,-152,226,-214v-41,-31,-62,-70,-62,-115v0,-119,108,-179,225,-182v98,-2,181,47,160,149v-15,69,-97,137,-246,204v-69,31,-115,54,-138,71v-47,33,-71,67,-71,102v0,52,79,82,138,81xm481,-574v-55,-38,-176,-12,-176,62v0,34,24,62,71,85v74,-37,114,-71,121,-103v4,-18,-1,-33,-16,-44","w":603},"'":{"d":"203,-547v-64,0,-34,-54,-28,-92v4,-22,23,-33,55,-33v66,0,35,52,29,91v-4,23,-23,34,-56,34","w":175},"(":{"d":"441,-734v-152,169,-268,320,-268,602v0,95,26,195,77,300r-112,0v-42,-89,-63,-183,-63,-281v0,-275,100,-440,255,-621r111,0","w":233},")":{"d":"277,-451v0,276,-102,442,-259,619r-112,0v155,-167,273,-315,273,-597v0,-97,-27,-199,-81,-305r112,0v45,89,67,183,67,283","w":233},"*":{"d":"396,-633v20,0,40,10,40,32v0,19,-15,33,-44,44v54,20,17,78,-26,76v-15,0,-33,-5,-52,-15v1,45,-53,67,-90,42v-13,-9,-10,-27,-6,-42v-40,17,-97,27,-97,-17v0,-17,15,-31,46,-44v-56,-20,-18,-78,27,-76v23,0,15,3,50,15v-3,-46,56,-70,92,-43v13,10,8,28,4,43v27,-10,46,-15,56,-15","w":340},"+":{"d":"372,-210r-30,143r-96,0r30,-143r-191,0r18,-82r191,0r30,-141r96,0r-30,141r192,0r-18,82r-192,0","w":560},",":{"d":"143,64v-13,37,-125,37,-88,-22r65,-102v15,-43,119,-30,87,21","w":262},"-":{"d":"67,-254r5,-20r332,0r-5,20r-332,0","w":350},"\u2010":{"d":"67,-254r5,-20r332,0r-5,20r-332,0","w":350},".":{"d":"105,2v-51,0,-46,-25,-37,-58v5,-19,23,-29,55,-29v51,0,43,25,35,58v-5,19,-22,29,-53,29","w":209},"\/":{"d":"46,0r-105,0r519,-694r105,0","w":350},"0":{"d":"436,-671v161,0,257,102,223,265v-29,139,-47,267,-149,344v-62,47,-133,74,-220,74v-159,0,-261,-102,-226,-264v30,-140,46,-268,150,-345v63,-47,136,-74,222,-74xm160,-252v-23,109,40,177,148,177v119,0,202,-74,222,-177v12,-66,38,-127,38,-200v0,-86,-61,-132,-152,-132v-120,0,-201,77,-223,178","w":584},"1":{"d":"252,0r108,-513r-119,77r-152,0r324,-210r72,0r-137,646r-96,0","w":413},"2":{"d":"437,-657v128,-3,238,51,210,178v-14,62,-84,125,-215,183v-131,58,-235,118,-288,209r451,0r-19,87r-556,0v31,-140,126,-249,287,-328r156,-75v61,-30,92,-62,92,-95v0,-48,-44,-72,-131,-72v-139,0,-185,60,-213,182r-96,0v35,-177,134,-265,322,-269","w":584},"3":{"d":"624,-234v0,165,-159,241,-329,245v-155,3,-280,-72,-245,-231r10,-44r96,0v-5,26,-15,53,-15,82v0,77,80,107,168,106v111,-2,218,-39,218,-143v0,-55,-50,-82,-151,-82r-83,0r18,-88r85,0v118,0,177,-36,177,-107v0,-56,-75,-75,-146,-74v-142,2,-196,51,-223,172r-96,0v36,-175,139,-256,335,-259v117,-1,229,38,229,139v0,86,-42,135,-107,172v39,26,59,63,59,112","w":584},"4":{"d":"499,-201r-43,201r-96,0r43,-201r-389,0r342,-446r105,0r-275,359r236,0r76,-361r96,4r-76,357r129,0r-19,87r-129,0","w":584},"5":{"d":"625,-276v-7,181,-152,287,-339,287v-141,0,-238,-45,-241,-175v0,-26,3,-56,10,-90r96,0v-5,28,-8,52,-8,71v2,87,69,107,162,107v126,0,222,-60,222,-181v0,-83,-76,-117,-167,-116v-74,0,-138,29,-192,88r-86,0r94,-361r503,0r-19,87r-408,0r-36,136v149,-77,416,-37,409,147","w":584},"6":{"d":"236,-600v133,-87,423,-79,418,119v0,24,-3,52,-10,83r-95,0v5,-25,8,-47,8,-65v3,-127,-194,-125,-274,-70v-47,32,-67,79,-77,143v135,-80,407,-52,400,130v-6,170,-146,261,-318,266v-148,4,-246,-84,-214,-236r44,-206v15,-70,55,-123,118,-164xm509,-244v0,-73,-63,-105,-145,-104v-113,1,-203,57,-203,166v0,73,65,105,145,104v113,-2,203,-55,203,-166","w":584},"7":{"d":"235,0r-105,0r425,-559r-408,0r19,-87r560,0","w":584},"8":{"d":"642,-235v0,172,-156,244,-343,246v-136,2,-258,-45,-258,-163v0,-107,54,-161,143,-205v-31,-24,-47,-54,-47,-90v0,-147,140,-208,304,-210v119,-1,227,39,227,143v0,79,-35,118,-100,157v49,27,74,68,74,122xm277,-414v92,40,293,27,293,-83v0,-49,-49,-73,-148,-73v-110,0,-172,32,-186,97v-5,24,8,45,41,59xm317,-76v144,0,228,-39,228,-144v0,-58,-59,-87,-178,-87v-144,0,-227,33,-227,134v0,65,59,97,177,97","w":601},"9":{"d":"436,-662v146,-4,255,89,213,237v-43,151,-39,311,-166,387v-136,81,-423,78,-418,-118v0,-23,3,-51,10,-83r95,0v-5,27,-8,49,-8,67v-2,126,194,120,274,67v53,-35,69,-90,81,-160v-133,80,-406,51,-400,-129v6,-171,147,-263,319,-268xm562,-474v0,-74,-63,-105,-145,-104v-113,1,-203,55,-203,166v0,74,64,106,145,105v113,-1,203,-58,203,-167","w":584},":":{"d":"248,-366v1,50,-97,63,-97,9v0,-50,10,-108,71,-108v57,0,34,62,26,99xm179,-42v1,50,-97,63,-97,10v0,-51,10,-109,71,-109v57,0,34,62,26,99","w":244},";":{"d":"211,-320v-60,0,-35,-62,-27,-101v-1,-49,97,-65,97,-9v0,50,-11,110,-70,110xm139,58v-14,32,-58,44,-85,21v-13,-11,-11,-30,-3,-45r72,-135v12,-40,93,-46,93,2v-18,59,-53,104,-77,157","w":251},"<":{"d":"55,-208r14,-65r542,-175r-19,89r-370,119r319,119r-19,89","w":535},"=":{"d":"65,-245r14,-68r605,0r-14,68r-605,0xm48,-167r14,-68r605,0r-14,68r-605,0","w":630},">":{"d":"17,-32r19,-89r370,-119r-319,-119r19,-89r468,175r-14,65","w":535},"?":{"d":"413,-694v117,-2,230,56,204,177v-13,62,-63,120,-149,177v-97,64,-118,90,-131,185r-97,0v15,-114,57,-167,163,-240v69,-48,120,-61,120,-138v0,-49,-43,-74,-130,-74v-133,0,-171,61,-211,176r-81,-47v48,-138,144,-213,312,-216xm254,0v-59,0,-29,-64,-26,-103v4,-50,97,-65,98,-10v-11,49,-10,113,-72,113"},"@":{"d":"567,-166v-129,94,-392,60,-346,-143v33,-145,160,-267,328,-266v63,-1,109,13,138,42r16,-42r84,0r-6,22r-5,-7v5,15,-33,134,-113,357v-26,18,-30,18,-47,-15r31,-1v87,-21,164,-143,161,-219v-4,-111,-115,-172,-239,-170v-198,4,-382,119,-382,323v0,135,124,212,268,209v125,-3,248,-56,312,-136r109,0v-105,139,-239,217,-434,223v-214,7,-390,-130,-347,-356v37,-195,256,-350,489,-350v190,0,358,104,316,301v-25,117,-134,265,-279,265v-32,0,-50,-12,-54,-37xm411,-200v118,-4,223,-89,223,-212v0,-53,-36,-79,-108,-78v-119,2,-216,93,-216,209v0,55,34,84,101,81","w":840},"A":{"d":"584,0r-55,-200r-334,0r-141,200r-108,0r484,-678r75,0r184,678r-105,0xm437,-537r-179,250r248,0","w":636},"B":{"d":"689,-241v0,168,-153,241,-330,241r-348,0r145,-678r360,0v113,-2,213,45,213,147v0,89,-41,128,-111,173v47,25,71,64,71,117xm632,-514v0,-59,-67,-76,-136,-77r-263,0r-41,195v173,-10,440,49,440,-118xm592,-221v0,-70,-76,-86,-159,-87r-260,0r-47,221v188,-8,466,46,466,-134","w":642},"C":{"d":"75,-253v0,-266,204,-432,473,-432v151,0,231,48,287,149r-92,49v-41,-78,-98,-111,-214,-111v-204,0,-355,123,-355,326v0,130,96,193,234,192v101,0,189,-37,265,-112r71,49v-103,100,-221,150,-353,150v-183,0,-316,-88,-316,-260","w":719},"D":{"d":"757,-433v0,276,-199,430,-480,433r-258,0r145,-678r295,0v180,-1,298,75,298,245xm660,-417v0,-127,-82,-174,-220,-174r-199,0r-107,504r165,0v222,0,361,-116,361,-330","w":680},"E":{"d":"19,0r145,-678r561,0r-19,87r-466,0r-41,195r413,0r-19,87r-413,0r-47,222r471,0r-19,87r-566,0","w":564},"F":{"d":"240,-591r-41,195r368,0r-19,87r-368,0r-66,309r-95,0r145,-678r525,0r-19,87r-430,0","w":505},"G":{"d":"157,-272v-9,209,295,233,444,141v56,-35,92,-79,105,-135r-291,0r19,-88r382,0v-8,234,-192,355,-426,361v-191,5,-331,-82,-331,-260v0,-269,203,-432,471,-432v192,0,300,70,301,267r-98,0v-6,-134,-77,-180,-221,-180v-209,0,-346,120,-355,326","w":758},"H":{"d":"564,0r66,-309r-449,0r-66,309r-96,0r145,-678r96,0r-60,282r449,0r60,-282r96,0r-145,678r-96,0","w":680},"I":{"d":"19,0r145,-678r96,0r-145,678r-96,0","w":134},"J":{"d":"118,-200v-11,88,26,122,118,120v118,-3,153,-31,174,-130r100,-468r96,0r-101,473v-30,141,-124,212,-283,212v-150,0,-216,-70,-201,-207r97,0","w":486},"K":{"d":"607,0r-301,-328r-139,86r-52,242r-96,0r145,-678r96,0r-70,327r539,-327r158,0r-492,297r349,381r-137,0","w":670},"L":{"d":"19,0r145,-678r96,0r-126,591r428,0r-19,87r-524,0","w":505},"M":{"d":"702,0r102,-478r-360,478r-69,0r-158,-478r-102,478r-96,0r145,-678r94,0r179,545r412,-545r94,0r-145,678r-96,0","w":819},"N":{"d":"574,0r-347,-526r-112,526r-96,0r145,-678r86,0v43,69,102,158,175,266r173,257r111,-523r96,0r-145,678r-86,0","w":680},"O":{"d":"843,-422v0,265,-197,425,-465,429v-187,2,-318,-85,-318,-259v0,-268,192,-419,462,-423v185,-2,321,80,321,253xm745,-405v0,-131,-98,-184,-241,-183v-208,1,-346,112,-346,315v0,131,97,195,238,193v209,-2,349,-121,349,-325","w":757},"P":{"d":"733,-524v0,170,-151,247,-328,247r-231,0r-59,277r-96,0r145,-678r337,0v155,0,232,51,232,154xm441,-364v103,-1,192,-43,193,-142v0,-57,-48,-85,-145,-85r-248,0r-48,227r248,0","w":621},"Q":{"d":"842,-420v0,204,-120,334,-274,397r145,1r-19,88v-108,0,-216,12,-261,-56v-211,22,-378,-65,-374,-258v6,-269,193,-424,463,-427v186,-2,320,81,320,255xm745,-404v0,-130,-99,-183,-241,-183v-209,0,-347,115,-347,318v0,34,7,64,21,91v47,-49,104,-74,173,-74v93,-1,175,61,154,162v147,-41,240,-141,240,-314xm409,-75v16,-55,-20,-90,-76,-90v-45,0,-78,16,-99,48v43,30,102,44,175,42","w":757},"R":{"d":"739,-534v0,101,-50,160,-126,203v97,69,21,223,6,331r-96,0r39,-180v16,-77,-33,-104,-142,-104r-244,0r-61,284r-96,0r145,-678r349,0v151,0,226,48,226,144xm195,-372v187,-5,445,40,445,-141v0,-52,-48,-78,-143,-78r-256,0","w":642},"S":{"d":"674,-224v0,164,-170,228,-345,231v-173,2,-319,-62,-282,-234r9,-44r96,0v-41,129,15,193,196,191v114,-1,229,-28,229,-129v0,-44,-32,-51,-75,-65v-43,-14,-277,-55,-303,-79v-51,-27,-76,-65,-76,-114v0,-157,126,-218,334,-218v202,0,286,81,253,247r-94,0v3,-20,4,-38,4,-53v-4,-99,-71,-107,-182,-107v-138,0,-217,28,-217,115v0,21,11,39,34,51v23,12,64,23,125,34v120,21,199,44,237,68v38,24,57,59,57,106","w":642},"T":{"d":"446,-591r-126,591r-96,0r126,-591r-259,0r19,-87r614,0r-19,87r-259,0","w":545},"U":{"d":"699,-259v-38,175,-155,266,-368,266v-211,1,-294,-91,-256,-268r89,-417r96,0r-89,417v-26,121,31,181,178,181v144,0,228,-59,253,-178r90,-420r96,0","w":664},"V":{"d":"354,0r-71,0r-184,-678r103,0r146,537r367,-537r103,0","w":628},"W":{"d":"704,0r-73,0r-78,-309r-206,309r-73,0r-171,-678r103,0r135,534r183,-277r-64,-257r103,0r135,534r354,-534r103,0","w":970},"X":{"d":"560,0r-197,-280r-318,280r-125,0r394,-348r-235,-330r127,0r186,263r300,-263r126,0r-376,330r242,348r-124,0","w":604},"Y":{"d":"430,-320r-69,320r-96,0r69,-320r-275,-358r128,0r212,275r330,-275r126,0","w":626},"Z":{"d":"-1,0r16,-72r590,-519r-451,0r19,-87r591,0r-15,71r-590,520r487,0r-19,87r-628,0","w":626},"[":{"d":"28,168r192,-902r193,0r-19,89r-97,0r-154,724r97,0r-19,89r-193,0","w":233},"\\":{"d":"306,0r-228,-694r106,0r227,694r-105,0","w":350},"]":{"d":"133,168r-192,0r19,-89r96,0r154,-724r-96,0r19,-89r193,0","w":233},"^":{"d":"301,-511r-35,-48r-56,48r-112,0r156,-135r59,0r106,135r-118,0","w":298},"_":{"d":"-63,119r10,-48r600,0r-10,48r-600,0"},"`":{"d":"237,-539v-23,-15,-54,-35,-90,-63v-30,-23,-30,-48,7,-63v24,-10,45,-9,60,4v18,15,99,53,109,96v0,26,-57,46,-86,26","w":193},"a":{"d":"37,-183v0,-192,144,-317,333,-317v71,0,126,18,165,54r11,-52r96,0r-106,499r-96,0r10,-46v-55,37,-119,56,-192,56v-132,0,-221,-68,-221,-194xm498,-291v0,-86,-59,-125,-151,-124v-127,2,-214,90,-214,217v0,82,57,125,142,124v127,-2,223,-88,223,-217","w":564},"b":{"d":"625,-320v0,198,-139,330,-335,330v-68,0,-122,-20,-163,-59r-11,50r-96,0r145,-679r96,0r-46,216v55,-37,118,-56,188,-56v135,-1,222,68,222,198xm528,-305v0,-84,-53,-126,-139,-126v-134,0,-224,79,-224,223v0,83,60,133,149,131v131,-2,214,-95,214,-228","w":564},"c":{"d":"570,-175v-55,118,-145,183,-298,186v-135,3,-233,-64,-233,-190v0,-195,151,-321,352,-321v122,0,198,52,206,172r-96,40v-9,-92,-36,-127,-130,-127v-137,0,-234,85,-234,220v0,81,51,121,152,121v109,0,157,-41,197,-137"},"d":{"d":"38,-188v4,-196,144,-330,336,-330v71,0,126,19,165,56r46,-216r96,0r-145,679r-96,0r11,-48v-55,39,-120,58,-193,58v-131,2,-223,-71,-220,-199xm500,-304v0,-86,-56,-128,-149,-127v-128,2,-214,95,-216,227v-2,84,55,129,140,128v131,-2,225,-95,225,-228","w":564},"e":{"d":"371,-500v150,-3,258,86,225,239r-11,54r-455,1v-7,88,42,132,148,132v87,0,153,-36,198,-109r99,0v-75,131,-149,190,-317,194v-136,3,-225,-59,-225,-187v0,-194,146,-320,338,-324xm499,-291v10,-141,-199,-152,-284,-81v-28,23,-50,49,-64,81r348,0"},"f":{"d":"487,-580v-134,2,-208,19,-229,121r111,0r-19,88r-111,0r-79,372r-96,0r79,-372r-72,0r19,-88r72,0v26,-140,139,-206,343,-207","w":267},"g":{"d":"37,-181v5,-190,142,-319,333,-319v65,0,117,18,156,53r8,-42r96,0r-97,457v-30,141,-132,211,-305,211v-141,0,-231,-62,-201,-208r95,0v-11,91,31,123,126,121v113,-2,175,-44,191,-134v-55,35,-117,53,-184,53v-130,2,-221,-70,-218,-192xm487,-284v0,-79,-56,-131,-137,-129v-124,3,-215,89,-215,215v0,79,52,123,136,122v128,-2,216,-82,216,-208","w":545},"h":{"d":"217,-474v125,-84,398,-55,356,140r-71,334r-96,0r70,-325v14,-71,-23,-106,-109,-106v-102,-1,-173,64,-191,149r-60,282r-96,0r145,-678r96,0"},"i":{"d":"238,-571v-35,36,-81,46,-95,-6r16,-74v30,-43,68,-51,97,-5xm20,0r109,-508r96,0r-109,508r-96,0","w":136},"j":{"d":"238,-569v-35,35,-81,47,-95,-6r16,-76v30,-43,68,-51,97,-5xm-224,179r19,-88v135,-2,208,-24,230,-128r100,-467r96,0r-100,468v-31,143,-146,215,-345,215","w":136},"k":{"d":"345,-300r241,300r-131,0r-199,-248r-99,57r-41,191r-96,0r145,-678r96,0r-81,379r359,-210r167,4","w":532},"l":{"d":"20,0r145,-678r96,0r-145,678r-96,0","w":136},"m":{"d":"699,0r67,-313v15,-65,-10,-102,-86,-102v-85,0,-145,46,-160,114r-64,301r-96,0r67,-313v15,-66,-11,-102,-89,-102v-87,0,-148,66,-164,143r-58,272r-96,0r105,-490r96,0r-7,30v86,-54,246,-59,297,23v48,-42,110,-63,185,-63v135,-1,193,62,168,178r-69,322r-96,0","w":817},"n":{"d":"214,-457v123,-81,398,-56,357,135r-69,322r-96,0r67,-313v14,-69,-24,-102,-110,-102v-100,-1,-172,60,-189,143r-58,272r-96,0r105,-490r96,0"},"o":{"d":"613,-304v0,191,-151,311,-343,315v-137,2,-233,-69,-233,-196v0,-192,152,-311,343,-315v137,-3,233,67,233,196xm515,-288v0,-86,-60,-128,-154,-127v-132,2,-226,82,-226,213v0,85,62,129,154,128v132,-2,226,-84,226,-214","w":545},"p":{"d":"621,-304v0,199,-139,332,-334,332v-70,0,-125,-19,-164,-57r-42,197r-96,0r139,-657r96,0r-9,45v55,-37,118,-56,187,-56v135,-1,223,67,223,196xm524,-286v0,-82,-52,-128,-138,-127v-134,3,-225,93,-225,229v0,83,50,124,149,124v130,0,214,-92,214,-226","w":564},"q":{"d":"35,-175v4,-190,145,-325,333,-325v71,0,127,19,166,56r9,-45r96,0r-139,657r-96,0r41,-193v-53,35,-117,53,-193,53v-129,2,-219,-77,-217,-203xm496,-282v4,-85,-59,-132,-151,-131v-127,2,-212,92,-212,223v0,83,53,130,138,130v135,0,218,-78,225,-222","w":564},"r":{"d":"418,-415v-163,-2,-231,83,-259,214r-43,201r-96,0r105,-490r96,0r-10,45v55,-37,130,-55,225,-55","w":318},"s":{"d":"505,-167v0,126,-120,178,-259,180v-167,2,-229,-82,-197,-226r98,0v-5,21,-7,38,-7,53v2,72,46,86,126,86v83,0,129,-21,138,-64v5,-26,-18,-45,-70,-56v-4,-1,-36,-5,-96,-14v-95,-14,-142,-52,-142,-113v0,-119,120,-178,242,-180v161,-2,224,71,194,206r-99,0v4,-18,6,-33,6,-46v7,-92,-138,-83,-200,-55v-24,11,-38,28,-42,47v-5,25,17,41,68,50r102,18v92,15,138,53,138,114","w":486},"t":{"d":"262,-391r-84,391r-93,0r81,-391r-99,0r18,-87r99,0r29,-136r96,0r-29,136r101,0r-18,87r-101,0","w":263},"u":{"d":"413,-32v-128,84,-397,54,-355,-145r66,-311r96,0r-66,310v-14,71,23,104,112,104v104,0,167,-50,188,-151r56,-263r96,0r-104,490r-96,0"},"v":{"d":"282,0r-73,0r-156,-488r109,0r109,357r248,-357r106,0","w":471},"w":{"d":"575,0r-76,0r-62,-214r-146,214r-75,0r-143,-488r108,0r99,354r125,-188r-49,-166r109,0r98,354r237,-354r104,0","w":771},"x":{"d":"420,0r-147,-188r-226,188r-128,0r305,-252r-180,-236r128,0r128,173r206,-173r125,0r-280,236r197,252r-128,0","w":467},"y":{"d":"409,-15v-130,87,-396,52,-353,-151r68,-322r96,0r-68,321v-14,73,22,108,110,108v105,0,168,-52,190,-157r58,-272r96,0r-97,457v-30,140,-132,210,-306,210v-140,0,-230,-63,-200,-208r95,0v-12,90,31,121,125,121v103,0,165,-36,186,-107"},"z":{"d":"-10,0r15,-68r402,-335r-302,0r18,-85r446,0r-14,67r-403,336r349,0r-19,85r-492,0","w":473},"{":{"d":"256,168v-82,6,-148,-10,-142,-86v8,-101,54,-183,54,-282v0,-11,-1,-18,-4,-22v-3,-4,-22,-13,-59,-30r14,-63v80,-34,78,-10,94,-85r44,-211v23,-99,80,-131,191,-123r-19,89v-24,2,-59,-8,-67,10v-43,103,-35,291,-116,352v24,25,22,70,13,115r-40,189v-5,25,-7,42,-6,49v5,17,42,6,62,9","w":350},"|":{"d":"62,32r157,-738r96,0r-157,738r-96,0","w":233},"}":{"d":"345,-252v-79,35,-78,11,-94,86r-45,211v-22,99,-80,131,-190,123r19,-89v24,-2,58,8,66,-10v42,-102,36,-294,117,-352v-25,-27,-24,-69,-14,-115r40,-190v5,-25,8,-41,7,-48v-6,-17,-42,-6,-62,-9r19,-89v81,-6,147,10,141,86v-8,101,-40,184,-53,282v-1,11,0,18,3,22v3,4,23,13,60,29","w":350},"~":{"d":"634,-456v-32,75,-89,99,-179,105v-28,2,-176,-39,-204,-39v-37,1,-40,13,-57,40r-108,0v34,-74,89,-99,181,-105v27,-2,173,41,201,40v25,0,45,-14,58,-41r108,0","w":548},"\u00c7":{"d":"74,-243v0,-272,204,-442,474,-442v152,0,231,50,287,152r-93,50v-41,-80,-97,-113,-213,-113v-207,0,-357,127,-357,333v0,130,94,195,233,195v101,0,189,-38,266,-114r71,50v-104,102,-222,153,-354,153v-184,0,-314,-90,-314,-264xm500,56v0,85,-61,116,-163,118v-28,0,-75,-10,-141,-29r66,-81v43,14,73,21,91,21v34,0,72,-12,20,-12v-14,0,-40,6,-78,22v11,-57,28,-108,45,-160r94,0r-13,51v53,5,79,29,79,70","w":719},"\u00d6":{"d":"580,-673v-56,0,-37,-58,-28,-96v7,-30,26,-45,58,-45v55,0,35,59,27,95v-7,31,-26,46,-57,46xm464,-673v-55,0,-36,-59,-27,-96v7,-30,26,-45,57,-45v56,0,37,58,28,95v-7,31,-26,46,-58,46xm844,-431v0,271,-196,434,-466,438v-188,3,-317,-86,-317,-262v0,-270,191,-428,464,-432v185,-2,319,82,319,256xm747,-414v0,-133,-99,-185,-241,-185v-210,0,-347,118,-347,323v0,131,96,197,237,195v211,-3,351,-126,351,-333","w":757},"\u00dc":{"d":"533,-673v-56,0,-37,-58,-28,-96v7,-30,26,-45,58,-45v55,0,36,58,27,95v-7,31,-26,46,-57,46xm417,-673v-55,0,-36,-59,-27,-96v7,-30,26,-45,57,-45v56,0,37,58,28,95v-7,31,-26,46,-58,46xm699,-263v-37,177,-155,270,-368,270v-211,0,-293,-94,-255,-272r90,-425r96,0r-90,424v-29,122,29,185,177,185v144,0,229,-60,254,-181r91,-428r96,0","w":664},"\u00e7":{"d":"568,-164v-56,122,-145,188,-300,192v-135,3,-231,-68,-231,-195v0,-200,150,-333,354,-333v123,0,199,54,205,177r-97,42v-8,-93,-33,-132,-128,-132v-141,0,-236,91,-236,230v0,83,50,124,151,124v111,0,157,-44,198,-142xm405,59v0,83,-61,113,-163,115v-27,0,-74,-9,-139,-27r62,-81v44,14,75,21,93,21v28,0,43,-3,45,-10v-33,-3,-53,-2,-103,20v10,-58,28,-107,46,-157r93,0r-13,49v53,6,79,29,79,70"},"\u00f6":{"d":"491,-531v1,51,-97,67,-97,10v0,-49,12,-103,70,-103v55,0,36,57,27,93xm376,-531v1,51,-97,68,-97,10v0,-49,12,-103,69,-103v56,0,37,56,28,93xm615,-314v0,196,-150,321,-345,325v-136,2,-232,-71,-232,-200v0,-195,150,-321,345,-325v137,-2,232,70,232,200xm517,-298v0,-86,-59,-130,-153,-129v-135,2,-228,88,-228,221v0,86,61,132,153,130v134,-2,228,-87,228,-222","w":545},"\u00fc":{"d":"481,-531v1,51,-97,68,-97,10v0,-49,12,-103,69,-103v56,0,37,56,28,93xm365,-531v1,51,-97,67,-97,10v0,-49,12,-103,70,-103v55,0,36,57,27,93xm414,-33v-130,86,-398,54,-355,-149r68,-321r96,0r-68,320v-14,72,23,107,111,107v105,0,168,-52,190,-156r57,-271r96,0r-107,504r-96,0"},"\u0131":{"d":"20,0r104,-488r96,0r-104,488r-96,0","w":136},"\u00a0":{"w":354}}});
/*!
 * The following copyright notice may not be removed under any circumstances.
 * 
 * Copyright:
 * ©G.M.
 * 
 * Trademark:
 * GM / Walkway
 */
Cufon.registerFont({"w":525,"face":{"font-family":"Walkway Oblique Bold","font-weight":400,"font-style":"oblique","font-stretch":"normal","units-per-em":"1000","panose-1":"0 0 4 0 0 0 0 0 0 0","ascent":"800","descent":"-200","x-height":"11","bbox":"-201 -814.015 1120 179","underline-thickness":"30","underline-position":"-118","unicode-range":"U+0020-U+0131"},"glyphs":{" ":{"w":354},"!":{"d":"107,-166r109,-512r51,0r-109,512r-51,0xm97,0v-43,0,-8,-59,-8,-87v1,-28,62,-35,51,0v-10,32,-3,87,-43,87","w":194},"\"":{"d":"319,-547v-17,0,-26,-8,-21,-22v13,-36,0,-101,48,-103v17,0,23,7,20,21r-17,82v-3,15,-13,22,-30,22xm203,-547v-17,0,-23,-7,-20,-22r17,-82v3,-14,13,-21,30,-21v17,0,24,7,21,21r-17,82v-3,15,-14,22,-31,22","w":292},"#":{"d":"535,-350r-90,0r-33,71r89,0r-20,45r-89,0r-35,73r-52,0r35,-73r-89,0r-35,73r-52,0r35,-73r-89,0r20,-45r89,0r34,-71r-91,0r24,-45r88,0r34,-73r52,0r-34,73r89,0r33,-73r52,0r-33,73r89,0xm305,-350r-34,71r89,0r33,-71r-88,0","w":531},"$":{"d":"490,-354v109,25,176,64,154,183v-18,97,-123,164,-231,181r-13,60r-51,0r11,-53v-32,2,-66,1,-95,-3r-12,56r-51,0r14,-63v-134,-31,-178,-120,-143,-250r51,0v-28,98,2,178,102,201r64,-303v-107,-31,-157,-75,-138,-168v19,-95,90,-153,211,-176r14,-64r51,0r-12,58v30,-1,67,-1,96,1r12,-59r51,0r-14,66v113,26,157,102,132,219r-50,0v16,-87,-16,-150,-92,-170xm501,-646v-28,-4,-66,-4,-95,-1r-56,263r92,18xm353,-639v-93,24,-152,62,-152,148v0,44,33,76,100,95xm589,-247v-16,-21,-52,-40,-109,-57r-57,266v99,-20,156,-65,171,-136v7,-34,6,-58,-5,-73xm431,-315r-92,-19r-64,301v28,3,64,4,96,2","w":642},"%":{"d":"166,1r-62,0r642,-679r61,0xm751,-230v-4,142,-76,249,-195,249v-78,0,-119,-37,-119,-111v0,-144,79,-254,198,-254v78,0,118,39,116,116xm449,-543v0,143,-78,249,-197,249v-79,0,-119,-38,-117,-115v5,-142,79,-249,196,-249v79,0,118,38,118,115xm567,-28v79,0,131,-89,131,-190v0,-54,-25,-81,-74,-81v-78,0,-133,88,-133,191v0,53,25,80,76,80xm263,-341v79,0,132,-86,132,-188v0,-55,-25,-82,-75,-82v-78,0,-132,89,-132,189v0,54,25,81,75,81","w":750},"&":{"d":"268,-31v140,0,252,-116,278,-249r51,0r-64,299r-51,0r25,-118v-73,77,-154,115,-243,115v-99,0,-206,-51,-203,-140v5,-129,130,-203,256,-258v-56,-33,-84,-76,-84,-128v0,-107,94,-165,200,-168v89,-1,161,45,140,136v-15,64,-91,130,-233,197v-71,34,-119,60,-143,78v-56,42,-84,86,-84,132v0,67,81,104,155,104xm524,-561v1,-47,-47,-71,-99,-70v-74,2,-141,37,-140,113v0,45,29,82,88,110v101,-50,151,-101,151,-153","w":603},"'":{"d":"203,-547v-17,0,-23,-7,-20,-22r17,-82v3,-14,13,-21,30,-21v17,0,24,7,21,21r-17,82v-3,15,-14,22,-31,22","w":175},"(":{"d":"399,-734v-152,181,-251,348,-251,625v0,99,20,191,59,277r-57,0v-36,-82,-54,-171,-54,-266v0,-278,99,-460,246,-636r57,0","w":233},")":{"d":"-51,168v154,-181,255,-344,255,-620v0,-101,-21,-195,-63,-282r57,0v62,133,74,286,38,451v-36,170,-113,320,-230,451r-57,0","w":233},"*":{"d":"173,-584v-26,-21,0,-48,31,-40r57,30v10,-30,3,-79,43,-78v41,2,9,52,8,78v32,-7,70,-45,102,-22v3,45,-53,40,-80,58v19,15,60,18,62,47v-17,47,-72,3,-99,-10v-10,29,-3,79,-42,78v-42,-1,-10,-52,-9,-78v-28,10,-50,29,-82,32v-31,3,-23,-33,-1,-42r63,-27","w":340},"+":{"d":"353,-228r-34,161r-51,0r34,-161r-191,0r10,-46r191,0r34,-159r51,0r-34,159r192,0r-10,46r-192,0","w":560},",":{"d":"119,74v-7,23,-57,24,-50,-4r75,-140v7,-14,18,-19,33,-16v16,3,21,17,12,28","w":262},"-":{"d":"90,-254r4,-20r287,0r-4,20r-287,0","w":350},"\u2010":{"d":"90,-254r4,-20r287,0r-4,20r-287,0","w":350},".":{"d":"105,2v-41,0,-14,-43,-12,-67v1,-13,13,-20,30,-20v40,0,13,43,11,67v-1,13,-12,20,-29,20","w":209},"\/":{"d":"32,0r-54,0r497,-694r54,0","w":350},"0":{"d":"436,-671v149,0,236,104,201,260v-31,138,-44,276,-142,351v-74,57,-86,70,-205,72v-150,3,-238,-104,-204,-259v31,-139,45,-277,144,-353v59,-45,126,-71,206,-71xm137,-247v-29,124,40,212,162,212v136,0,230,-95,253,-212v14,-73,35,-143,41,-222v11,-174,-229,-189,-333,-97v-81,72,-94,197,-123,319","w":584},"1":{"d":"274,0r122,-573r-157,106r-78,0r260,-179r41,0r-137,646r-51,0","w":413},"2":{"d":"437,-657v119,0,218,48,190,167v-13,56,-79,115,-202,176v-36,17,-82,39,-135,70v-102,61,-161,128,-182,197r456,0r-10,47r-511,0v27,-126,119,-226,270,-308v84,-45,247,-99,265,-184v17,-83,-35,-118,-145,-118v-131,0,-211,65,-239,195r-51,0v35,-161,133,-242,294,-242","w":584},"3":{"d":"600,-228v0,159,-142,234,-305,239v-159,5,-267,-89,-219,-248r51,0v-4,22,-11,48,-11,72v-1,88,88,131,185,129v129,-3,248,-57,248,-181v0,-71,-56,-106,-168,-106r-61,0r10,-47v148,6,267,-22,269,-145v1,-69,-84,-95,-163,-95v-139,0,-222,61,-248,184r-51,0v33,-154,135,-231,306,-231v108,0,212,37,209,130v-3,97,-55,149,-139,179v58,22,87,62,87,120","w":584},"4":{"d":"480,-215r-46,215r-51,0r46,-215r-374,0r315,-432r54,0r-281,385r296,0r82,-386r50,3r-81,383r129,0r-10,47r-129,0","w":584},"5":{"d":"602,-272v-6,177,-136,280,-316,283v-178,3,-248,-85,-214,-237r51,0v-28,123,28,192,174,190v144,-2,248,-81,252,-225v3,-93,-83,-139,-183,-139v-83,0,-151,32,-206,95r-50,0r88,-341r458,0r-10,47r-408,0r-55,216v123,-109,426,-83,419,111","w":584},"6":{"d":"248,-600v125,-83,395,-74,387,111v0,19,-2,40,-7,63r-50,0v26,-115,-43,-183,-155,-183v-120,0,-208,67,-228,168r-22,96v107,-110,414,-103,409,90v-5,164,-128,256,-294,261v-140,4,-233,-88,-193,-229v40,-143,39,-302,153,-377xm298,-37v130,-3,228,-77,233,-209v2,-60,-48,-112,-92,-121v-157,-31,-303,49,-303,204v0,82,73,128,162,126","w":584},"7":{"d":"221,0r-54,0r433,-599r-422,0r10,-47r500,0","w":584},"8":{"d":"618,-229v0,168,-140,238,-319,240v-126,2,-240,-45,-237,-155v3,-118,67,-179,176,-212v-51,-23,-76,-56,-76,-100v0,-142,124,-200,279,-201v110,-2,208,36,206,133v-2,92,-48,132,-133,168v69,23,104,65,104,127xm382,-376v103,-2,215,-39,214,-139v0,-63,-55,-95,-165,-95v-132,0,-209,42,-217,143v-5,61,95,93,168,91xm309,-36v141,0,257,-51,257,-183v0,-73,-65,-110,-194,-110v-163,0,-258,49,-258,175v0,79,65,118,195,118","w":601},"9":{"d":"436,-662v137,-4,233,89,192,229v-43,149,-37,318,-157,396v-125,82,-395,75,-386,-111v0,-19,2,-40,7,-62r50,0v-29,115,40,182,154,182v117,0,208,-71,229,-168r25,-115v-106,109,-414,103,-409,-89v5,-163,130,-257,295,-262xm354,-283v132,-3,228,-76,233,-208v2,-61,-48,-113,-91,-122v-158,-32,-304,50,-304,204v0,82,73,128,162,126","w":584},":":{"d":"229,-379v-1,29,-62,34,-51,0v10,-32,3,-87,44,-86v42,2,7,69,7,86xm123,2v-43,-3,-10,-58,-8,-86v1,-16,14,-24,31,-24v42,0,9,58,7,85v-1,17,-13,25,-30,25","w":244},";":{"d":"249,-379v-1,31,-62,36,-51,0v10,-32,3,-88,44,-86v42,2,7,59,7,86xm114,72v-7,25,-61,25,-50,-4v20,-55,53,-104,78,-156v7,-15,18,-20,33,-17v16,4,18,17,12,30","w":251},"<":{"d":"80,-220r8,-41r498,-177r-10,49r-418,149r354,149r-10,49","w":535},"=":{"d":"93,-271r9,-42r560,0r-9,42r-560,0xm70,-167r9,-42r560,0r-9,42r-560,0","w":630},">":{"d":"42,-42r10,-49r418,-149r-354,-149r10,-49r422,177r-8,41","w":535},"?":{"d":"413,-694v97,0,188,44,188,131v0,72,-47,140,-142,204v-55,37,-90,68,-108,90v-17,21,-27,67,-35,103r-52,0v15,-95,56,-147,149,-214v80,-57,127,-76,136,-173v6,-67,-70,-95,-147,-94v-135,2,-193,65,-230,174r-42,-26v45,-130,140,-195,283,-195xm254,0v-42,0,-7,-59,-7,-87v1,-29,62,-34,51,0v-10,32,-3,87,-44,87"},"@":{"d":"584,-695v181,0,334,106,295,297v-21,104,-141,259,-256,260v-40,1,-41,-32,-30,-65v-57,52,-123,77,-200,79v-109,3,-172,-71,-150,-183v28,-141,144,-259,305,-260v78,-1,127,24,146,75r27,-75r48,0r-132,379v110,-19,197,-170,196,-263v-2,-127,-120,-201,-255,-198v-225,6,-415,148,-415,377v0,149,128,239,283,237v132,-2,266,-66,326,-145r59,0v-75,101,-227,189,-389,191v-209,3,-369,-134,-325,-356v38,-194,238,-350,467,-350xm658,-423v0,-70,-42,-105,-126,-100v-137,7,-246,115,-246,254v0,68,40,104,119,101v138,-5,253,-112,253,-255","w":840},"A":{"d":"598,0r-52,-213r-362,0r-144,213r-58,0r462,-678r47,0r163,678r-56,0xm452,-604r-236,343r319,0","w":636},"B":{"d":"665,-233v0,161,-136,233,-306,233r-325,0r144,-678r338,0v103,-1,196,43,193,137v-3,99,-52,145,-145,185v67,21,101,62,101,123xm657,-532v2,-70,-74,-100,-153,-99r-285,0r-54,255r284,0v112,-2,205,-49,208,-156xm381,-47v125,-1,232,-54,232,-172v0,-73,-59,-110,-176,-110r-282,0r-60,282r286,0","w":642},"C":{"d":"97,-245v0,-266,187,-440,451,-440v130,0,216,43,259,130r-49,27v-35,-73,-108,-110,-220,-110v-227,0,-388,150,-388,381v0,142,102,217,250,217v107,0,197,-37,269,-112r38,28v-85,87,-191,131,-316,131v-175,0,-294,-84,-294,-252","w":719},"D":{"d":"736,-441v0,275,-180,439,-459,441r-235,0r144,-678r273,0v185,0,277,79,277,237xm290,-47v245,-2,394,-143,394,-384v0,-133,-79,-200,-236,-200r-221,0r-124,584r187,0","w":680},"E":{"d":"42,0r144,-678r516,0r-10,47r-466,0r-54,255r413,0r-10,46r-413,0r-60,283r471,0r-10,47r-521,0","w":564},"F":{"d":"226,-631r-54,255r368,0r-10,46r-368,0r-70,330r-50,0r144,-678r480,0r-10,47r-430,0","w":505},"G":{"d":"791,-331v-14,210,-183,334,-401,338v-180,3,-314,-83,-310,-253v7,-265,184,-439,450,-439v186,0,279,80,279,239r-52,0v-2,-128,-81,-192,-236,-192v-231,0,-377,149,-388,381v-11,229,309,267,472,160v72,-47,114,-102,127,-187r-291,0r10,-47r340,0","w":758},"H":{"d":"587,0r70,-330r-494,0r-70,330r-51,0r144,-678r51,0r-64,302r494,0r64,-302r51,0r-144,678r-51,0","w":680},"I":{"d":"42,0r144,-678r51,0r-144,678r-51,0","w":134},"J":{"d":"222,7v-135,0,-197,-58,-183,-175r52,0v-12,86,35,128,137,128v131,0,179,-49,203,-162r101,-476r51,0r-102,482v-29,135,-115,203,-259,203","w":486},"K":{"d":"616,0r-302,-357r-168,110r-53,247r-51,0r144,-678r51,0r-79,371r578,-371r81,0r-456,292r326,386r-71,0","w":670},"L":{"d":"42,0r144,-678r51,0r-134,631r428,0r-10,47r-479,0","w":505},"M":{"d":"725,0r124,-582r-419,582r-41,0r-172,-582r-124,582r-51,0r144,-678r58,0r180,609r439,-609r57,0r-144,678r-51,0","w":819},"N":{"d":"585,0r-364,-602r-128,602r-51,0r144,-678r53,0r365,599r127,-599r51,0r-144,678r-53,0","w":680},"O":{"d":"522,-675v209,-4,333,122,289,336v-32,159,-160,291,-294,334v-28,8,-74,12,-139,12v-176,2,-301,-84,-297,-252v7,-263,175,-424,441,-430xm388,-40v230,-4,371,-148,381,-378v5,-101,-70,-178,-139,-201v-21,-6,-61,-9,-118,-9v-230,3,-372,141,-378,369v-4,144,103,221,254,219","w":757},"P":{"d":"713,-536v0,163,-135,240,-304,240r-253,0r-63,296r-51,0r144,-678r315,0v141,0,212,47,212,142xm437,-343v120,-2,222,-61,222,-180v0,-72,-54,-108,-162,-108r-270,0r-61,288r271,0","w":621},"Q":{"d":"821,-429v-6,227,-134,371,-320,422v33,38,114,23,181,26r-10,47v-100,1,-194,9,-229,-61v-203,25,-367,-60,-362,-248v7,-265,177,-428,441,-432v174,-2,303,80,299,246xm479,-48v171,-40,281,-169,290,-370v5,-101,-70,-178,-139,-201v-21,-6,-61,-9,-118,-9v-230,3,-378,142,-378,369v0,51,13,94,38,129v31,-53,97,-94,174,-95v72,-1,139,46,137,115v-1,21,-7,41,-4,62xm430,-40v-5,-20,2,-41,3,-61v1,-82,-115,-96,-176,-56v-26,17,-44,37,-53,62v52,45,132,63,226,55","w":757},"R":{"d":"718,-546v0,113,-60,179,-156,215v65,27,88,82,72,159r-37,172r-51,0r36,-170v19,-93,-36,-133,-158,-133r-267,0r-64,303r-51,0r144,-678r327,0v137,0,205,44,205,132xm430,-352v129,-2,235,-55,235,-179v0,-67,-53,-100,-160,-100r-278,0r-59,279r262,0","w":642},"S":{"d":"649,-214v0,157,-156,216,-320,221v-174,5,-308,-77,-256,-250r51,0v-38,136,34,203,216,203v135,-1,258,-44,258,-166v0,-39,-29,-68,-86,-86v-35,-11,-278,-59,-299,-82v-43,-25,-65,-59,-65,-104v0,-149,117,-207,309,-207v185,0,265,69,236,218r-50,0v22,-130,-56,-175,-196,-171v-155,5,-247,41,-247,151v0,74,79,91,173,108v89,16,146,30,173,41v69,27,103,69,103,124","w":642},"T":{"d":"432,-631r-134,631r-51,0r134,-631r-259,0r10,-47r569,0r-10,47r-259,0","w":545},"U":{"d":"331,7v-198,0,-271,-93,-235,-263r90,-422r51,0r-90,422v-30,139,32,216,194,216v159,0,253,-71,283,-213r90,-425r51,0r-90,424v-37,174,-151,261,-344,261","w":664},"V":{"d":"340,0r-43,0r-163,-678r54,0r146,606r395,-606r54,0","w":628},"W":{"d":"689,0r-43,0r-82,-364r-232,364r-43,0r-152,-678r54,0r136,604r223,-353r-56,-251r54,0r136,605r383,-605r53,0","w":970},"X":{"d":"570,0r-200,-311r-335,311r-65,0r374,-349r-215,-329r67,0r190,292r316,-292r66,0r-355,330r222,348r-65,0","w":604},"Y":{"d":"409,-328r-70,328r-51,0r70,-328r-247,-350r66,0r215,304r346,-304r65,0","w":626},"Z":{"d":"22,0r10,-45r631,-586r-478,0r10,-47r546,0r-9,44r-632,587r515,0r-10,47r-583,0","w":626},"[":{"d":"50,168r192,-902r148,0r-10,48r-97,0r-172,806r97,0r-10,48r-148,0","w":233},"\\":{"d":"320,0r-204,-694r54,0r204,694r-54,0","w":350},"]":{"d":"110,168r-147,0r10,-48r96,0r172,-806r-96,0r10,-48r148,0","w":233},"^":{"d":"312,-511r-39,-82r-73,82r-56,0r120,-135r38,0r70,135r-60,0","w":298},"_":{"d":"-40,119r10,-48r555,0r-10,48r-555,0"},"`":{"d":"293,-564v13,16,-6,35,-25,35v-7,0,-13,-2,-19,-7v-28,-33,-90,-77,-97,-117v3,-13,34,-28,49,-11","w":193},"a":{"d":"58,-175v0,-189,126,-325,312,-325v89,0,149,32,179,95r20,-93r51,0r-106,499r-51,0r18,-88v-58,65,-132,98,-223,98v-122,0,-200,-67,-200,-186xm522,-305v2,-100,-67,-149,-167,-148v-149,2,-242,117,-246,268v-3,96,61,151,158,149v150,-3,253,-114,255,-269","w":564},"b":{"d":"602,-320v-5,192,-123,330,-312,330v-86,0,-145,-33,-177,-98r-19,88r-51,0r144,-678r51,0r-56,265v57,-63,130,-95,219,-95v121,-1,204,67,201,188xm551,-310v2,-97,-59,-151,-156,-150v-161,2,-248,111,-255,270v-4,95,68,155,166,153v150,-3,241,-118,245,-273","w":564},"c":{"d":"113,-182v-3,97,68,147,168,146v105,0,176,-47,214,-140r44,21v-50,111,-139,166,-267,166v-124,0,-214,-64,-211,-183v5,-195,137,-328,330,-328v116,0,177,51,184,152r-52,23v-5,-85,-53,-128,-144,-128v-158,0,-261,111,-266,271"},"d":{"d":"59,-177v0,-190,126,-330,313,-330v89,0,149,32,179,95r56,-266r51,0r-144,678r-51,0r19,-88v-59,66,-133,99,-224,99v-123,0,-199,-69,-199,-188xm523,-310v1,-100,-66,-152,-166,-150v-149,2,-243,121,-247,272v-2,96,60,154,157,152v148,-4,254,-119,256,-274","w":564},"e":{"d":"371,-500v159,-6,248,117,195,273r-457,1v-20,120,31,190,161,190v97,0,169,-40,216,-119r52,0v-58,111,-151,166,-280,166v-125,1,-204,-59,-204,-179v0,-192,129,-325,317,-332xm520,-273v19,-113,-50,-181,-159,-180v-124,2,-210,79,-241,180r400,0"},"f":{"d":"473,-620v-150,1,-226,55,-240,175r111,0r-11,48r-111,0r-84,398r-51,0r84,-398r-72,0r11,-48r72,0v20,-150,118,-220,301,-221","w":267},"g":{"d":"60,-182v5,-185,126,-318,310,-318v84,0,141,30,170,90r17,-79r51,0r-99,466v-29,135,-122,202,-281,202v-142,-1,-203,-57,-185,-176r51,0v-9,90,38,129,145,129v124,0,197,-52,219,-156r14,-64v-58,59,-130,88,-215,88v-118,1,-200,-67,-197,-182xm511,-299v2,-93,-59,-157,-153,-154v-143,5,-243,112,-245,260v-2,92,59,148,152,146v145,-3,243,-104,246,-252","w":545},"h":{"d":"551,-333r-71,333r-51,0r69,-324v18,-87,-24,-136,-125,-136v-117,0,-199,81,-220,182r-59,278r-51,0r144,-678r51,0r-53,249v98,-124,410,-110,366,96"},"i":{"d":"220,-595v-18,21,-42,28,-50,-2r15,-70v16,-24,36,-28,51,-2xm43,0r105,-496r51,0r-105,496r-51,0","w":136},"j":{"d":"220,-594v-18,20,-42,26,-50,-2r15,-71v16,-24,36,-28,51,-2xm-201,179r10,-47v135,0,214,-53,237,-158r99,-469r51,0r-100,470v-29,136,-128,204,-297,204","w":136},"k":{"d":"464,0r-200,-272r-129,79r-41,193r-51,0r144,-678r51,0r-90,426r395,-245r89,2r-321,194r222,301r-69,0","w":532},"l":{"d":"43,0r144,-678r51,0r-144,678r-51,0","w":136},"m":{"d":"722,0r68,-319v18,-81,-12,-134,-102,-134v-98,0,-171,62,-189,147r-65,306r-51,0r68,-319v19,-82,-14,-135,-105,-134v-102,1,-174,86,-194,179r-58,274r-51,0r104,-489r51,0r-14,64v72,-90,284,-114,321,11v45,-57,109,-86,191,-86v124,0,170,63,147,172r-70,328r-51,0","w":817},"n":{"d":"550,-328r-70,328r-51,0r68,-319v18,-87,-24,-134,-126,-134v-117,0,-198,78,-219,179r-58,274r-51,0r104,-489r51,0r-14,67v96,-121,410,-112,366,94"},"o":{"d":"592,-312v-4,191,-134,320,-322,323v-125,2,-214,-69,-211,-190v4,-190,135,-317,321,-321v125,-2,215,68,212,188xm281,-36v153,-3,253,-108,258,-264v3,-68,-43,-135,-91,-146v-186,-42,-337,75,-337,258v0,98,69,154,170,152","w":545},"p":{"d":"601,-315v-5,194,-122,333,-312,333v-89,0,-148,-32,-178,-96r-53,246r-51,0r140,-657r51,0r-18,85v57,-64,130,-96,218,-96v124,-1,206,65,203,185xm549,-301v3,-95,-59,-154,-155,-152v-154,3,-256,118,-256,275v0,99,55,149,165,149v151,0,241,-117,246,-272","w":564},"q":{"d":"58,-174v0,-186,128,-326,310,-326v90,0,150,32,180,96r18,-85r51,0r-140,657r-51,0r52,-242v-55,61,-129,92,-224,92v-118,0,-196,-75,-196,-192xm264,-29v159,-3,248,-111,257,-269v3,-68,-44,-137,-90,-148v-181,-43,-321,84,-321,262v0,94,59,157,154,155","w":564},"r":{"d":"136,-196r-42,196r-51,0r104,-489r51,0r-18,83v50,-57,135,-95,233,-94r-10,47v-142,0,-230,86,-267,257","w":318},"s":{"d":"481,-158v0,119,-105,170,-235,171v-150,2,-209,-72,-180,-200r53,0v-24,98,21,152,139,151v104,-2,168,-31,168,-107v0,-32,-28,-55,-84,-69v-6,-1,-38,-7,-97,-16v-83,-13,-125,-48,-125,-103v0,-110,105,-170,218,-170v144,0,202,58,178,178r-54,0v18,-88,-22,-129,-129,-129v-79,0,-158,35,-158,108v0,32,28,53,83,63v17,3,51,10,102,19v81,15,121,49,121,104","w":486},"t":{"d":"245,-420r-89,420r-49,0r87,-420r-99,0r10,-47r99,0r32,-147r51,0r-32,147r101,0r-10,47r-101,0","w":263},"u":{"d":"443,-67v-83,107,-378,120,-369,-57v7,-130,50,-242,73,-364r51,0r-67,316v-20,88,22,137,127,136v119,0,192,-63,219,-188r56,-264r51,0r-104,489r-51,0"},"v":{"d":"268,0r-46,0r-132,-488r59,0r109,423r276,-423r56,0","w":471},"w":{"d":"560,0r-47,0r-66,-267r-171,267r-46,0r-121,-488r58,0r99,421r166,-263r-40,-158r59,0r98,421r266,-421r55,0","w":771},"x":{"d":"430,0r-151,-216r-242,216r-66,0r284,-253r-159,-235r66,0r132,200r222,-200r64,0r-259,235r175,253r-66,0","w":467},"y":{"d":"246,18v-118,0,-194,-65,-168,-184r69,-322r51,0r-69,321v-18,91,22,138,127,138v119,0,193,-64,220,-191r57,-268r51,0r-99,465v-29,135,-123,202,-282,202v-141,-1,-202,-57,-184,-176r51,0v-9,90,38,128,145,129v140,1,211,-69,227,-193v-51,53,-116,79,-196,79"},"z":{"d":"13,0r9,-42r445,-399r-331,0r10,-47r401,0r-9,41r-445,400r377,0r-10,47r-447,0","w":473},"{":{"d":"233,168v-78,9,-112,-32,-96,-107r47,-221v14,-84,7,-75,-53,-106r7,-35v19,-7,41,-18,68,-32v13,-12,23,-36,30,-73r47,-221v19,-80,59,-113,142,-107r-10,48v-64,-4,-72,22,-86,83v-22,96,-31,231,-84,294v-8,9,-22,17,-40,26v42,23,43,49,30,121v-15,81,-49,173,-49,257v0,26,28,26,57,25","w":350},"|":{"d":"84,32r157,-738r51,0r-157,738r-51,0","w":233},"}":{"d":"258,-233v-13,12,-23,36,-31,73r-47,221v-19,80,-59,113,-142,107r10,-48v65,4,72,-22,86,-84v22,-95,33,-232,85,-294v8,-8,21,-16,39,-25v-40,-23,-42,-52,-30,-121v15,-82,49,-173,49,-257v0,-26,-28,-26,-57,-25r10,-48v78,-9,112,32,96,107r-47,221v-15,84,0,77,54,105r-7,35v-19,7,-42,18,-68,33","w":350},"~":{"d":"606,-456v-21,62,-77,103,-151,105v-29,7,-174,-58,-200,-58v-36,0,-62,20,-79,59r-62,0v27,-69,78,-104,152,-104v29,-7,174,59,198,59v37,0,64,-20,80,-61r62,0","w":548},"\u00c7":{"d":"96,-243v0,-266,188,-442,452,-442v130,0,216,44,259,131r-49,27v-35,-73,-109,-110,-221,-110v-228,0,-383,151,-388,382v-3,143,101,220,249,220v107,0,197,-37,270,-112r38,27v-86,89,-192,133,-317,133v-176,0,-293,-87,-293,-256xm474,76v0,108,-140,115,-246,77r35,-44v33,11,60,17,81,17v43,0,67,-11,72,-34v3,-13,-10,-21,-39,-24v-19,-2,-37,1,-56,10v9,-39,21,-74,32,-110r51,0r-13,52v55,0,83,19,83,56","w":719},"\u00d6":{"d":"619,-737v-1,32,-62,37,-51,0v9,-30,3,-78,42,-77v40,1,10,52,9,77xm504,-737v-1,31,-62,38,-51,0v8,-29,3,-78,41,-77v41,1,11,51,10,77xm524,-680v210,-5,331,126,287,339v-33,159,-160,293,-294,336v-28,9,-74,12,-139,12v-176,2,-299,-85,-296,-252v5,-269,177,-429,442,-435xm388,-41v231,-3,371,-151,382,-381v5,-102,-70,-179,-139,-201v-21,-7,-61,-9,-118,-9v-229,3,-373,142,-379,372v-4,144,103,221,254,219","w":757},"\u00dc":{"d":"572,-737v-1,32,-62,37,-51,0v9,-30,3,-78,42,-77v40,1,10,52,9,77xm457,-737v-1,31,-62,38,-51,0v8,-29,3,-78,41,-77v41,1,11,51,10,77xm331,7v-199,0,-270,-94,-234,-264r90,-426r51,0r-90,425v-32,138,31,217,193,217v159,0,253,-71,283,-213r91,-429r51,0r-91,428v-37,175,-151,262,-344,262","w":664},"\u00e7":{"d":"538,-150v-44,100,-135,167,-268,168v-124,1,-213,-65,-210,-185v6,-198,136,-330,331,-333v108,-2,178,54,183,154r-52,24v-4,-87,-52,-131,-143,-131v-159,0,-263,115,-267,276v-3,97,67,148,167,148v105,0,177,-47,215,-142xm379,77v0,107,-139,114,-245,76r33,-44v35,12,62,18,82,18v67,0,109,-52,32,-58v-18,-2,-36,1,-55,10v7,-40,22,-73,33,-109r50,0r-13,52v55,0,83,18,83,55"},"\u00f6":{"d":"442,-522v-41,-1,-12,-53,-9,-78v2,-16,14,-24,31,-24v40,2,11,52,8,77v-2,17,-13,25,-30,25xm326,-522v-40,-2,-11,-53,-8,-78v2,-16,13,-24,30,-24v42,1,12,52,9,77v-2,17,-14,25,-31,25xm592,-315v-4,194,-133,322,-322,326v-125,3,-211,-67,-211,-190v0,-192,134,-324,323,-327v124,-2,213,69,210,191xm281,-36v153,-3,254,-111,259,-268v3,-69,-43,-137,-91,-148v-187,-43,-338,80,-338,262v-1,98,69,156,170,154","w":545},"\u00fc":{"d":"431,-522v-40,-2,-11,-53,-8,-78v2,-16,13,-24,30,-24v42,1,12,52,9,77v-2,17,-14,25,-31,25xm316,-522v-41,-1,-12,-53,-9,-78v2,-16,14,-24,31,-24v40,2,11,52,8,77v-2,17,-13,25,-30,25xm248,11v-118,0,-193,-65,-168,-184r68,-321r51,0r-68,320v-20,89,22,139,127,138v119,0,192,-64,219,-191r57,-267r51,0r-105,495r-51,0r14,-69v-50,53,-115,79,-195,79"},"\u0131":{"d":"43,0r104,-488r51,0r-104,488r-51,0","w":136},"\u00a0":{"w":354}}});
/*!
 * The following copyright notice may not be removed under any circumstances.
 * 
 * Copyright:
 * ©G.M.
 * 
 * Trademark:
 * GM / Walkway
 */
